/*
 * Copyright (c) 2026 EdgeImpulse Inc.
 *
 * Generated by Edge Impulse and licensed under the applicable Edge Impulse
 * Terms of Service. Community and Professional Terms of Service
 * (https://edgeimpulse.com/legal/terms-of-service) or Enterprise Terms of
 * Service (https://edgeimpulse.com/legal/enterprise-terms-of-service),
 * according to your product plan subscription (the “License”).
 *
 * This software, documentation and other associated files (collectively referred
 * to as the “Software”) is a single SDK variation generated by the Edge Impulse
 * platform and requires an active paid Edge Impulse subscription to use this
 * Software for any purpose.
 *
 * You may NOT use this Software unless you have an active Edge Impulse subscription
 * that meets the eligibility requirements for the applicable License, subject to
 * your full and continued compliance with the terms and conditions of the License,
 * including without limitation any usage restrictions under the applicable License.
 *
 * If you do not have an active Edge Impulse product plan subscription, or if use
 * of this Software exceeds the usage limitations of your Edge Impulse product plan
 * subscription, you are not permitted to use this Software and must immediately
 * delete and erase all copies of this Software within your control or possession.
 * Edge Impulse reserves all rights and remedies available to enforce its rights.
 *
 * Unless required by applicable law or agreed to in writing, the Software is
 * distributed on an "AS IS" BASIS, WITHOUT WARRANTIES OR CONDITIONS OF ANY KIND,
 * either express or implied. See the License for the specific language governing
 * permissions, disclaimers and limitations under the License.
 */
// Generated on: 01.02.2026 00:33:22

#include <stdio.h>
#include <stdlib.h>
#include "edge-impulse-sdk/tensorflow/lite/c/builtin_op_data.h"
#include "edge-impulse-sdk/tensorflow/lite/c/common.h"
#include "edge-impulse-sdk/tensorflow/lite/micro/micro_mutable_op_resolver.h"
#include "edge-impulse-sdk/porting/ei_classifier_porting.h"

#if EI_CLASSIFIER_PRINT_STATE
#if defined(__cplusplus) && EI_C_LINKAGE == 1
extern "C" {
    extern void ei_printf(const char *format, ...);
}
#else
extern void ei_printf(const char *format, ...);
#endif
#endif

#define STRINGIZE(x) #x
#define STRINGIZE_VALUE_OF(x) STRINGIZE(x)

#if defined (__GNUC__)  /* GNU compiler */
#define ALIGN(X) __attribute__((aligned(X)))
#define DEFINE_SECTION(x) __attribute__((section(x)))
#elif defined (_MSC_VER)
#define ALIGN(X) __declspec(align(X))
#elif defined (__TASKING__) /* TASKING Compiler */
#define ALIGN(X) __align(X)
#define DEFINE_SECTION(x) __attribute__((section(x)))
#elif defined (__ARMCC_VERSION) /* Arm Compiler */
#define ALIGN(X) __ALIGNED(x)
#define DEFINE_SECTION(x) __attribute__((section(x)))
#elif defined (__ICCARM__) /* IAR Compiler */
#define ALIGN(x) __attribute__((aligned(x)))
#define DEFINE_SECTION(x) __attribute__((section(x)))
#elif defined (__clang__) /* LLVM/Clang Compiler */
#define ALIGN(X) __ALIGNED(x)
#define DEFINE_SECTION(x) __attribute__((section(x)))
#endif

#if defined(EI_MODEL_SECTION) && (defined(__GNUC__) || defined(__clang__))
#define MODEL_SECTION(X) __attribute__((section(STRINGIZE_VALUE_OF(X))))
#else
#define MODEL_SECTION(X)
#endif

#ifndef EI_MAX_SCRATCH_BUFFER_COUNT
#ifndef CONFIG_IDF_TARGET_ESP32S3
#define EI_MAX_SCRATCH_BUFFER_COUNT 4
#else
#define EI_MAX_SCRATCH_BUFFER_COUNT 4
#endif // CONFIG_IDF_TARGET_ESP32S3
#endif // EI_MAX_SCRATCH_BUFFER_COUNT

#ifndef EI_MAX_OVERFLOW_BUFFER_COUNT
#define EI_MAX_OVERFLOW_BUFFER_COUNT 10
#endif // EI_MAX_OVERFLOW_BUFFER_COUNT

using namespace tflite;
using namespace tflite::ops;
using namespace tflite::ops::micro;

namespace {

#if defined(EI_CLASSIFIER_ALLOCATION_STATIC_HIMAX) || defined(EI_CLASSIFIER_ALLOCATION_STATIC_HIMAX_GNU)
constexpr int kTensorArenaSize = 2416;
#else
constexpr int kTensorArenaSize = 1392;
#endif

#if defined(EI_CLASSIFIER_ALLOCATION_STATIC)
#if defined (EI_TENSOR_ARENA_LOCATION)
uint8_t tensor_arena[kTensorArenaSize] ALIGN(16) DEFINE_SECTION(STRINGIZE_VALUE_OF(EI_TENSOR_ARENA_LOCATION));
#else
uint8_t tensor_arena[kTensorArenaSize] ALIGN(16);
#endif
#elif defined(EI_CLASSIFIER_ALLOCATION_STATIC_HIMAX)
#pragma Bss(".tensor_arena")
uint8_t tensor_arena[kTensorArenaSize] ALIGN(16);
#pragma Bss()
#elif defined(EI_CLASSIFIER_ALLOCATION_STATIC_HIMAX_GNU)
uint8_t tensor_arena[kTensorArenaSize] ALIGN(16) __attribute__((section(".tensor_arena")));
#else
#define EI_CLASSIFIER_ALLOCATION_HEAP 1
uint8_t* tensor_arena = NULL;
#endif

static uint8_t* tensor_boundary;
static uint8_t* current_location;

template <int SZ, class T> struct TfArray {
  int sz; T elem[SZ];
};

enum used_operators_e {
  OP_FULLY_CONNECTED, OP_SOFTMAX,  OP_LAST
};

struct TensorInfo_t { // subset of TfLiteTensor used for initialization from constant memory
  TfLiteAllocationType allocation_type;
  TfLiteType type;
  void* data;
  TfLiteIntArray* dims;
  size_t bytes;
  TfLiteQuantization quantization;
};

typedef struct {
  TfLiteTensor tensor;
  int16_t index;
} TfLiteTensorWithIndex;

typedef struct {
  TfLiteEvalTensor tensor;
  int16_t index;
} TfLiteEvalTensorWithIndex;

TfLiteContext ctx{};
static const int MAX_TFL_TENSOR_COUNT = 4;
static TfLiteTensorWithIndex tflTensors[MAX_TFL_TENSOR_COUNT];
static const int MAX_TFL_EVAL_COUNT = 4;
static TfLiteEvalTensorWithIndex tflEvalTensors[MAX_TFL_EVAL_COUNT];
TfLiteRegistration registrations[OP_LAST];

namespace g0 {
const TfArray<2, int> tensor_dimension0 = { 2, { 1,1044 } };
const TfArray<1, float> quant0_scale = { 1, { 1.0115795135498047, } };
const TfArray<1, int> quant0_zero = { 1, { -114 } };
const TfLiteAffineQuantization quant0 = { (TfLiteFloatArray*)&quant0_scale, (TfLiteIntArray*)&quant0_zero, 0 };
const MODEL_SECTION(EI_MODEL_SECTION) ALIGN(8) int32_t tensor_data1[2] = { 0, 0, };
const TfArray<1, int> tensor_dimension1 = { 1, { 2 } };
const TfArray<1, float> quant1_scale = { 1, { 0.00035164740984328091, } };
const TfArray<1, int> quant1_zero = { 1, { 0 } };
const TfLiteAffineQuantization quant1 = { (TfLiteFloatArray*)&quant1_scale, (TfLiteIntArray*)&quant1_zero, 0 };
const MODEL_SECTION(EI_MODEL_SECTION) ALIGN(16) int8_t tensor_data2[2*10] = { 
  76, -104, 74, 109, 127, -81, -46, -109, 11, 91, 
  70, 15, -23, -23, -99, -1, -119, 56, -98, 37, 
};
const TfArray<2, int> tensor_dimension2 = { 2, { 2,10 } };
const TfArray<1, float> quant2_scale = { 1, { 0.0054391645826399326, } };
const TfLiteAffineQuantization quant2 = { (TfLiteFloatArray*)&quant2_scale, (TfLiteIntArray*)&g0::quant1_zero, 0 };
const MODEL_SECTION(EI_MODEL_SECTION) ALIGN(16) int32_t tensor_data3[10] = { 5, 0, 0, -4, 0, -3, -6, 0, 2, 0, };
const TfArray<1, int> tensor_dimension3 = { 1, { 10 } };
const TfArray<1, float> quant3_scale = { 1, { 0.00072034716140478849, } };
const TfLiteAffineQuantization quant3 = { (TfLiteFloatArray*)&quant3_scale, (TfLiteIntArray*)&g0::quant1_zero, 0 };
const MODEL_SECTION(EI_MODEL_SECTION) ALIGN(16) int8_t tensor_data4[10*20] = { 
  45, -83, -73, 15, 108, 17, 123, -113, -6, -54, 26, 22, 70, 123, 59, -89, 1, -27, -76, 27, 
  -61, -124, 74, 73, 58, -44, -56, -105, -101, 20, -57, -57, 68, 24, 76, 97, -54, 37, -48, -33, 
  -25, -105, -3, 114, -52, -64, -39, 22, -44, -12, 35, 55, -23, -94, -14, -76, 91, -106, -109, -88, 
  63, 14, 101, 3, -72, 83, -64, -50, -31, 79, 108, 54, -80, -103, -5, -48, -30, -59, 114, 91, 
  -50, 65, -106, -46, -92, 76, -39, 29, -99, 67, 98, 63, -22, 52, 27, -102, -54, 109, 78, 63, 
  -95, 75, -75, 54, -33, -127, -8, 84, -127, -52, 83, 64, -56, 68, -26, -74, -40, 66, -74, 4, 
  98, 51, -64, -87, 87, 85, 11, -37, -29, 3, 66, 44, -79, -46, 10, -19, 64, -19, -19, -38, 
  -16, 98, 52, 66, -12, 93, 95, -120, 123, -33, -64, 121, 72, -28, -109, 53, 94, 6, 16, 91, 
  68, 45, 58, 45, 95, 36, -117, -28, -32, 14, 103, 24, -5, -115, -37, 105, -95, 77, -52, -35, 
  48, -78, -17, -2, 87, 109, -22, 12, 84, -101, -65, 53, -81, -59, 61, -20, -20, 96, 3, 84, 
};
const TfArray<2, int> tensor_dimension4 = { 2, { 10,20 } };
const TfArray<1, float> quant4_scale = { 1, { 0.0035274263937026262, } };
const TfLiteAffineQuantization quant4 = { (TfLiteFloatArray*)&quant4_scale, (TfLiteIntArray*)&g0::quant1_zero, 0 };
const MODEL_SECTION(EI_MODEL_SECTION) ALIGN(16) int32_t tensor_data5[20] = { 2, -2, 2, -1, 0, 0, -1, 0, -1, 2, 0, -5, 2, -3, 0, -5, 0, 2, -2, 0, };
const TfArray<1, int> tensor_dimension5 = { 1, { 20 } };
const TfArray<1, float> quant5_scale = { 1, { 0.00068816868588328362, } };
const TfLiteAffineQuantization quant5 = { (TfLiteFloatArray*)&quant5_scale, (TfLiteIntArray*)&g0::quant1_zero, 0 };
const MODEL_SECTION(EI_MODEL_SECTION) ALIGN(16) int8_t tensor_data6[20*1044] = { 
  2, -12, -27, 93, 34, 53, 30, -69, 37, -84, -4, 38, -94, -70, -23, 96, 28, 80, -52, -52, 94, -27, 92, 22, -96, 72, -54, -52, -74, -96, 28, 35, 66, -92, -102, 46, -69, 80, -12, -68, 45, -10, -84, -33, -94, 91, -40, 94, -76, -80, -17, -101, 44, -25, -95, 63, 96, 82, 106, 65, 41, -45, 13, -73, -12, -71, 5, 35, 90, -13, 27, -91, -65, -28, -24, -60, 74, 49, -17, 89, 28, -6, -19, 31, -24, 13, -108, -15, -88, -102, 37, -23, -57, 90, -14, -109, 100, 55, -84, -45, -8, -113, 24, 56, -25, -41, -40, 8, -57, -52, 88, 35, 9, 71, -51, 96, -54, 38, -106, 35, 47, -8, 25, 93, -115, -25, 65, 7, 76, -21, -98, -66, 97, 21, 83, -60, 0, 111, -34, -2, 55, -11, -81, -64, -40, -20, -23, 56, -66, -62, -50, 63, -29, 60, 36, -39, 76, 24, -106, -2, 30, 72, -67, -55, -44, -49, -90, -84, 65, 82, -67, -20, -32, -38, -23, 69, 57, 55, -79, -84, 11, 48, -106, -75, 3, 40, -59, -105, 61, -2, 87, -76, 5, 108, 49, 49, -73, 84, -106, -13, -32, 55, 95, 42, 33, -75, 77, -65, 27, 82, 96, 53, -22, -42, -46, -27, -41, -61, -30, -63, 29, 74, 36, -96, 92, -80, -40, -56, -109, 102, -30, -104, -45, -39, -95, -75, 87, 15, 80, 80, -46, -70, 45, -72, 69, 83, -66, 5, -50, 101, 32, 69, -29, 42, -103, -63, -11, 41, -57, 34, -1, 94, -64, 18, -6, 91, -8, 85, 82, 100, 60, -41, -15, -9, -15, -104, -91, 46, -20, -57, 98, -60, 18, -37, -63, -1, -71, -39, -37, -28, -19, 113, 21, -49, 90, 39, -12, -18, 15, 84, 5, 59, 27, -104, 55, -40, 102, -105, 41, 43, -33, -106, -12, -31, 1, 0, -7, -60, 2, -97, 42, -44, 2, 22, 24, -93, -16, 28, -2, -31, -39, 31, -94, -41, -8, 87, -14, 97, -93, -83, -92, -79, 40, 34, -40, 39, -67, -18, 28, -44, 84, 104, -77, -105, 33, 7, -9, -51, 61, 3, -20, -28, 61, 102, 47, -7, -70, 35, -48, 93, 21, -50, 56, 69, 4, 26, -105, -61, 35, -23, 52, 77, -44, 37, 89, -92, -23, -66, 64, -52, 47, -43, -82, -9, 19, -97, -25, -107, 28, 51, -25, 41, 27, 57, 14, -95, 69, 14, 0, -34, 21, 92, 20, 13, -35, -106, 109, -61, 111, -106, 73, 79, -67, 86, 87, -43, 96, -5, -73, 58, 102, 79, 99, 15, -89, 20, 97, 91, -52, 15, -58, -29, -16, -69, -83, -17, 73, 33, -73, -50, 100, -27, 44, -104, 87, 13, -78, -51, -56, -3, -82, 109, -9, -75, 77, -84, -77, 18, -91, -12, 52, -44, 58, 47, -76, 81, -63, -30, 35, 21, 101, -4, -82, -24, 72, 19, -104, -5, -36, -22, -15, -38, 92, -35, -10, -45, -67, 105, -67, 60, -79, -24, -90, 11, 85, -22, -38, 86, -69, 26, 105, 56, -11, -37, 14, 14, 10, -89, -59, 2, -65, 35, -74, -9, 10, 62, 16, 14, 24, 107, -59, -42, 7, -96, 23, 96, 18, -86, -29, -96, 14, -10, 76, -41, 51, 95, -73, -52, 34, -44, 60, 50, -104, 73, -34, -31, -51, -105, 86, 94, 66, 7, 44, -55, -5, 110, -84, 56, -103, -101, -67, -15, 12, -27, 42, 11, 102, 46, 63, 78, 43, 62, -93, 65, -49, -54, -88, 101, 43, 46, -40, 60, 14, -48, 5, 30, -7, -23, 60, 72, 40, 94, -3, 46, -102, -38, -101, -4, 91, 45, 59, 104, -82, 83, 15, 14, 32, 0, 7, -39, -52, -99, -37, -49, 34, 45, 91, -64, -45, 16, 85, 34, -47, 107, -78, 32, 89, 35, -76, -18, -9, 103, 14, 16, 71, -101, -12, -107, 29, 75, 25, 110, -88, 20, -7, 61, -86, -45, 72, -42, -40, -37, -49, 30, -19, 27, 105, -47, 89, 98, 38, -5, -38, 99, 62, -6, 78, 24, -64, -103, -29, 112, -41, 97, 3, 98, 16, -94, 5, -85, 1, 48, -29, 51, -63, -3, 24, -62, -58, 40, 67, 46, 97, -66, -91, -88, 34, 105, 82, 61, 91, -23, 2, 0, 84, -73, -35, 46, -39, 2, -99, 58, 17, 25, -92, -46, 8, -20, -13, 78, -61, 106, 36, 69, 33, 2, 107, -12, 52, 35, 80, -75, -44, -33, 9, 29, 68, -59, -84, 39, -89, -2, 7, -49, -68, -105, -51, -33, 48, -87, -86, -63, 79, -33, -25, 6, -74, 70, -70, -71, 104, -55, 24, -15, 78, 16, -69, -24, 95, -58, -55, 97, 28, 62, -110, 4, -2, -34, -57, 45, -87, -4, 18, -94, 0, -10, 53, -29, 13, 10, -94, 0, -42, 42, -15, 94, 105, -39, -35, -91, -87, -41, -85, 69, 91, 74, -101, 33, 68, -9, 65, -60, 104, 1, 31, 108, 20, -13, 66, 58, 65, -94, 56, 61, -42, -8, 92, -61, -102, -101, -96, -84, 66, 10, 17, -23, -88, -10, -21, -23, 4, 64, 11, 74, -48, -67, 38, -1, 10, -23, 39, -77, 12, 38, -67, -11, -53, -43, 65, 67, 6, -84, 0, 24, -84, -103, -7, -106, 5, 61, 26, 59, -5, 79, -33, 47, 7, -69, 32, -25, -20, -65, 16, 49, 62, -64, -28, 47, 31, 21, -110, 92, 1, -60, 11, -105, -49, -53, 73, 47, 53, -92, 70, -54, -30, 94, -74, 36, -45, -28, 51, -23, 62, -8, 30, 54, -109, -80, 106, 57, -11, -30, 71, 31, 32, -105, -78, 92, 73, 3, 55, -54, 35, -74, 96, -73, -19, 48, 59, -69, 66, -71, 91, -84, -11, -92, -107, -97, -105, -53, 23, -10, -38, 10, -11, -28, -83, 86, -10, -99, -98, 67, -2, -40, -109, -62, 47, 2, 98, -84, -56, -77, -106, 41, 16, 77, -85, -26, -25, -99, 10, -102, -56, 98, -105, -94, -41, -64, 30, 30, -59, 75, 97, -66, -78, -94, 61, 27, 23, -41, -11, -75, -21, 95, -51, 90, 98, 37, -22, 5, 95, -46, 53, 47, -108, 43, 34, 76, 33, 2, 77, -110, -71, 23, -29, -108, -38, -19, 49, 0, -71, 28, -69, -4, 
  -109, -8, 90, 12, -33, 18, 33, 31, 47, 100, -71, 45, 14, 19, 66, -60, 84, 53, 109, -66, -20, -15, 85, -23, 54, 51, -20, 77, -28, -81, -18, 100, 94, 105, 74, -34, -87, -10, 28, -49, -47, -60, 104, 75, 61, -30, 80, -77, 8, -1, -101, -15, 5, -41, -14, -110, -105, 86, 89, -89, -22, 72, -49, -19, -27, -2, 79, -110, 58, -30, 97, -64, 65, -7, 15, 89, -33, -60, -7, 98, -14, -109, -55, -2, 49, 8, -23, -79, 20, -26, 34, 32, 98, 23, 3, 60, -53, -90, 18, -97, 23, 102, -1, -16, -75, 50, 77, -71, -22, -21, -34, -97, 107, 31, -33, 94, 27, 22, -83, -74, 27, -102, -34, -56, 51, -8, -4, 41, -89, 100, -39, -33, 66, -33, 101, 66, -71, -33, -18, 69, -102, 17, -14, -48, 6, 68, 66, 51, -44, -69, -51, -39, -50, -42, -42, 77, 67, 101, -76, -51, -64, -87, 61, -47, -87, -32, -80, 18, -93, -28, -21, -67, 48, -36, -18, 68, 59, -34, -58, -64, -84, 30, 37, 37, -22, 92, -6, -22, 67, 104, 86, 50, 82, 95, -12, 21, -60, -93, -91, 95, 77, -41, -89, 11, -60, 15, 61, 96, 56, 79, -57, -19, 3, -9, -84, 4, 33, 39, -4, -76, -92, -90, 44, -46, 39, 91, -28, -23, -46, -91, 109, 80, 89, 61, -67, -60, 7, -6, -12, 2, -96, 62, 24, 112, -10, -15, -2, -85, 36, 94, 46, -64, 9, 29, 113, 39, -37, -4, -82, 63, -110, -39, 95, -69, 61, -41, -108, -22, 92, -95, -65, -33, 62, 52, 103, -98, 68, -3, 33, -14, -75, -67, 13, 28, 28, -40, 41, -110, 102, -91, 17, -43, -32, 26, -28, -2, -29, 6, 55, 5, 92, 0, -41, -10, 11, -25, -65, -37, -101, 35, 21, 72, 90, -97, 97, -37, 80, 103, 16, 10, -31, 93, 27, -100, 84, -11, 20, -43, 70, -18, -53, -41, -17, 102, 64, 94, -43, 12, 79, -76, 86, 74, -14, 45, 23, 37, 17, -84, -85, -101, 105, 50, 79, 38, 82, -44, -36, -108, -87, -28, -98, 31, 99, 57, -48, 108, 32, 95, -103, -44, -63, -4, 55, 40, -23, 65, -110, -103, 67, 12, -93, 76, -51, 101, 60, -23, -11, -43, -70, 74, -54, -38, -41, -74, 72, -20, 107, 82, -36, -91, 26, 23, -69, -22, 5, 72, -2, -42, -44, -70, 99, -59, -83, 105, -109, -50, -12, -65, -86, -58, -26, 73, 92, -96, 5, -71, -47, 71, -3, -53, 70, -39, -62, -43, 93, -103, 29, -22, 69, 78, 62, -29, -15, 91, 52, 50, 63, 65, 8, 77, 24, -8, 54, -95, 57, 71, -27, 56, 69, 70, 31, 27, 12, 107, -1, -90, -40, 65, 42, -89, -88, 90, -22, 108, -49, 55, 77, -67, 4, 102, 44, -32, 24, -101, 46, 1, -84, 67, 14, 107, -34, -22, 50, -52, -68, 5, 64, -22, -87, -41, -82, 22, -7, -30, 1, 108, 82, 109, -69, 39, -81, 17, -99, 100, 103, -8, -5, 33, -69, 107, 36, -53, 3, 13, -39, -96, 38, 62, -89, 83, -7, -72, 31, -58, -91, -56, -92, -82, -57, 48, 46, 54, -53, 90, -97, 83, -20, 9, 42, 5, 63, -60, -94, 38, 43, 63, -14, 102, -26, -36, -37, 31, -61, -35, -15, 27, 41, 21, -83, -7, 84, -3, 99, 36, 92, -27, -42, 46, 72, 97, 95, -70, -31, -24, 101, 75, -61, -14, -37, -108, -39, -79, -96, 3, 62, 52, 31, -86, -102, -75, 27, -18, -77, 79, -100, 23, 90, -5, -73, -12, 53, 27, 73, -21, 87, -3, 39, -25, 91, -72, -51, -4, 91, -38, -24, 16, 12, 69, -103, 99, -49, -38, 61, -112, 98, 2, 17, 95, -109, 44, -3, -80, 89, -81, -50, -2, 59, -43, 82, -104, 87, -37, -5, -60, -18, 14, 87, -105, 86, -99, -30, -101, 38, -22, 66, 30, -25, -50, -58, 10, 71, -9, 100, 43, -92, 104, -86, -40, 34, -77, -30, 40, -19, -61, -21, 74, -96, 95, -6, 39, 88, 91, 40, -51, -17, -90, -63, 9, -14, 48, 1, 25, -10, -76, 18, -76, 83, 92, 81, 104, 49, -60, 36, -60, 3, -15, -83, 6, 45, -92, -50, -33, -67, -79, -39, 8, -5, -24, -30, 88, -22, 59, -7, 32, 48, -53, -9, -64, -34, -91, -54, 108, -97, -61, 104, -1, 103, -18, 107, -38, -69, 33, -15, -88, -30, 29, -79, 69, -71, -112, -105, 59, -45, 78, -103, 101, -12, -57, -77, 108, -72, -38, -27, 102, 10, -48, 62, 65, 103, 91, -106, 69, 42, -101, -40, -85, 102, -43, 47, 46, -55, -65, 49, -105, 12, -75, 67, -84, 0, 49, -17, -83, 18, -74, -23, 38, 100, 42, 19, 73, 45, -68, -107, 23, 56, 50, 105, 19, -78, 105, -80, 89, 57, 75, 9, -85, -80, 58, 66, -42, -30, 51, 34, -22, 36, -74, -25, -38, -79, 51, 65, 30, 51, -40, 85, 20, 100, 37, -41, -67, -22, -43, 99, 103, -28, -73, -78, -46, 37, 37, -22, -60, -21, 11, -94, -56, 94, 53, -65, -87, 101, 20, 50, 65, -76, -84, -68, 72, 2, 15, -88, 48, 59, 43, -28, -38, 36, -19, -108, 30, -99, -90, 55, -64, 107, 61, 21, -35, -19, 10, -83, -54, -9, 13, -88, 5, -52, 95, 32, -75, -66, -93, 73, 78, -49, -3, -19, -31, 11, 71, -38, 32, -22, -94, -68, -34, -89, -1, -51, -55, 2, -61, -68, 4, 42, -37, 45, -58, -6, -70, -11, -108, 18, 57, 83, 1, 78, -73, 17, 110, 44, -98, -21, -24, 45, 101, 10, 99, -38, 100, 6, -79, -29, -78, 29, 26, 106, 26, 79, -105, 67, -65, 87, 92, -30, 104, -68, 39, 73, -59, 97, 92, 12, -105, -37, -80, 40, -28, -36, -31, 106, 52, -58, -81, 71, -43, -63, -51, -9, -36, 23, -49, 19, -70, -9, 55, 18, -59, 94, -55, 58, -24, -87, -82, -45, -102, 109, 82, 28, 57, -22, 70, -14, -104, 29, -61, -47, 48, 77, 36, 53, -50, -71, -23, 27, -25, -59, -4, -24, 72, 91, -11, -61, 43, 
  72, -5, -95, -74, 51, -62, 62, 89, 97, -11, -87, 11, -81, 51, -68, 75, 32, 60, -1, 42, 106, -98, 63, -82, 17, -26, 100, 53, -57, -87, -56, 71, 52, -83, -26, -42, -97, -9, 56, -88, 50, 50, -105, -23, 35, -23, -64, -89, 29, -31, 56, -28, -25, -6, 47, -98, 6, 10, 10, -30, 99, -41, -13, 19, -25, 70, 24, -63, -36, -41, -9, -107, 8, 88, -23, -99, -101, 51, -63, -73, 35, -69, 31, -9, 2, 12, -32, -11, -95, -9, -84, 85, 17, -40, 106, 66, 28, 49, 30, 26, -108, -100, -61, -74, 53, -38, 100, 78, 9, -22, -53, 55, 11, -88, -70, -92, 46, 107, -27, 38, -66, 75, 100, -118, 84, 76, 22, 65, -106, -14, 49, -75, 14, 42, 44, 44, -59, 74, 55, 32, -19, 82, 88, 99, -87, 7, -91, 10, -44, 14, 41, -61, -43, 8, 38, 104, 51, -43, 79, -86, -3, 61, 10, 82, -22, -82, -65, -30, -54, -31, -101, -47, -11, -118, -49, 8, 49, -56, -71, -112, 57, -89, -17, 87, -72, 7, 41, -18, 42, -86, -6, 10, -52, 82, -17, -84, 7, -105, -95, -17, 85, -19, 3, -44, -110, -100, 14, -4, -123, 74, 62, -125, -58, -56, 54, 28, -112, 60, 76, -121, -23, 7, 38, -62, -83, -5, -6, -123, -90, -38, -14, 23, -60, 1, 91, -19, 52, -3, 60, -81, -94, 83, -116, -49, 9, -115, -8, -17, 77, -58, 7, 48, 75, -63, 47, -69, -103, 72, -127, -101, 29, -73, -5, -93, -45, 85, 73, -45, 44, 39, 42, 42, 74, -12, 8, 7, -28, -37, -72, -51, 69, -52, -43, 37, -61, 7, 27, -75, 67, -103, -38, -87, 107, 109, 92, -29, 86, -50, 68, -75, 84, 73, 33, -76, -5, -49, 9, -35, 101, 17, -56, 87, -65, 18, 94, -6, 101, 110, -15, 91, 6, -86, 6, 106, 78, 102, -105, 22, -63, 48, 41, 25, 30, -39, -44, 53, -67, -32, -11, -49, 95, 97, -18, -67, 91, 96, 46, -90, 63, 99, 45, 15, 87, -93, -62, -48, -56, 49, 93, -73, -77, -34, 10, 111, -54, 101, -27, -91, -38, -66, 11, -20, -96, -63, -25, -26, -97, -62, -102, -36, 19, -43, -57, 19, -55, -80, -63, -57, -39, 76, -94, 25, -73, 27, -42, 93, 92, 41, -20, -73, 64, -105, 74, 72, 101, -22, 93, 4, -27, 51, -29, 62, -114, 66, 59, -25, -57, 9, -19, -96, 93, -64, -49, -76, 11, -34, 20, -102, 43, 78, -25, -107, -5, -99, 105, -12, -9, -109, -21, -44, -86, 2, 107, -56, -33, 71, -21, -35, -38, 87, -6, -44, -26, 89, -6, -78, -2, 18, 3, 50, 56, 34, 14, -49, -38, 50, 61, 55, 85, 7, -39, -6, -102, -13, -59, -67, -40, 59, -11, -108, -62, -92, 41, 58, -16, 53, -31, 52, 32, -105, 66, -48, 65, 89, 63, 73, 73, -92, 100, 23, 12, -97, -44, 48, 40, -82, 48, 82, 52, 15, 34, -117, 61, 48, 97, 20, -28, -55, 50, -57, -6, -60, -86, -96, 99, -94, 18, 41, 72, 22, -74, 8, 46, -104, 95, -3, 10, -102, -51, -96, -30, 88, 69, 94, 0, -18, -72, -53, -5, -57, -100, 84, -72, -82, 36, -39, 111, 41, -4, 28, -34, -86, -77, -48, -19, -100, -57, 93, 44, 106, 28, -104, 9, 59, -51, 11, -85, 5, -85, 101, 40, -56, 17, 22, -2, 108, 25, 52, -85, -48, -55, -76, 16, -58, -82, 96, -81, -11, 19, 60, -74, -43, -75, -20, 79, -24, 93, -68, 100, -78, 66, -83, 39, -89, 103, 10, -35, 33, 94, -82, 99, 17, -39, 39, -5, 54, -15, -67, -80, 53, -101, 41, 59, 3, 13, 14, 51, 104, -13, -51, -15, 37, -56, 52, 41, -98, -85, -67, 106, -37, -102, 52, 33, -33, 36, 76, -69, -14, -59, -30, -21, -68, 33, 36, -57, 27, -3, -44, 53, 54, -49, 72, 96, -10, 73, -4, -105, -37, 93, 63, -14, -24, 99, -35, 50, 44, 82, 6, 22, -74, 68, 75, -50, 67, 90, -99, -95, -1, 76, -97, -23, 0, 10, 80, 67, 45, -20, 17, 36, -18, -39, -8, 110, 29, -19, 62, -21, 19, -76, 40, 73, 62, 34, -77, 82, 82, 15, -69, 21, -79, -87, -81, -2, 4, 22, 64, -18, 45, 76, -84, -108, 38, 43, -28, 43, 91, -8, 109, -32, -22, 3, 27, 40, -48, 65, 30, -67, -73, -38, -95, -46, -22, 38, 44, 99, 40, 54, 1, 65, -47, 68, -11, -96, -83, 17, -14, -61, 111, 89, -59, -8, -20, -103, -67, -40, -46, -19, -81, -69, -56, -9, -51, 8, 100, 96, 27, -58, -23, 66, 17, -79, -102, -96, 79, 97, 14, -82, 49, 104, -26, 24, 42, -68, -10, -108, -108, -32, -58, 62, 86, 23, 7, 78, -53, -57, -90, -22, -64, -52, -91, 26, 89, 95, 9, -33, -94, -84, -4, -51, -33, -21, 21, -9, 107, -49, 58, 99, -90, -58, -71, 73, 52, 20, 77, -73, -83, -16, -37, 8, 32, -13, 41, 90, 44, 101, -112, -99, 37, -103, -103, -94, -37, 68, -37, 75, 45, -26, 91, 54, -76, 54, -35, 98, -36, 61, -61, -78, 72, 34, -93, -32, 0, -19, -73, 14, -78, -95, -70, -13, 108, -108, 62, -101, -56, -100, 25, -37, -24, 24, 17, 53, -111, 9, -89, 13, -110, -76, -7, -73, -11, -110, -24, -37, 27, 76, 41, -85, -24, -51, -79, 92, 44, -37, 76, 46, 106, 102, -79, 40, 48, 48, 71, -40, -28, -49, -54, 108, 69, 32, 72, -51, -34, -96, 93, 91, 61, 86, 26, -48, 24, 83, -19, -32, -32, 68, 61, -22, 10, 74, 64, 2, -92, 16, -96, -27, 8, 62, -107, -5, -37, -37, -28, 55, 13, 94, -21, -46, 99, -94, -108, -39, 86, 18, -92, -21, 91, -103, -7, -47, 23, -104, 68, -12, 21, -53, -29, 107, 2, -103, 17, 59, 6, -41, 67, -14, 59, 12, -11, 69, 14, -42, -78, 30, -87, -57, -55, 71, -45, -30, 108, 11, 28, -102, -92, -65, 82, 76, -80, 56, 18, -86, 0, 100, -73, 
  -91, 67, -57, 66, -7, 56, -18, 100, 46, -97, 81, 79, 48, 62, 40, -29, -89, -59, 31, 63, -76, 45, -70, -40, 67, 55, -84, 61, 87, 66, -52, 41, 85, -56, 58, 6, 99, -110, 12, 69, -99, 58, -5, 77, 98, -90, -14, -76, 54, 43, -75, -10, -30, -117, 16, -94, -102, -113, -49, -15, 95, 33, 104, 77, -70, -91, 61, -99, -75, -105, 58, -62, -64, -85, 16, 29, -36, 100, 30, 98, 12, 60, 66, -40, -28, -95, -15, -52, 54, -54, 35, 31, -99, 7, 83, -52, -73, -31, 77, -34, -42, -18, 80, -66, -53, -6, 12, -31, 17, 24, -94, 15, -4, 75, 3, 91, -109, -1, 71, -16, -111, 74, -5, 22, -103, -9, -10, -73, 12, 26, -53, -107, -37, 85, -31, -63, -80, 17, -3, 62, 58, 58, 13, -46, 12, 21, -48, -76, -44, -89, -38, -77, 79, 91, -77, 31, 27, 97, -67, -98, -50, 32, 77, 51, -72, 15, -55, -88, 27, 0, -118, -59, -13, -108, 52, 34, 25, 41, 64, -121, -37, 69, 79, 70, -16, -121, -29, 61, -1, -72, -31, -104, -11, -73, -12, 95, -60, -86, -83, -60, -62, -37, -81, -52, -9, -21, -6, 59, 80, -15, -24, 81, -21, -38, -41, -53, -113, -22, -103, -87, 92, 26, 64, -43, 92, -117, 64, -118, -72, 9, -14, 89, -117, 79, -84, 17, -56, -27, 78, 85, -21, 24, 67, -114, -111, -47, -7, 8, -123, -55, -117, 25, -45, -117, -13, -57, -87, 80, 79, 34, -37, -69, 38, -50, -75, -8, 55, -62, -11, -65, 38, 103, 22, -60, -83, -24, 72, -38, -42, 10, 102, 113, 56, 27, 105, -62, 87, -69, -66, -7, -54, -77, -103, 73, -29, -69, 30, -53, -41, 32, -39, -29, -6, -106, 8, 1, 30, -17, 92, -46, 42, 38, 33, 66, 97, 31, 69, -61, -81, -90, -56, -70, -75, -93, -12, -55, 33, -83, -60, 67, 101, 73, 25, -3, 11, 100, 47, 105, 26, -57, 30, -65, -66, 43, 25, -1, -17, -94, -82, -35, 45, -103, -24, 48, 8, 57, 3, -31, 48, -86, 36, 19, -81, -2, 30, 18, 67, -52, -73, 78, 23, 14, -6, 81, 102, 22, 98, 17, 33, -31, -95, -48, -97, -80, 17, 18, -63, 2, -16, 99, 36, -12, -29, 92, -40, 58, 55, -87, 99, -63, -12, -30, 66, -53, -49, -112, -58, 29, 98, 90, 15, -64, 58, -61, 7, 32, 17, -21, 106, -88, -14, 86, -18, 50, 90, -98, -28, 2, -49, -26, -6, -99, 0, -43, 50, 83, -65, -41, -72, -35, 28, -18, 64, -24, 95, -35, 68, 1, -11, 28, 72, 44, 97, 28, 71, -3, -114, -10, -49, -2, -20, 80, -102, 65, -1, -95, -53, -59, 24, 68, 31, 76, -84, -78, 91, -82, 70, 6, 32, 82, -52, -10, -93, -37, 39, 6, -92, 67, -14, -59, -87, -5, 86, -86, 93, -13, -115, -40, 94, 24, 49, 67, 81, -83, -100, 66, -71, 32, -78, 24, 88, 100, -111, -62, 63, 79, -58, -48, 87, -45, -67, -15, 37, 73, 13, 41, -36, -52, -81, 26, -10, -106, 29, 95, -21, 11, 97, -102, 41, 51, -107, -58, -85, 67, 84, 30, -1, -3, 88, 14, -28, -24, -52, -59, -85, 103, 44, -83, -58, 93, -109, -3, 22, 12, -68, 54, 10, -39, 88, 104, -107, 45, -110, -59, 1, 101, -12, 60, 84, -63, -55, -5, 38, 98, 91, 23, 51, 38, 53, -41, -62, 29, 15, -95, -18, -57, 86, 80, -75, 44, 44, -14, -29, -49, -107, 33, -38, 92, 0, -99, 66, -90, -28, 20, 72, -32, 55, -51, 79, 22, 25, 70, -3, 109, -17, -89, 73, 90, 80, -84, -40, -89, -65, -78, -34, 71, -25, 100, -50, -60, -16, -6, 34, 30, -12, 4, -13, -97, -38, -107, 11, -101, 58, -27, 101, -1, -34, 37, 15, -38, 19, 50, 91, -39, 35, -29, 100, -14, 61, -21, 8, -17, 59, -9, 97, 52, -31, -86, -91, 44, -40, -94, -11, 99, -69, 19, 34, -85, 109, -105, 43, -102, -101, 56, -11, 101, -13, 75, -20, 77, -50, -23, 1, 90, -108, 26, -4, 45, -83, 95, 86, 46, 31, -66, -78, 18, 94, -75, -10, 51, -36, 12, 49, -108, 66, 74, 31, 87, 33, 96, 103, -8, -40, 43, 50, -104, -75, 12, -34, 104, -74, -73, 97, -101, 25, -98, -57, -1, 81, -13, -92, 104, -109, 22, 56, 14, 71, -84, -27, 42, 94, 82, 16, -98, 63, -44, -15, 24, 47, 57, 99, 14, 67, 68, -69, 65, -72, -20, 70, -100, -92, -78, 74, 57, -118, 34, 30, -10, -16, -14, -8, -82, -89, -102, 101, 77, 28, -72, 63, -110, -10, -55, -68, -86, -22, -31, -31, -70, -106, 68, 32, -109, -100, -29, 85, 40, -41, 70, 107, -77, 42, -11, -109, -41, -106, -66, 27, -47, -8, 41, -61, -9, -25, -4, 47, -84, -74, 24, 3, 91, 57, 3, -34, -21, -25, -79, -34, -79, 1, 66, -105, -89, 52, -68, 20, 35, -23, -66, -99, -64, -53, 71, 76, 67, 110, -102, 99, -7, 93, 82, 102, -78, -52, 94, -92, -81, -41, -57, -103, 84, 59, -29, 42, 93, -30, -83, -23, 40, -36, -30, -87, -15, -25, 37, -2, -83, -1, -3, -28, -87, 58, 36, -100, -79, -21, 64, -16, 49, -77, -50, -23, -97, -55, 35, -2, -11, 89, -68, -102, -62, 95, -71, -56, -46, 54, 20, -92, -95, -93, 2, 8, -91, 68, -68, -43, 69, 55, -34, -93, 59, -48, 27, 81, -27, 106, 106, -64, 16, 41, -38, -54, -107, 91, -47, -68, -109, -45, 62, 44, -74, 50, 52, -58, 94, 60, -103, -22, -56, 69, -80, -71, 19, 65, -6, -23, -55, 69, 3, 83, -83, -107, -20, 28, -44, -14, 91, -66, 55, 88, 22, 16, 108, -2, -79, -12, 108, 42, -30, 69, 108, -49, 56, 28, -55, -6, -21, -22, 93, 46, 68, -62, 10, 52, 52, 109, -75, 7, 30, 40, 69, 60, 39, 9, 76, 107, 95, -59, -10, 52, -27, -6, 44, -55, 46, -105, 47, 4, 80, 69, 35, 93, 43, 77, 43, 
  89, 22, 18, -69, -87, -82, 91, -26, -52, 64, -32, 20, -69, -49, -76, 59, 63, 72, -9, -26, -12, 100, -22, -18, -35, 5, 79, 74, -100, -87, 49, -71, 97, -79, -35, -54, -34, -101, 23, 63, 11, 32, -96, -40, 61, -68, 80, 65, -22, 73, 69, 79, -85, -28, -30, 104, 69, 84, 95, 63, -94, -88, 99, 100, 6, 61, -47, 107, -107, -26, -95, 29, 75, 38, 45, 50, -36, -30, -53, -43, 80, -105, 54, -77, 36, -63, 23, -78, 72, -39, -41, 4, 27, 71, 31, 3, 20, -24, -81, -85, -24, -96, 25, -32, 98, -57, -104, -27, -74, 34, -71, -6, -65, -4, 40, -10, -42, -75, -59, -14, 98, -31, -64, -13, -93, 7, 102, -85, -50, 44, -35, -19, 43, -20, -25, -25, 55, 56, -101, 77, 33, 17, 69, 11, 73, -105, 83, 19, -93, -96, -14, 51, -38, -73, 50, 109, 85, -60, 96, -82, -41, 69, -99, -25, -106, -73, 20, -38, 98, -34, -29, -102, -85, 61, 58, 15, -43, 57, -36, 33, -47, 7, 35, 34, 25, -87, -56, -73, 84, -70, 89, -44, 42, -67, -46, 82, -8, -23, 3, -67, -75, 101, 13, -99, -79, -97, -21, -16, -59, 7, 86, 56, 31, 36, 83, 25, -19, -103, 52, 55, 17, -25, 24, -28, -60, 76, 2, 85, -44, -33, -60, -32, 45, -40, 100, -68, -47, 109, -38, -50, 109, 84, -95, -88, 72, -61, 60, -24, 105, -105, 99, -103, 46, -107, 8, 108, 71, -14, 55, 16, -1, 96, -90, 72, 70, 78, -92, 93, -44, 97, 28, -59, -55, 59, -73, -8, 23, -44, 50, 45, 97, 23, 22, -15, 45, -8, -24, 28, 64, -109, 45, 27, -80, -71, 76, -35, -88, 42, -65, -109, 26, -41, -19, 45, 0, -4, -93, 68, -64, -55, -66, -90, -33, -18, -5, 76, 40, 23, 87, -108, -88, 7, 68, 39, -43, 43, -85, -19, 109, -63, -34, 85, -99, 81, -36, -97, -65, 101, -12, 92, 25, -66, -26, -71, 106, -19, -25, -69, 81, 82, -54, -107, -109, -109, 109, -47, 83, -94, -58, -68, -102, -30, -75, -54, -8, 94, -110, -53, 6, -86, -55, -35, -77, -99, -13, 3, -23, 91, 31, -75, 21, 41, -22, 16, -92, 43, 3, 1, -14, 11, 31, -80, 108, -56, -85, 23, -29, 45, 55, -15, 100, 52, -2, 55, -46, 10, 25, 61, -92, -90, 47, 8, 34, 5, -94, 2, 65, -58, -31, 5, 4, 58, 21, 89, 103, -96, 96, 74, 21, -77, -65, -7, -48, 57, -11, 58, 39, -57, 9, 102, -7, 44, -8, -107, -101, 84, -69, -68, -8, 6, -71, -54, -95, -27, 85, 108, 18, 49, 31, 14, 85, 63, 58, -76, -69, 18, 23, -41, 62, -71, -13, -70, 33, -58, 77, -38, -106, -96, -51, -30, 35, -42, 49, -54, 7, -61, 28, -96, 2, -105, 58, -105, 104, 0, 92, -20, -92, 28, -47, 68, 66, -45, -34, -97, -24, -66, 88, 91, -90, 96, -87, 85, 53, -16, -98, 24, -10, -57, -11, 62, 26, 26, 87, -45, 101, 94, -101, 65, 94, 21, -48, -48, -31, 70, 25, 27, -39, 47, 103, -26, -60, 69, -64, -65, -41, -1, -45, -58, -103, -80, 9, 106, -56, 23, 74, -56, -42, -94, 67, -84, -79, 33, 83, 6, -55, -100, 64, 101, -104, 46, -58, -104, -25, 44, 78, -73, 87, -77, 16, 57, -79, -97, -100, 56, -60, -104, 46, -92, 39, -47, -54, 26, 109, -55, -105, 82, -69, 86, 10, 58, -99, 77, -107, 19, 33, 16, -108, -5, 1, -63, 50, -21, -62, 45, 93, 63, 51, 92, 106, -69, -45, 26, -91, 93, 29, 66, 44, 60, -79, -28, 82, 101, -10, 90, 25, -20, -100, -22, 104, 60, -47, 60, 6, -71, -93, -53, 29, -33, -107, 86, 88, -29, 97, 78, -33, 72, -99, -89, 52, 37, -101, -28, -95, 27, -46, 37, 37, -28, -45, -89, -105, -101, -80, 71, -101, -99, -14, 62, 36, -37, 85, 102, -60, -93, 70, 101, -92, -3, 91, 67, 82, -85, -29, 53, 43, -79, 41, 100, 7, -91, 76, -51, 17, -99, -56, 35, -30, 80, 98, -80, 85, -36, -55, -80, 12, -65, -75, 76, -37, -110, 93, -77, 84, 14, 110, 20, 69, -76, 37, 89, -83, -104, 40, -19, 110, -44, 22, 84, -103, -105, 8, 18, 104, -29, -55, 8, 4, -61, -20, -71, -95, -104, 46, 53, -22, 29, 100, -34, 19, -78, 2, -86, -110, 8, -69, 107, -31, -70, -14, 31, 108, -31, 8, -46, 110, 7, -45, 80, 73, 55, -7, -34, -9, 61, 89, -93, 4, 90, -69, -73, 65, 16, 54, 22, -106, 83, -91, 69, 28, -64, -34, 83, 7, -37, -47, 22, -28, -65, 66, -52, -51, 51, -1, 62, 22, -12, -6, -106, -27, 62, -88, 57, -61, 71, -105, 44, -99, 64, -29, 17, 62, 66, 74, 30, -16, -71, -39, 108, 84, -89, -19, 26, -74, 52, 93, 13, 107, 60, 87, -7, -9, -38, -40, 16, -17, -54, 75, -94, 105, -105, 92, -18, -29, 42, -21, -69, 13, 103, 31, 110, -27, -102, -19, 89, -105, -23, 73, -102, -94, -23, -25, -110, 52, -40, 59, -75, 4, -3, 7, 0, -13, 22, 33, -12, 16, -67, 91, -65, -65, -83, -98, 3, 97, -14, 12, 51, -46, -27, 101, 96, 35, -90, -56, 49, 109, -30, -24, 54, 69, 61, -97, -109, 65, 18, -26, 48, -60, 72, 57, 35, 79, 14, 0, 43, -71, -77, 91, -64, 47, -25, 93, -31, -96, 79, -29, -36, -22, -51, 98, -2, 51, 37, -28, -40, 68, -4, 11, 106, 103, -13, -81, 98, 55, 53, -95, 78, 24, 52, 92, 16, 71, 22, 27, 42, -94, 12, 55, 96, -86, -68, -84, -40, -3, 95, -77, -55, -76, -66, 35, 68, -41, -37, -50, -34, -22, -40, -91, 94, 9, 22, -108, 100, -43, 1, 79, 51, -73, 1, -65, 109, -87, -77, 89, 80, 95, 108, -108, -78, 27, 47, 19, 52, -35, 21, -47, -36, 50, -82, -9, 89, -32, -94, 53, 17, 30, -101, -71, -51, -95, 89, 78, 58, -64, -91, 
  -33, 82, 19, -5, -37, -87, 11, 109, -42, 24, -102, -39, -108, 51, 19, -2, -99, 31, -34, 9, -85, -90, -10, -55, 80, -28, 30, -15, -52, 108, -21, -11, 84, -67, 25, -102, 74, -63, 45, 95, 75, 42, -75, -30, 19, -107, -81, -73, -3, 69, 96, -16, 36, -44, 48, 65, 37, -13, 62, 8, 28, -104, 72, -86, -30, -1, -40, 87, 94, 49, 102, -49, 74, -80, -109, -70, -13, -17, 69, 0, -85, 40, -54, 86, -9, -84, 32, -7, 108, -19, 13, 7, -67, 84, 4, -9, -13, 35, -2, 67, -15, 33, 88, -63, 24, 18, 106, -73, 37, 60, -11, -9, 33, 63, 77, 21, 53, -85, 29, -68, -108, 60, -84, 16, 4, 101, -18, -41, -53, -98, 8, 36, -69, -38, 22, 96, 48, -84, 84, 101, 60, -2, 0, -61, 16, -62, 96, 100, 95, -52, 83, 28, 38, -99, 77, -8, -34, 84, -43, -7, 62, -107, 55, -88, 72, -107, 105, -60, 60, 10, -6, 91, -92, 2, -91, 29, -85, -31, 106, 52, 91, 37, -106, -83, -16, -60, 4, -55, 108, -92, -57, 107, 55, 13, 27, -73, 99, -6, 78, 6, -12, 40, 75, 68, -98, -83, -83, -35, 19, 72, 44, -41, -43, -43, 68, -91, -70, 93, 24, -107, -68, 108, -37, -57, 83, 37, -101, -28, -78, 83, -14, 80, 49, -48, -98, 14, 27, -16, -57, -50, 78, -99, 26, 18, 39, 40, 97, 38, -49, 12, 44, -33, 44, -33, 10, -107, 13, -103, 61, -5, -86, 56, -39, -48, -13, 109, -103, 102, 48, 19, 12, -91, 88, -55, 9, 58, -26, 16, 104, -45, -74, 57, -101, 39, 35, -1, -56, -90, -7, 20, 32, 17, -84, -10, -13, 89, -89, 104, -99, -71, -89, -95, 109, 17, -38, -67, -110, -49, -76, -31, 109, 109, 0, 18, -73, 89, -30, 98, -5, 34, 51, -88, 73, 91, 81, 109, -12, -83, -4, 40, 34, -22, 66, 63, 90, 39, -5, -91, 60, -104, -12, 48, 12, -90, -82, -34, 105, -37, 100, 92, -14, 44, 47, 98, 2, -71, -25, -92, -110, 86, -17, -47, -15, -82, 61, 9, 19, -4, -32, 19, 40, 94, -63, 66, 91, -66, 100, -7, -36, -13, -69, -60, -92, -17, -97, -110, 57, -5, 42, 52, 97, 23, 55, -93, -31, 73, 62, -70, -70, 76, 96, -96, 37, 9, -65, -14, -43, -4, 28, -29, 106, -92, 24, -76, 3, 80, -38, 80, -3, 72, 93, -72, 47, -48, -90, -1, 104, 9, 14, -52, -21, -75, 76, 90, -47, -92, -81, -100, 92, 38, -10, 90, -43, -85, -54, 69, -3, 11, -49, 96, -9, -43, -66, 89, 66, -48, -44, -26, -105, 30, 2, -42, -104, -18, -62, 38, 95, -17, -90, -107, 52, 95, -43, -33, -30, -67, -106, -69, 55, 31, -70, 61, 41, 37, 87, 110, -2, -45, 16, -102, -104, 50, 103, -65, -10, -15, -95, -21, -108, 81, -100, -103, -90, 16, 88, -72, -13, 105, -60, 40, -95, -44, 106, 14, -72, 10, -48, 72, 25, -44, 41, -9, 70, 73, -96, -16, -97, -100, 63, -39, 55, 108, 84, -50, 33, 59, -110, -52, 25, 32, -108, -88, -33, 14, -61, 44, -100, -63, -61, 51, 77, 3, -88, -42, -90, 82, -31, -49, -32, 48, 48, -58, -4, -108, -49, -34, 90, 5, 73, 18, 6, -68, -82, 48, 97, -82, 70, -103, 90, 36, 89, 22, -25, -109, -91, 9, -55, 18, 52, -19, -34, -53, -22, 87, 71, -11, 36, 100, 3, -43, 26, 26, -10, 82, -45, 57, 1, 23, -59, -87, 103, 69, 46, -38, 36, -26, 54, -94, 20, 95, -86, 76, -9, -45, -38, 106, 104, -76, 87, 106, 0, 108, 46, -20, 84, 67, 36, 76, -58, 31, 21, 13, 39, 2, 89, -108, -103, 63, -10, -4, 104, -82, -30, -16, -99, -88, -14, -62, -4, -98, -100, 67, 35, -26, 6, -84, -97, 50, 1, -87, 41, -47, -101, 61, 21, -5, 2, -1, 94, -96, -54, -34, 60, -87, 25, 55, -89, 65, -61, -108, 61, -36, -87, 49, 110, -8, -67, -40, -93, -56, 31, 65, 53, -2, 33, 91, -48, -107, 21, 44, 26, 52, 59, 59, -11, -15, -83, -54, -65, 4, -47, 22, -88, -110, -53, -51, -71, 75, 44, 72, 105, -58, 66, -105, 70, 50, 103, 44, 79, 73, 47, -80, -103, 48, -45, 75, 96, -55, -52, 77, 8, 0, 94, -61, 23, -46, 19, -32, 36, 18, -73, 91, 11, -4, -41, 49, -27, 90, 12, -61, 38, -68, 64, -50, -5, -96, 101, -92, 67, 6, 59, -54, 43, 23, -45, -91, 77, -98, 15, 78, 54, -54, -54, -110, -60, -19, 73, -16, 87, -94, -102, 30, 110, 62, -89, 7, -37, -92, 107, -44, -59, 32, 69, 91, -37, 102, 52, -29, 81, 62, -8, 63, 47, -22, -21, -110, 31, 67, -7, -50, 96, -63, 104, 84, -78, 37, 108, 70, 91, 60, -86, 26, 96, -109, -71, -22, 26, -39, 35, 84, -87, 37, 69, -60, 102, -96, -78, 63, 32, 103, 1, -33, 18, -63, 1, 10, -93, -98, 85, 23, -86, 67, 51, 104, -55, 82, 35, -65, 39, -80, -2, 30, -7, 71, 12, 80, -36, -39, -42, -92, -13, -107, 108, 55, -59, -45, -23, 45, -5, -66, 1, -21, -23, 11, -96, 71, 89, 16, -106, 8, -44, -103, -85, -63, -100, -68, -2, 11, 104, 88, -97, 103, 95, 69, 99, -37, -70, -20, 67, -7, 15, 56, 63, 73, -33, -10, -58, 71, 93, -43, -60, -98, -25, -105, 17, -66, -80, 53, -98, -35, 50, 74, 96, 33, 22, -25, 5, 80, 62, -18, -103, -10, 58, -33, -51, 49, -56, 13, 63, 23, -77, 44, -105, -100, -72, -38, 29, 58, -78, 31, -36, 43, -44, -73, 50, 33, -10, 11, 84, 51, -89, -44, 30, 36, 77, 80, 63, 74, 77, -12, 37, -76, 55, -24, 36, 1, 80, 4, 95, 53, -104, 64, 77, -38, -38, 100, -78, -8, -66, 79, 78, -74, -103, -16, -13, 59, 104, 5, 48, 53, 101, 29, 14, -20, 33, -54, 95, -98, -62, -39, 42, 83, 99, -102, 
  52, -21, -38, -59, -67, -114, -42, 73, -45, 4, -11, -16, -4, 59, 37, -22, -50, -62, 102, 79, -56, 22, -48, 71, -43, -12, 104, -94, 85, 24, 69, -105, -6, -21, -93, 56, -107, 39, -97, 102, -18, 16, -13, -1, -59, -98, 98, -64, -20, -29, -75, 85, -103, 60, 25, -22, 2, 85, 55, -41, -70, 8, 80, -69, 52, 35, -98, 65, -86, -64, 13, 94, -37, 43, 25, 57, 42, 77, 38, -56, 73, 58, -4, 27, -69, -39, 63, 19, -61, -56, -86, 64, -52, 95, -39, -113, -58, -74, -106, -18, -72, -71, -3, -34, 101, -19, -16, -76, -61, -10, -7, 56, 70, -113, 24, -31, 51, -50, -96, -47, -66, 11, -98, -11, -51, -101, -17, 41, -44, -99, 38, -110, -16, 42, 65, 78, -94, 41, 66, 97, 33, 51, -54, -115, -90, 6, 73, -99, 79, 66, -83, 84, -15, 85, -51, -107, 9, -56, 65, -63, 93, 23, -35, -92, 52, -61, -60, 50, 64, 6, -122, 65, 56, 98, 38, -102, -118, -53, 27, -37, 68, -47, 84, -9, -60, -116, 45, -97, -91, -108, 47, -85, 57, -39, -109, -38, 52, 83, -39, -14, -75, -72, -45, -67, -27, 83, 96, -6, -10, 85, -33, 33, 72, -65, -114, -65, -9, -22, -67, 19, 2, 97, -22, -34, 13, -97, 16, 95, 97, -56, -49, -16, 49, -74, -80, 57, -13, -119, -12, -102, -66, -33, -17, -90, -104, 33, 27, 80, 80, -126, -99, -52, -6, 65, -11, -77, 81, 34, 85, 12, 91, 85, -123, 94, 80, 48, -81, -65, 2, 76, -63, -73, -80, -34, 69, 15, -49, -79, -86, 85, 82, -46, 44, -91, -65, -7, 9, -103, -42, -85, 15, -11, -27, -94, -104, -35, 66, -30, -109, 83, -68, 28, -102, -102, -4, 35, -26, 30, -72, -113, -47, 65, -83, -59, 32, 28, 35, -83, -26, -109, -16, -89, 83, 103, -52, -57, 95, -78, -109, 54, 45, -47, 32, -72, -59, -108, 31, 84, -46, -90, -2, -26, 77, 30, 108, -40, -12, 54, 19, 69, 73, 36, 77, 106, -53, 20, 49, -11, -25, 68, -47, -43, -102, 42, -98, 103, -28, 14, 87, 54, -59, 12, 49, 18, -66, -46, -74, -64, 63, 39, -102, -68, -43, -84, 28, -62, 41, 18, -54, -87, -76, 50, 10, 11, -6, 45, 55, 31, -88, 79, 8, 6, -92, -112, 84, 21, 99, 96, 20, -50, 96, 64, -40, 33, 66, 48, -88, 62, 42, -116, 53, 36, 78, -67, -114, 60, -85, -19, -51, -12, 2, 45, -71, 61, -55, -26, -84, 9, 93, -9, -66, 87, -81, -97, 62, -22, 16, 58, -111, 92, -48, 46, -7, 6, -44, -68, 97, -89, -105, -72, 73, 4, 29, -87, 5, 5, -22, -13, -60, -111, -21, -6, -99, 80, 71, 25, -80, -11, 29, 94, -50, -82, 4, 41, 59, -7, 67, 67, -59, 5, 67, 29, 99, -26, -114, 43, -9, -26, -6, -107, -64, -13, 48, 7, 77, -22, -10, 9, -79, 70, -85, 67, -73, -19, 4, -59, 18, -35, 99, 69, -71, 49, -48, 12, 107, 83, 80, -52, -42, -2, -77, 77, -72, 63, -40, 2, 18, -60, 75, -11, 40, -73, 41, 44, -40, -9, 7, 27, 90, 29, 23, 16, -57, -7, -44, -23, -82, -67, 59, 76, 38, -49, 29, 19, 61, 106, 21, 16, 76, -105, 87, 92, -91, -30, -70, -72, 82, -20, 36, 57, 16, -18, -85, 18, 80, -62, 78, -65, 67, 76, 102, -88, 80, -61, 107, -72, 40, 83, 60, -39, 104, 43, -97, -49, -88, -44, -79, 12, -49, -46, 43, -82, 26, -9, -108, -86, 44, -85, 107, 71, -96, 88, -18, 71, 52, -1, 68, 51, -49, -19, -40, -12, -48, 76, 48, 60, -84, 49, 33, -49, -89, -39, 58, -64, -109, -43, -17, 1, 51, -39, 82, 35, 98, -103, -56, 47, -31, 46, 12, 64, -67, 89, 107, -103, 29, -52, 48, 35, -60, -109, 35, 55, -89, -82, 92, -12, -103, -4, 72, 18, 14, 19, -55, -77, 50, -13, -88, -44, -89, 98, -80, 22, 66, -99, -109, 88, -28, 67, 45, -105, 66, 75, 33, 107, 38, 95, -39, -8, 48, -65, -63, 39, -73, 12, 33, 22, -24, -29, 5, 16, -83, 90, -90, -47, -70, -89, 24, 90, 89, 96, -85, 59, -49, -104, -24, -82, -28, 55, -24, -12, 2, -8, -33, -70, -35, -39, -81, 44, 97, 69, -102, 80, 4, -91, -99, -2, -86, -47, 13, -29, 14, 109, 60, -8, 6, 61, -43, 106, 94, -76, -21, -30, 96, -7, -101, 37, 27, -92, 109, -38, -12, 29, 4, -63, -114, -103, -82, 99, 100, -76, -90, 72, -3, 81, 63, 14, 79, 30, -107, -81, 18, -40, 71, 24, -49, 88, 8, -18, -88, -48, -62, -82, -77, -44, 104, 92, -98, -19, -20, 42, 73, 89, 13, 14, -83, 29, -28, -92, 13, 10, 28, -25, 83, 2, -42, 94, -64, -2, 97, 18, 72, -44, -1, 85, -92, 105, 53, -11, -62, 1, 61, 21, 37, -87, 91, 1, -39, 88, -76, 86, -72, -54, -95, 50, -75, 90, -28, -69, 63, -72, 100, 101, -32, -62, 53, -70, 69, 6, 66, -67, -100, 41, -64, -56, 18, 64, -100, -15, 55, 10, 78, -45, -72, 58, -68, -19, -32, 58, -62, 19, -27, -75, 89, -52, 93, 36, -12, -6, -108, 27, 46, 7, 62, 2, 52, -50, -55, 44, -90, -79, 11, 103, 67, 31, 98, 37, 77, 48, 17, -5, -45, -82, 99, 54, 82, -23, -12, 97, -45, -22, -7, 17, -47, -74, 8, -65, -57, 31, -38, 60, -19, 36, -42, -22, 14, -68, 80, -63, 14, -102, 98, 75, -29, 54, -85, 36, -66, 72, -42, 66, 56, 15, -65, -71, -94, 72, -93, 42, 48, -98, -14, 78, -27, -48, -93, -62, 28, 85, -78, -54, 29, 108, 57, -42, -107, -103, -62, -22, 103, 24, 108, -95, -81, 21, -65, 30, -87, 110, 9, 20, 16, -103, -34, -104, -1, -36, 107, -98, -1, 26, -91, -40, 62, 99, -47, -82, -106, 92, -46, -76, -86, 26, 14, -29, -35, 63, -42, 59, 13, -10, 5, 63, 111, -8, 
  80, -118, 31, 91, 91, 38, 36, 48, -27, 95, -17, 113, -35, 47, -66, -101, -31, -53, -70, 106, 93, -72, -60, -5, -27, 104, -25, 32, -101, -13, 26, 103, 29, -89, -32, -94, -12, 34, 83, -32, -12, 38, 115, 112, 43, -7, 31, -87, -54, 59, -73, -24, -13, 24, -24, -58, -86, 80, 76, -106, -72, -33, 53, -79, 54, 22, 25, -41, -45, 114, -62, 22, -17, 51, 5, 27, -31, 71, -48, 61, 118, -98, 73, 2, 35, -97, 50, 57, 85, -29, -20, -89, 23, -56, -83, -38, -29, -86, 13, 107, -28, 73, 2, -95, -14, -39, -49, -95, 103, -34, -61, -88, 18, 53, 94, -39, 92, -14, -39, 51, -26, 43, -3, -79, 53, 54, -65, -84, -6, -10, 75, 1, -16, 28, -64, 75, -14, -19, 19, 2, -7, 77, 77, 90, 48, 70, -3, -80, 78, 28, 67, -39, 16, 69, 71, 34, -31, 23, -14, -28, -2, -76, 39, -5, -4, -23, -91, 54, -91, -8, 78, -26, -27, 23, -82, 73, -45, -102, -41, -3, 0, 96, -20, -45, -67, 32, 63, 85, 115, 8, -92, -12, 78, 103, -30, 44, 114, 82, -40, 54, -43, 4, -50, 24, -2, 107, -8, -53, -21, -5, -5, -48, -87, 10, 29, 52, 121, -90, -4, 93, -20, 31, 27, 82, 37, -33, -22, -2, -71, 59, 49, -54, -94, 103, 11, 40, 48, 72, 106, 73, 79, 35, -25, -1, 71, -8, -85, 17, -89, 106, -4, 88, -25, 69, 84, -84, -27, 109, -61, 85, -61, 39, 85, -42, -101, -31, 90, 28, 18, -77, 31, 12, -53, -57, 60, -103, -111, 67, -37, -90, -4, 82, 50, -39, 90, 24, -55, -45, 68, -8, 77, 100, -96, 17, -40, 9, 26, 71, -100, 12, -61, -106, 94, -52, 88, 21, 15, 81, 29, -74, -33, 34, 87, 105, -103, -100, 99, 21, -84, 36, 79, 79, 26, -62, -95, -101, -79, -79, 20, -83, 53, -60, -28, 72, 66, 67, 3, 61, 36, 67, 95, -56, 38, 53, 20, -13, 24, -2, -12, -18, 57, -53, 93, 33, -85, -45, -93, -14, -47, -29, 64, 79, 94, -25, -24, 54, -105, 64, -19, 64, 69, -10, 35, -88, -77, -99, 50, 17, -30, -72, 4, -27, -99, -101, 24, -90, 39, -55, -33, -36, 103, -18, 19, -102, 89, -52, 29, -66, 57, -63, -23, 84, -97, 25, 74, -6, 25, -105, -31, 75, 30, 61, 47, -26, -82, 27, 32, 63, 23, -53, -77, -89, 107, -36, -3, 6, -75, 108, -80, -24, -97, 55, -36, -22, 0, -90, -9, -35, -63, 23, -54, 22, -38, -69, 37, 45, -14, -8, -99, 82, -5, 9, -87, 13, -104, -6, 15, -60, -33, -53, 92, 86, 54, 31, -90, 53, 97, -90, 22, 88, 5, -38, -27, -26, 117, 80, -102, 103, 18, 66, -78, 32, 23, -34, -53, -12, -27, -35, -33, -43, 2, -5, 42, -10, 82, 15, -17, 114, 7, 3, 72, 75, 49, 46, -67, 97, -50, -69, 118, -79, -48, 45, 44, -81, 67, 60, 85, -93, -26, -96, -97, 4, -47, 36, -71, 39, 37, -66, -50, -13, 43, 46, 61, -40, 44, -32, -29, -31, 9, -17, 4, 96, -86, 75, -34, 59, -21, -63, -37, 78, 40, -56, 25, 47, 109, 2, -47, 59, -44, 28, 88, 92, -63, -87, -14, -17, 11, 77, 4, 47, -87, -78, -46, -39, -29, -106, 91, 97, -58, 36, -1, 66, 66, 86, 91, 110, -30, -5, 107, -45, 31, 30, 6, 15, 50, 59, 69, 10, -96, 51, 94, 18, -41, -57, -37, 28, -109, 53, -69, -99, 19, -66, -45, 81, 92, 20, -71, -8, 19, -110, 9, -44, 81, 70, 54, 7, 102, -51, 103, 108, 109, 104, -67, 80, 83, 52, 15, 78, -86, -85, 110, 62, -72, 101, -66, 62, 45, -72, -72, -81, 16, 46, 25, 41, 56, 69, 9, -3, 89, -47, -54, -45, 18, 32, 45, -33, 19, -24, -91, -105, 55, 56, -79, 27, 90, 6, 0, 58, 92, -74, -97, 5, -11, -76, 13, 6, -31, -78, 29, 57, 28, 68, -58, 100, -90, 36, -26, -7, 19, 66, 69, 19, 5, -79, 101, -45, -98, 79, 105, -6, 74, 21, -40, -68, -89, -77, 71, 26, 72, 89, -42, -67, -1, 4, 99, -59, -69, 105, -9, 13, -95, -49, 21, 68, 9, 70, -35, 22, 102, 9, 43, 71, 89, 70, -86, 67, 57, 68, 78, -16, 6, 92, 10, -90, 74, 108, -56, -69, -74, 60, 23, 90, -68, 47, -3, -48, -32, -85, -104, -35, -73, 21, -80, -62, 53, 27, 50, 72, 22, 10, 106, -55, -10, -50, 40, -81, 74, 15, 106, -11, -68, 51, -102, 2, -107, 92, 107, -42, 64, -74, 21, 35, -10, -103, 4, 71, -72, -27, 36, -75, -74, -46, 28, -98, -6, -102, 23, 66, -85, 76, 49, -33, -51, -97, 40, -74, 0, 51, 99, 47, -47, -25, -3, 6, -107, -67, 3, 90, -47, -5, 62, -63, 42, 35, 4, 68, 41, -84, 14, -102, -1, 13, 72, 33, -45, 88, 74, 89, 110, 88, 3, 25, 11, 73, 19, 50, 21, 2, -64, 50, -103, 64, 13, 26, 52, -104, 34, -28, -74, 100, -30, -89, -84, -98, 42, 78, 5, 83, -81, 22, -110, 28, -89, 65, -107, 73, 76, -17, -91, 70, -1, 57, 110, -63, 27, -29, 40, 87, 4, 96, -59, -37, -109, -76, -83, -57, -1, -69, -108, -8, 89, 61, -28, -86, -65, -89, 17, -40, 92, -3, -99, 73, 76, 13, -88, 29, -102, 1, 46, -8, -32, 42, -106, 54, -69, -70, 15, 45, -18, 34, 93, -7, 96, -84, -109, -16, 25, 18, -36, 45, 29, -107, 31, -72, 17, -33, 15, 59, -45, 109, -99, -41, 42, -76, 106, -37, -109, 21, 85, 44, -31, -25, 97, -37, 72, 65, 92, -6, -98, 23, 37, -45, 23, -18, -102, 105, -72, 40, 78, -71, -94, 21, 50, -61, -59, -76, -84, 95, -14, -82, -35, 63, -34, 59, -8, -83, 47, 72, -102, -5, -14, -96, 1, 19, 16, 29, -60, 27, -85, -35, 19, -50, 52, 82, -45, 29, 72, -21, 54, -67, 14, 15, -39, 64, 
  59, 113, 67, -19, -94, 62, -17, -68, -15, -22, 2, 60, 59, -44, 13, -50, 40, -56, 104, 18, 97, 76, 99, 45, 67, 68, 74, -13, 88, -99, 57, -107, -22, -7, -97, -37, -101, 87, -79, 4, -59, -63, -102, -47, -100, 28, -44, -17, -64, 29, -103, -110, 101, -74, 47, 45, 10, 46, -15, -43, 68, -27, 94, -47, 5, -100, 94, 76, 64, -60, -50, -36, 14, -94, -40, -105, -88, -57, -69, 85, -61, -71, -93, -55, 86, 18, -9, 32, 56, 52, -7, -103, -105, -28, 80, -13, 94, 20, 42, -66, -81, -72, -56, 46, 8, 77, -27, 11, 26, -14, -51, 69, 16, 46, 82, 97, 30, -75, 87, -37, 69, 78, -2, -43, 49, -112, 15, 101, -110, 77, -106, 79, -114, -39, -83, -9, -83, 88, 21, 85, 84, -17, 68, -66, -97, 9, 43, -78, -102, -63, 91, 55, -64, -79, -59, 58, -116, -112, 55, -27, 55, -1, 7, -98, -41, -116, -107, 25, 14, 10, 81, -25, 6, 76, 84, -54, 75, -40, -122, 31, -101, -49, -86, -49, -11, 32, -94, -46, -105, 48, 45, 31, -10, 54, -101, 41, -26, -57, -112, 75, 67, 28, -48, -41, 17, -43, 1, -109, 73, 36, 86, -82, -95, -57, 80, 21, 87, -117, -118, 43, 73, 47, 0, -49, -68, -110, -85, -117, 57, -82, 27, -20, -64, -82, 24, -29, -35, -18, 43, 59, -27, -11, 87, -21, 66, -87, -8, 38, 79, 26, 15, -74, 80, 91, -78, 33, -108, 25, 75, 36, 44, 87, -28, -47, 78, 37, -54, -86, -106, -20, 103, 9, 10, 26, 71, 29, -79, 63, -102, -22, -64, 83, -36, -88, 109, 74, 19, -7, -85, -108, 49, 10, 104, 96, 5, 64, 44, -38, -95, 100, 33, 3, 23, -5, -61, -56, -109, 48, -53, -77, -57, -80, 38, 48, -87, -12, -100, -86, -50, -97, 84, -37, 86, 2, -12, 30, -83, 17, 24, -98, 33, 2, 52, 31, -109, -16, 45, -17, -105, -49, 99, -39, -78, -60, 46, 23, -54, 63, -8, 44, 42, 94, 43, -14, 75, 29, -103, -76, -65, -105, 78, 22, -69, 39, 22, 58, 96, -36, -21, 79, -111, -21, -5, 15, -45, 96, 59, 66, -99, -114, 48, -90, 103, -48, 67, -108, 83, -25, 83, -60, 43, -113, 83, -66, -50, -23, 60, -97, 1, 102, -54, 101, -26, -52, -101, 11, 91, -103, 86, -83, 12, -47, -89, 105, -1, -58, -101, -101, 40, -24, 40, -2, -53, 107, 21, 99, -85, 58, 17, 54, 75, -64, 46, -106, 93, 36, 87, -33, -95, 87, 85, -85, -27, 18, -32, -2, -15, 93, -50, 80, -105, -39, 22, -12, -40, -28, 76, 74, -26, 8, -88, -110, -7, -23, -62, -109, 70, -49, 28, -96, -43, 30, -71, -25, 76, -52, -118, -71, -28, 89, 39, -23, 20, 42, -93, 2, -18, -32, -106, 41, 3, -52, -106, 104, -13, -79, -11, 30, -16, -30, -71, -65, -95, 12, -21, 64, 89, -114, -64, 39, 100, 91, -82, -57, 83, 54, -20, -85, -42, 77, 19, 37, 0, -3, 75, -88, 68, 36, 26, 104, 41, 38, -3, -13, -61, 79, 87, -109, -34, -74, -106, -65, 51, 36, 10, -16, -110, 27, 56, 98, 34, -85, 8, -19, -46, -54, -8, -94, -67, 22, -37, -88, -103, -99, 51, 71, -88, 62, 59, 104, -59, 63, -11, 82, 76, 29, -26, -94, -16, -60, 109, 102, -91, -64, 89, -82, -54, -44, -72, -53, -19, -100, -79, -40, -107, 15, 108, -103, 86, -6, 108, 31, 30, 44, -16, 36, -7, -35, 64, 71, 38, -84, 64, 79, 106, 95, -97, -88, -1, 43, -49, -36, 5, -67, -58, -19, 75, -17, -108, -27, -28, -51, 60, -7, -18, 1, 24, 93, -63, -17, 70, -47, -43, -40, 62, 102, 105, 94, -37, 30, 6, -12, 76, -35, 89, -15, -45, 106, 78, -35, 60, -15, -15, 107, 3, 93, -67, 93, -78, 84, -50, -2, -45, 89, -76, -41, 71, 1, 42, -104, -99, 24, -5, 33, -88, 1, -87, -97, 81, -97, -57, 95, -15, 95, -34, 99, -99, 21, 51, -76, -107, -88, -69, -62, 54, 106, 75, 59, -111, -36, -40, -94, -55, -18, 3, 52, -42, 102, 69, 102, 62, -87, -93, 92, -77, 103, 18, 98, -107, -65, 18, 69, 79, -80, 38, 108, 2, -87, -110, 37, -29, -74, 59, -87, -109, 79, 17, -94, -47, 104, 100, -17, 33, -12, -32, 53, 48, -25, 60, -83, 30, -73, -36, 77, -47, -101, 76, -72, 1, 33, 40, 109, -93, 58, -59, -22, -84, 7, -19, -16, -110, -66, -69, -104, 18, 19, 96, -97, -11, -50, -85, -36, 110, -67, -52, -22, -105, -56, 2, 53, 32, 7, -46, -93, 43, -84, -33, 14, -96, 73, -24, -92, 1, -84, 2, 68, 51, -105, -44, -89, 60, -34, -99, -75, -34, 43, 106, -51, -108, -46, 24, -75, -16, -98, -82, -82, 105, -60, -86, 17, 105, -51, 13, 23, 49, 44, -96, -23, 55, -24, -72, 80, 25, -26, 87, 100, 28, -80, -36, 54, -21, 93, 7, 38, 9, -73, -68, -9, 70, 82, -78, 12, 9, -50, 2, 72, -48, -46, -1, -42, 3, -96, -93, 76, 14, -38, -100, 33, -52, -91, -33, -23, -62, 48, -35, 70, -25, 9, -35, -108, 6, 38, 71, -56, -72, -87, 96, 103, -69, -13, 3, -18, 24, 87, -5, -56, 38, 105, 85, 85, 78, 93, -68, 23, 45, -94, 98, 60, -30, -24, -70, 84, 11, 17, 9, 4, 59, -56, 110, -88, 39, 41, -34, -11, 51, 27, 30, -17, 8, 95, 34, 3, 25, -94, 104, 6, 67, -76, 37, 11, 93, -44, 28, 67, -14, -32, -1, 5, -48, -93, -102, -83, 82, -99, -92, 75, -40, 23, 34, 107, -88, -94, -58, 26, 24, 34, -41, 84, -102, -26, 10, 7, 44, 103, -32, 37, -75, 101, 68, 84, -62, -84, -24, -53, 72, 77, 54, 90, -108, 81, -62, 101, -101, -54, -71, 44, 101, -50, -98, 108, 62, 14, -46, 55, -25, 92, 107, -38, -96, 14, -9, -31, 95, 78, -30, -68, -26, 110, -32, 67, 99, 38, 38, 35, 
  -90, 41, -95, -7, -64, 73, -94, 4, -52, -103, -87, -67, -104, -23, -64, 90, -5, 71, 82, -65, -19, 67, 20, 102, 111, 76, 11, 37, 1, 55, -43, -27, -73, 3, 85, 42, 81, 89, -7, 24, 30, 54, -56, 33, -40, -104, 79, 50, 103, -81, 61, 109, -97, -97, -55, 29, 66, 18, -97, 35, -96, -59, -79, 87, 4, -28, -102, -28, -71, 51, -63, 77, 101, 10, -12, -75, 111, -21, -99, 84, 65, 115, -83, -57, -72, 92, -69, -50, 62, 30, 96, 48, -22, -9, 16, 106, 3, -95, -76, -42, 75, -78, -86, -36, 20, -2, -108, -47, 48, 45, 55, -55, -41, -43, 97, 77, 94, 68, 78, 65, 95, -96, -44, 106, -50, 63, 85, -28, -40, 49, -42, -56, -35, -23, -86, 57, 99, 7, 25, -100, 94, -63, 46, 2, 21, 45, 104, -4, -103, -13, -100, -93, -47, -79, 103, -85, -79, 66, -88, -12, -14, -91, 62, 60, 21, -92, -27, -45, 9, -54, 34, 91, 85, -24, -92, -62, 20, -70, 93, -7, -102, 5, 69, 93, 62, -61, 121, 83, -14, 7, 22, -37, -33, 112, 33, -84, -28, -25, -89, -6, 66, 37, -58, -19, 60, 83, 92, -68, 105, 16, 24, 7, 36, 104, 34, -19, 74, 108, 82, 43, 35, 47, -89, -95, -55, -52, 6, -24, 19, 49, -72, -1, -16, 42, -45, 16, 115, -88, -29, -87, -17, 45, 69, -54, 68, 44, -8, -13, 46, 126, -21, 54, 6, -36, 63, -93, -60, 123, 115, -57, 107, 101, 78, -56, 82, -50, -8, 96, -24, 18, -45, -39, 108, 81, 30, -82, 38, 36, 95, 88, -106, 1, -16, 3, 24, -80, -86, 108, -8, 12, 24, -51, 11, 56, -32, -93, -75, -80, -54, -97, 101, -106, 61, -86, 51, 9, -78, -85, -14, 44, -1, 35, 50, 71, -3, -49, 0, -59, -68, -58, -49, -10, -39, 24, 60, 4, 27, 5, 58, 52, -51, -57, 13, -60, 33, 78, -43, -10, 34, 40, 45, -70, -30, 31, -54, 41, 56, -28, -76, -89, -27, -86, 95, -57, 32, -26, -42, 70, 32, 55, 30, -10, 32, -57, 40, -37, 93, 60, 85, -68, -56, -90, -48, -95, -4, 45, 1, -64, 102, 113, 52, -46, -95, -5, 94, 29, -58, 72, -22, -42, 42, 47, -85, 30, 67, -18, -34, -43, -29, 115, -100, 82, 81, 32, -82, 17, 51, 61, 56, 10, -20, -64, 83, -12, 78, 1, 106, -71, -79, 106, -8, -97, -73, -101, 49, 36, -13, -32, 42, -18, 44, -23, -59, -80, -25, -66, 100, 112, 83, 89, 65, -66, -49, 98, -49, -22, 76, 93, -21, -11, -65, 82, 91, 48, 78, 83, 64, 64, -16, 53, -90, -58, 67, -26, 67, 108, -82, 10, -83, -101, 68, -53, -55, -82, 25, 21, 100, -37, 68, -89, -65, 61, 64, -88, -43, -73, -18, -2, -99, 11, 78, 82, -60, 10, -71, 68, 112, 37, 99, 102, -48, -71, -66, -5, -45, -15, -12, 63, -58, -45, -23, -5, -95, 39, -43, 45, 70, -39, 24, 37, -43, -30, 10, -15, 80, 97, -35, 43, -55, 103, -94, 70, -27, 54, -89, -14, 88, 52, -25, 81, -92, 24, 0, -6, 37, -63, 62, -56, 69, 4, -26, 110, 8, -58, 99, 58, 80, -88, 74, 84, 24, -38, 1, -14, 20, 47, 16, -7, -14, 85, -67, -48, -55, -104, -92, -108, -100, 110, 23, 46, 111, -62, -93, -72, -37, -87, -96, 18, -40, -104, -66, 109, 19, -14, -49, -83, 63, -18, 26, 16, -8, 87, 27, 34, -1, 39, 1, -20, 51, -40, -58, -70, 86, 68, 7, -61, -49, 16, -69, -50, 63, -63, 80, -25, -12, 19, -73, -59, -101, 6, -27, 19, -56, -42, -104, 81, 27, 92, 63, 68, -35, 84, 106, 7, -4, -109, -64, 10, -2, -20, -20, 97, 37, -80, -12, -4, 109, -75, 33, 79, 7, 16, 45, -35, 80, 107, 7, 73, -51, 47, -85, -103, 30, -31, -70, 23, -72, 35, 18, 109, 97, -21, 10, 73, -103, 57, -40, -7, 13, -63, -82, 26, 14, 82, 76, 30, 10, 100, 3, 26, 66, -29, -82, 87, -86, 72, 41, -28, 63, 1, 108, 101, 17, -26, -65, 45, 106, 43, 32, 74, 41, 105, -31, -32, 109, -87, -25, 85, 109, 3, -49, 69, 105, -81, 46, 93, -12, 46, 101, 12, 2, -101, 101, 1, -23, 69, 89, -87, 106, 50, -14, -105, 58, -32, 75, 66, 35, -77, -82, -7, 94, -42, 108, -32, 66, -81, -64, 30, 65, 110, 24, 33, -26, 87, -74, -77, 84, 104, 5, -20, 94, 96, -97, -51, -34, -36, 91, -98, -84, -93, 84, 60, -30, 107, -42, -54, 94, 41, -77, -106, -98, -95, -42, -9, -35, 5, -51, 75, -81, 13, -46, -69, 26, -4, -93, 26, 17, 10, 19, -64, 50, -10, -107, 84, 91, -41, -70, 57, 35, -33, -73, -13, -96, -24, 15, -56, 10, 26, -95, 0, -54, 8, -21, -32, -76, 30, 50, 4, 9, -23, -51, 105, 9, 96, -93, -71, -72, 47, -90, 21, 66, 100, 33, 35, 64, 49, -57, 51, 96, 21, -97, 1, -40, -95, -83, 91, 16, -109, -111, 34, -107, 46, 43, 62, -23, -92, 69, 90, -87, -110, 15, 106, 96, -77, -80, -50, -19, 0, 32, -48, -47, -57, -11, 79, 103, -93, 54, -21, 65, 65, -94, -40, 73, 97, 78, -71, -72, 63, 12, -15, -15, 89, -80, -69, 67, -63, -107, 40, 36, 60, 14, 27, 74, -13, -43, -10, 7, 34, -77, 8, 108, 4, -38, -112, 32, 0, -20, 87, 68, -101, -7, -15, -53, -2, -3, 23, -102, -66, 62, -112, 8, 76, -18, 74, 71, 63, 104, -101, 49, 35, -22, 10, -112, 15, 71, 52, 49, -48, 100, -45, -29, -78, 7, -65, -41, 11, -76, -1, 47, 98, 48, 22, -10, 14, -56, 13, -73, 67, 55, 100, 83, 73, -61, -87, -76, -93, 20, -47, -68, -70, -34, -16, -7, -61, 9, 55, -32, 40, -97, -39, 12, -83, 12, -48, 60, -13, 10, -32, 70, -110, -53, -32, 72, 33, 9, -13, -52, 20, 47, -78, 70, 45, 83, 98, 
  105, 16, 50, -108, -90, -37, 70, 22, 0, 40, -77, 41, 33, -81, 57, -60, 3, 4, 43, 28, -90, 49, -102, 83, 88, -20, -47, -32, 80, 77, -102, -84, -81, -17, 117, 103, -24, -81, -78, 36, 48, -7, 10, -28, -31, 80, 16, -99, 74, 47, -32, -63, -14, 0, 88, 106, -64, -41, 28, -16, 30, 39, 67, 74, 25, -114, -99, 51, 54, 34, 89, 15, -21, -38, 5, 104, 39, -60, 59, 116, -36, -66, 41, -68, -40, 80, -34, 37, -31, -47, 5, 106, 59, -53, -11, 15, -54, 46, -89, 58, 98, 74, 58, 47, 54, -52, 2, -98, 85, 13, -25, 5, 37, 56, -103, 20, -23, 98, -37, -54, -45, -78, -58, -70, 101, 65, -72, 31, 66, -90, 80, -38, -77, -93, 42, 41, -8, -92, 110, 75, -37, -66, -37, 33, -11, -102, -9, -39, 49, -42, 5, 64, 60, 100, -54, -54, -35, 23, -12, 10, 100, -78, 98, 53, 7, 26, 44, -55, 7, 26, 85, -26, -42, -87, 94, 103, 49, 11, 51, 115, 39, -88, 59, -74, -7, 82, -79, 63, 114, 20, -61, -87, 88, -102, 22, 50, -11, -45, -88, -5, 43, 96, 56, -36, -13, 78, 43, 74, 57, -5, 17, -36, 99, 56, 37, -53, -58, 119, 47, 6, 7, 5, -21, -74, -7, 39, 107, 39, -36, 97, -22, -66, 8, 83, -87, 65, 55, -51, 25, 32, -21, 71, -50, -4, 87, 13, -52, 64, -42, 127, 56, -37, -83, 121, -13, 100, 5, 15, -24, 8, -90, -74, 16, 69, 54, 34, -28, 18, -74, -59, 81, 80, -97, 12, 56, 8, 6, 48, 86, -14, 9, 61, -33, 23, 29, -69, -8, 77, 92, 60, -90, -8, -52, -99, -95, 81, 62, 106, 49, 30, -47, 94, -9, 44, -39, 52, 68, -48, 6, 31, 79, -53, -46, 17, 49, -35, -59, 52, 10, -31, 16, 55, -39, 59, 59, 50, -91, 0, -81, 78, -107, 25, -95, -69, -42, 16, -68, -52, 58, 107, -33, -42, -79, -106, 14, -1, 70, 86, 76, 101, -44, 27, -22, -109, 105, 16, -47, 23, 3, 14, 48, -58, -101, 94, -68, -19, -83, -101, -96, -97, -1, -29, 5, 17, 20, 63, 26, -86, -24, 56, 54, -73, 70, 61, 94, -37, -70, -9, -22, 112, 12, 73, -105, 19, -53, 78, -2, 45, 39, 16, -6, -59, 14, -57, -15, -80, 6, 49, -44, -71, -74, -82, -78, -86, 89, -47, 87, 34, 92, -98, 72, 76, -106, -58, -17, 90, -34, 31, 91, -27, 58, -28, 94, -32, 55, -41, -19, 94, -4, 26, 54, 0, -103, 58, 103, 93, 101, 49, 91, 68, -22, 115, -48, 106, -70, -34, 55, -97, 35, 24, 30, 53, 45, 78, -24, -92, 71, -68, -40, -97, 34, -1, 109, -56, 98, 45, 69, -88, 79, 104, 29, 70, -45, 51, -37, 64, 65, 55, -80, -1, 90, 114, -63, 81, -22, -69, 77, 95, 14, -53, 33, 53, -94, 105, 47, -43, -18, -54, 44, -43, 56, -75, -46, 17, 33, -43, -57, 44, 51, 54, -73, -91, 99, 32, -14, -29, 10, -16, 3, 90, 63, 12, 72, -82, 61, -3, -58, 92, 45, -96, -68, 9, 87, 104, -15, -79, 8, -68, 70, 41, -33, -90, 30, 17, 19, -35, -1, 95, 7, -102, -7, -66, 9, -91, -18, -43, 11, 44, 92, 75, -47, 0, -43, -79, 57, 24, -78, 19, -111, 14, 109, 64, -13, 17, 71, 56, 102, 43, 59, -90, 13, -74, -42, -26, 91, 43, -47, 96, -87, 8, 33, 12, -110, 66, 79, -86, -21, -64, 95, 57, 45, 63, -75, 64, 68, -73, -13, 48, 1, 55, -55, 89, -16, -13, -85, 21, 21, 66, -40, 33, 59, -47, -41, -64, -108, 14, 100, 85, 61, 45, -24, -107, -63, 43, 87, 2, 74, -106, 30, -78, -52, 51, 93, 12, 102, 73, -111, 84, 64, 74, -80, -21, -19, 6, -33, -14, 31, -23, 45, 22, -104, -73, -96, -60, -50, -93, 104, -105, -28, -26, -24, 63, 32, -106, -66, 62, -54, 41, -4, 11, 72, 64, -25, 52, -23, 107, -40, -27, 24, -109, -46, -90, 46, -41, 70, 51, -52, -57, -34, 89, -87, -80, -72, -1, -59, 100, -60, -28, 7, -65, 43, 25, 13, -42, -33, 71, 63, -72, -35, 50, -29, -65, -11, 69, 8, -19, -64, -68, 29, -95, -104, 15, 39, 38, 27, -86, 14, -6, -72, 71, -25, 24, 66, -76, -27, -96, 77, -68, 23, 56, 78, -62, 17, -63, -94, -52, 29, -82, 17, 29, -63, -48, 95, 93, 39, -24, -19, 6, 9, 5, -99, 78, 66, -57, -10, 115, -24, 33, 77, -71, -22, -96, 1, -35, 76, -75, 100, 90, -108, -60, 43, 49, 90, 0, -25, 95, -45, -56, 21, -66, 51, -51, -97, 58, -33, -46, 37, -75, -97, 69, 80, 24, 53, -16, 6, -105, -11, 97, 94, -19, -74, -12, -75, 103, 43, 43, -82, 103, 98, -48, 67, -62, 23, -88, 14, 86, 89, -39, -56, 111, -50, 17, -69, -63, 2, 94, -56, 20, 24, -22, -12, 77, -105, -82, 77, -22, 64, -14, 35, 47, 33, 80, 10, -37, -107, 82, -30, 42, 4, 48, -104, -97, 70, -64, 26, -40, 5, -89, -95, 88, 98, -74, -80, -82, 75, 24, -22, 51, -63, -25, 28, -103, -70, 18, -100, 36, 37, -31, 16, 72, 64, -24, 82, -5, -63, -17, -88, -93, 13, -69, -48, 12, -90, -41, -9, 106, 57, 32, -14, -83, 96, 6, -98, 102, -100, 78, -46, 54, 84, 90, -20, 33, -46, 48, 91, -86, -78, -47, -46, 35, -6, 110, -12, -16, -91, 31, 47, 21, 26, -82, -18, -6, 9, 24, -27, 77, -23, 77, 73, -61, 72, -91, -18, 9, -70, 60, -94, 21, -22, 45, -90, -92, -93, -110, -15, 31, 96, 53, -6, -47, -18, 96, 98, -22, -58, -83, -79, 35, -19, -30, -3, 2, 44, 30, 103, -77, -73, 31, -99, 17, 1, -78, 32, -6, -80, -76, -85, 10, 1, 88, 106, 60, -3, 8, 19, -88, -3, -31, 71, -80, 69, 29, 0, -59, -98, -32, 14, -89, 25, 36, -31, 94, -76, -33, 
  -20, 42, 102, -38, -88, -103, 103, -48, 75, -31, 88, 95, 64, 94, -46, 44, -51, -44, 93, -2, -29, -28, 100, -1, 29, 38, 64, 48, 105, 37, -14, -29, -1, -50, 24, -30, -82, 22, 23, 53, 43, 73, 90, -23, -63, -39, 19, 45, -100, -15, -87, 68, 28, 31, 94, 58, 50, -25, 7, -93, 78, 54, -7, -35, 72, 62, 67, -32, -27, -30, -90, -2, -67, -71, 82, 25, 42, 83, 42, 13, 43, 93, -97, -64, -108, -103, -76, 46, -19, 65, 49, -91, -112, -88, 15, 26, 43, 66, -24, -35, -19, -13, 76, 71, 62, 37, 5, 102, -6, -98, -28, 18, 39, 29, -104, -76, -106, 3, 63, 33, 103, 92, 2, -28, -13, -36, -64, -88, 103, 75, -73, 59, 39, -28, -101, 17, -86, 76, -60, 56, -15, 8, -23, 41, 65, -105, -3, -49, -80, -60, 71, -68, -18, 3, -21, 33, 48, 105, -13, -31, 94, -38, 2, 50, -101, 42, -50, -72, 65, 13, 32, 0, 84, -55, 88, -4, 96, 104, -28, 85, -45, 87, 46, 69, -81, 29, -3, 35, 93, 72, -99, -39, -18, -113, -48, 82, 57, 61, -107, -60, -27, -92, 89, -80, -86, 46, -72, -90, -12, -14, -48, -15, -94, 14, -27, -67, -34, -42, -16, 74, 0, 80, -53, -48, 41, 0, 27, -59, 26, -114, -88, -80, 31, -9, 26, -8, 24, 63, -14, -15, 25, -90, -76, 38, -14, -27, -9, 38, -10, 28, 57, -64, 9, -36, -98, -65, 53, 41, 95, -19, -49, -34, 13, -84, -20, -49, 7, 24, -37, 75, -102, -21, 97, -7, -54, -8, 57, -64, 64, 44, 46, -9, 70, -29, 37, -45, -88, -25, 53, -16, -18, -17, -88, -86, -77, -25, 65, 99, 15, 41, -1, -41, 5, 105, 87, 102, -29, -43, 92, 36, 39, 104, 10, -18, -101, 64, 4, 68, -52, 93, -47, 38, 56, 41, 23, 77, 103, 33, -106, -56, -85, 4, 77, -75, -21, -68, -18, 48, 72, -39, -36, 51, -46, -15, 44, 101, -57, 21, 91, 30, 76, 48, -27, 68, -45, -1, 56, 36, 7, -8, -37, -87, 27, -46, 14, 18, -18, 33, -41, -32, 28, 100, -41, 51, 99, 27, -25, -17, 85, -57, -33, -52, -33, 28, -43, -36, 3, 48, -98, -71, -107, -114, 101, 92, 86, 56, 19, -105, 39, -56, 97, 51, -33, 10, -90, -39, 4, -34, -86, 47, -61, -96, 98, 103, -27, -56, 87, -42, 99, 49, 19, 74, 21, 50, 13, -90, -11, 88, -41, -112, 96, -66, 6, -34, -17, -86, 66, 99, 63, 10, 74, 89, -67, 33, 9, -83, 60, -20, 0, 4, 57, 3, -48, 2, 51, -68, 13, 86, 65, 67, -45, 99, -71, -83, -90, 91, 24, -82, 39, -87, 11, -108, -104, 99, 76, -115, -113, -25, -98, 70, 99, 4, -55, 4, 99, -88, -59, 80, -68, 19, 40, -48, 71, -36, 76, -1, -72, 48, 84, 89, 62, 3, -54, -71, -59, -96, -44, -84, -78, -69, -23, 88, -113, -101, 16, -106, 51, 48, 25, 57, -112, -88, 97, -43, -35, 32, 13, -55, 40, -14, -100, -27, 4, 28, -102, 27, -114, 66, -90, -85, -44, 50, -63, -66, 88, -46, -74, -72, -81, -90, 2, 71, 71, -111, 90, -38, 93, -61, -92, -104, 64, -19, -20, -7, -9, -51, -17, -1, -34, -15, -111, -50, 42, 6, 55, 88, 36, 15, 9, -20, -9, -48, 41, -112, -17, 87, -103, -9, -56, -98, -10, 78, 23, -112, 17, 90, 4, -40, -30, 10, -22, 13, -105, 34, -19, -19, -28, 43, 22, -84, 85, 81, 7, 33, -42, -11, 104, -69, 79, 15, 1, 10, -68, -77, -93, 19, -51, -52, -97, 57, 59, -12, -14, 89, 97, -111, -101, -100, 57, -48, 31, -90, -106, 38, 65, 82, -94, 95, 26, 83, 54, -92, -109, -7, 86, 58, -115, -112, -110, 56, 39, -61, -74, -52, -40, -34, -71, 53, -73, 39, -100, -75, 70, 54, 3, -54, -7, 48, 92, 63, -53, 42, 47, -112, -57, 27, 82, 61, 81, -66, -101, 99, 95, 21, 104, 78, 21, -63, 19, -109, 96, -51, 14, -100, 23, -15, -91, -28, -104, 102, -18, 90, 75, -80, -102, -19, 18, -50, -59, 26, -12, -13, -77, 38, -42, 15, -82, -39, -13, -99, -24, -110, 102, 67, -21, -67, -71, 33, -22, 33, -97, 35, 13, -29, 3, 96, -97, -30, 20, -4, 40, 84, -44, 103, -112, -90, -33, 16, -3, 90, -60, -59, 69, -80, -113, 100, -57, 16, -26, 45, 57, -29, 3, -62, 97, -113, -6, -101, -26, -30, 50, 105, -61, -17, -60, -8, -56, -30, -32, -16, 66, 47, 0, -29, -94, -101, 62, 60, 98, 72, 22, -60, -18, 113, -83, 62, -80, 41, -36, -96, 67, 92, 71, -10, -95, -28, 10, -65, 58, 42, -104, -58, -50, 26, -25, -50, -61, -61, -60, -9, 90, 28, -103, 5, 100, 84, 83, -81, 41, -35, 63, -45, -24, 47, -10, 91, 72, -63, -15, 25, 106, 86, -1, -91, -32, 22, 0, 99, -47, -89, 104, 54, -30, 103, 37, -84, 97, -6, -74, -88, -7, -98, -103, -60, -73, -90, 76, -84, -95, 105, 37, 83, -21, -57, 8, -30, 92, -57, 34, -102, -89, 29, 40, 15, -86, 21, -42, 93, 31, -68, 37, -69, -56, -96, 94, -11, 45, 2, -15, 69, -27, 99, -82, 48, 103, 42, -99, -77, -28, -30, 56, -53, 7, 102, 95, 13, 26, -2, -17, 80, 46, 39, -67, 65, -55, -65, 54, 39, 77, -12, 44, -12, -33, 41, 30, 114, -27, -93, -50, 107, 82, 98, -19, -92, 23, -96, 107, 27, 37, 9, -100, 10, 69, -87, 92, -59, -29, 101, 27, -81, -97, 98, -25, -50, 82, -28, 79, -30, 51, -57, -17, -77, 41, 32, -89, -45, -15, 76, 113, -9, -54, 81, 66, -14, -46, 110, -30, 33, 108, 11, 83, -23, -20, 2, 32, 17, -64, 67, -35, 103, -19, -46, 39, 90, 75, -86, 45, 110, -78, -45, -104, 12, 22, 80, -75, 36, 41, 66, 39, -26, 70, 114, -13, -69, 84, 69, -30, 24, -74, -26, 55, 47, -103, 44, 
  -49, -96, 0, -32, 71, -100, -71, -109, -95, 50, -31, -109, 24, 55, -42, 78, 10, -42, 88, -33, 49, 65, -66, 71, 58, -33, 4, -54, 90, -31, -48, 24, -111, 92, 61, 61, 82, -76, -100, -73, -19, 10, -92, -59, -113, -46, 93, 58, -26, 105, 72, -101, -116, 14, -82, -117, -81, 29, -24, 48, -37, -80, -80, 73, 21, 35, 75, 39, 6, 72, -3, -53, 47, 65, 24, -115, -52, 75, -103, -102, 8, 38, 84, 65, 95, 77, -104, -72, -7, 58, -85, 95, 14, 14, -80, -108, 32, 3, 63, -31, -80, 57, 46, 34, -3, -89, -6, 88, 55, 13, -6, -37, 5, -56, -75, 12, -62, -40, 95, 48, 53, -25, 30, -71, 25, 30, -116, 54, -75, 84, -17, 51, 82, -17, 25, 92, 53, -11, 73, 99, 61, 8, 73, -31, -50, -34, -108, 76, -40, -113, 17, -85, -12, 29, -13, 101, -90, 51, -46, -60, 68, -51, -124, -59, -97, -122, -21, 97, -63, -78, 78, -83, -115, 25, 34, 50, -60, 15, -67, -122, -94, -37, -52, -32, 69, -96, -84, -99, -68, -92, -24, 86, 1, 60, -74, 94, -49, 18, -80, -69, 4, 40, -89, 82, -11, -114, 8, 91, -2, -26, 33, -119, -73, 48, 84, 65, 58, -70, -55, -56, 30, 93, -20, -45, 63, 83, 57, -47, -100, 41, 9, -57, 11, 42, -65, -87, 12, -6, -101, 37, -100, 47, 87, -112, -117, 11, 47, -84, -80, 48, -117, 57, -105, 63, 36, -124, -67, 91, -29, 56, 21, 83, 79, 56, -4, -72, -45, -95, -10, -106, 92, 43, -66, -106, -49, 95, 22, -11, 12, -35, 10, -23, 109, -64, -23, 1, -30, 24, 60, -106, 18, 5, 8, 7, 96, -87, 23, -27, 86, -77, 100, 86, 49, 57, 3, -33, -58, -44, 97, 86, -2, 94, -21, 44, -49, 95, -15, -27, -26, 101, -108, -66, -5, 82, -7, 91, 99, 36, -70, 0, -18, 99, -104, 23, 30, -91, 77, 106, 98, -93, -3, -58, 111, -95, -18, 20, 109, -92, -90, 48, 46, 75, 33, 28, -38, 24, -30, -16, 110, -87, 51, -108, -49, 90, 23, 55, -8, 90, -42, -55, -69, -14, -91, 33, -27, -4, -63, -10, 103, -32, -71, 83, 80, 63, -22, -15, 22, -63, -15, 56, -65, 18, -20, 103, -46, 14, -11, -5, -79, -91, 27, 43, -25, -79, 43, 84, 45, -100, 12, 59, 69, 10, -25, 47, -33, -86, -11, 11, 10, -80, 41, -45, 27, 20, 99, 106, 40, -7, 107, 39, 36, 77, 32, 104, 23, -78, -68, 46, -74, 100, -51, -103, -22, -27, 96, 58, -47, 23, 74, 108, 9, -80, -61, 70, 6, 16, 37, -101, -74, -113, -46, -9, -66, 56, -58, 104, 92, -89, -21, 29, -54, -9, 56, 95, -13, 12, 67, -31, -17, -88, 98, -66, -61, -19, -106, 66, -99, 6, 37, -50, 85, 36, -105, 30, -56, -59, 91, 20, -62, -87, -110, 7, 69, 79, -22, -37, -68, -16, 14, 32, 91, 44, 36, -82, 28, -1, 84, 77, -88, 38, 68, 53, 110, -68, 38, 102, 100, 67, -78, 105, 110, -54, 25, -63, -53, 18, 61, -31, 110, 79, -43, -96, 67, 9, 16, -75, -92, -66, -23, 75, 85, -59, 45, -97, 74, -70, 4, 77, 106, -17, -106, 8, 71, -76, -91, 109, 6, -100, 54, -3, -59, -10, -4, 43, 89, 95, 11, 99, 53, -10, 1, -14, -75, 1, 103, 90, -12, 80, -58, -74, -96, -91, -41, -38, -98, 89, 10, 88, 13, 44, -103, 97, -83, -12, -93, 73, 100, -36, -94, 23, 64, 12, -74, 29, -9, 111, 60, -17, 91, -88, -47, 1, 95, -7, 53, -69, 103, 90, 24, 93, -13, 102, -27, -62, -82, -4, 109, -10, -13, 78, -66, -16, 56, 34, -85, 87, 46, 37, 108, 40, 16, 68, -55, 95, -88, -78, -11, 44, -80, -64, 93, 39, 102, -31, 96, -75, 107, -23, -28, 91, -87, -70, 66, 35, -85, 72, -47, -46, 92, 83, 75, -64, -15, -51, -104, -29, -48, 30, 39, -27, 29, 59, 67, -80, -85, -92, -80, 97, -43, -80, -98, -89, -39, 35, 7, 37, 98, -70, -11, -31, 36, -57, 16, -75, 86, 42, 67, 12, 55, 63, -21, -42, -75, 81, -3, -104, -28, -96, -50, 15, 26, -65, -17, 112, 41, 86, 88, 16, -59, -57, -49, -30, -12, 31, 102, -104, 41, 50, 10, 94, 56, 52, -88, 59, -61, -10, -43, -51, -29, -12, 112, 81, 51, 86, 13, -37, 36, -31, 58, -12, 78, 60, 60, 84, -81, 89, -23, 92, -104, -36, 109, -6, 31, 106, -79, 24, 40, -74, 18, 90, 8, 54, -25, -11, -34, 51, -86, 26, -75, -92, -75, -86, -58, 59, 20, 11, 98, 5, -90, -24, 49, 60, -72, -28, -78, -39, 18, 26, 69, -1, 61, 10, 97, 30, 79, 22, -77, -34, 92, 67, 11, 30, -110, 67, -31, 36, -73, -100, 40, -62, -45, -28, 77, -23, -58, 53, -85, 18, -94, 33, 37, -6, 22, 28, -65, 80, -30, 38, 66, -77, 28, 92, 37, 55, 0, 59, -98, 60, -100, -104, 98, 30, -79, -105, 29, -55, -71, 71, -52, -85, -108, 34, 107, 74, -33, 91, 91, -111, 2, -32, -108, 64, 7, -46, 92, 13, -101, -19, 65, -99, 57, 34, 101, -53, -101, 101, -32, 55, 99, 84, -89, -54, -22, 89, -52, 28, -71, -105, 93, 12, 77, -103, 75, 82, 58, 26, 53, -30, 77, -50, -52, -111, -31, 15, -72, -97, -78, 31, 58, -105, 50, -26, -43, 38, 105, 58, -67, -40, -30, -5, 51, 102, 35, -78, -19, 50, 90, 76, -102, 86, 44, -72, 54, -106, -101, 63, 19, 25, 73, -68, 64, 5, 52, -24, 75, -51, -89, 75, -68, -77, -1, -63, 82, -106, -6, -90, -54, -41, -10, 0, 65, 51, -13, -12, -20, 51, -95, -46, 85, 36, -30, -64, 66, -73, 77, 89, 8, -43, -76, 9, -73, 2, 26, -50, 74, 58, -60, -55, 49, -79, -20, -8, -11, 0, 108, -47, -46, 108, -12, 67, 42, -79, -59, -91, -110, -98, 88, -25, -83, -66, 94, 10, 94, -36, 
  23, -117, -57, -10, 93, 109, -88, 103, -11, 23, 25, 34, 96, 30, -19, -76, -109, -17, -88, -39, -84, -90, -9, -40, -52, -113, -71, 94, -18, 7, 31, -108, -80, -101, -12, 31, 55, -9, 95, -33, 110, 58, 95, -76, 93, -54, 2, 65, 120, 72, 33, 54, -78, -46, 108, -33, 30, 76, 57, -21, 0, -36, -21, -90, 65, 74, 84, 88, 26, 104, -92, -21, 68, -19, 56, -75, -53, -45, 58, -60, -36, 58, -27, -33, 66, 20, 78, 101, 8, -101, 12, 23, -68, 66, -97, -65, -39, 112, 7, -49, 24, 104, 27, -82, -72, 42, -2, -16, -35, 48, 66, -105, -74, 31, -75, 65, 72, -62, 59, -92, 3, -23, -47, -24, 111, 35, -80, 86, 53, 105, -75, -76, 38, 7, -78, -92, 57, -47, -30, 105, 94, 2, 78, -109, -29, 71, 46, -64, 64, 113, -32, -79, -80, -78, -17, 97, -44, -10, 67, -44, -10, 90, 68, 39, 23, 20, 90, -81, -72, -19, 115, -35, 52, 42, -16, -71, 37, 83, -2, 17, 65, -94, -45, 37, 51, 44, -85, 11, 111, 73, -5, -96, 60, 62, -16, 11, -73, -11, 79, -98, -52, 20, 41, 50, 98, 48, 45, -43, -22, 72, 35, 121, 45, -61, -59, 104, -21, -17, -17, 115, -72, 96, 65, 107, -8, 58, -89, 66, 117, 118, -68, 14, 82, 22, -31, -95, -79, -76, 7, 78, 37, -44, -57, 41, -62, 95, -71, -11, -11, 116, 94, -43, -71, 92, -97, -64, 37, -82, 16, -16, -41, 85, -38, -12, -86, -17, -68, 31, 93, -97, -29, 14, -86, 19, 91, -44, -5, -46, -38, -44, 40, 86, -47, -60, 88, 49, 20, 68, 56, -30, -21, -107, -37, 90, 45, 69, 2, 35, 70, -42, 57, 86, -87, 5, -94, -58, 26, 51, 64, 50, -100, 101, -75, 67, -34, -73, 42, -72, -54, -10, -80, -60, -102, 84, 74, -23, -38, -69, 18, 30, 9, -58, -25, -107, -77, -106, 5, -3, 43, 95, 57, 7, -16, 81, -61, 3, 73, -39, -63, -66, 77, -53, -84, -22, -31, -63, 63, -26, -45, -81, 56, -111, -28, 71, -78, -102, 89, -23, -36, -78, 97, -5, 17, -84, -30, -31, 77, 97, -23, 60, 57, 71, 88, -36, 76, -10, 106, -13, 73, 17, -104, 3, -24, 40, -11, -98, -62, -91, -37, -81, -105, -2, -75, 62, -94, -27, -29, 64, 87, 69, -107, -55, 49, 57, 6, 74, 95, 28, 87, 57, -28, -111, 29, 73, -67, 85, -17, 50, 102, -90, -10, -45, -89, -87, -95, -12, 32, -64, -59, 34, 11, -113, -103, -68, 90, -109, -6, 29, 58, -74, 96, 78, -18, -3, -3, 32, 63, -102, 64, -12, 35, 56, 28, -5, 97, 107, -53, -28, 103, -54, 58, 100, -37, -60, -105, 2, 82, 55, -86, 7, 12, -40, -95, 107, 30, 88, 113, -96, 33, -19, -64, 23, 45, 54, 42, -7, 52, 99, 72, 105, 65, 106, -3, 109, 15, 65, -9, -11, 54, 88, -54, 112, -107, 61, -101, -93, 23, -76, -50, -29, 89, 23, 17, 65, -51, 59, -41, -1, -36, -80, 4, 22, -95, -55, 47, -85, 63, -46, 20, 29, -47, -75, -73, -8, 65, -99, 86, 3, 4, 95, 103, 14, 44, 23, 51, 24, 58, -54, -67, 30, -78, -30, 74, -42, -2, -14, 52, -47, 97, -83, -107, -67, -86, -8, -45, 75, 4, 43, 9, 26, -38, 79, -16, -85, 32, 8, 32, -57, 17, -18, 64, -109, 68, -53, -64, -71, -68, -70, -3, 46, 59, -19, 65, 62, -12, 33, -41, 20, -60, 52, -74, 92, -24, -12, -87, -66, -94, 29, -7, 31, 64, -46, -57, 13, -40, -56, -66, -82, 28, -27, -88, -27, 0, 65, -102, -80, -67, -2, 42, -2, 61, -23, 17, -33, 57, 88, -104, -1, 103, 99, -27, -43, -43, 66, 19, 48, -5, -6, 22, -90, 38, -69, 3, 39, 75, -3, 56, 9, -26, 33, -62, 47, 93, -58, -52, 88, 28, -95, -89, -33, -3, -105, 58, -82, 46, -28, 69, 99, 9, -23, 47, 11, 80, -72, -40, 27, 96, 50, -85, 15, -96, -92, -26, 30, -59, -72, -51, 76, 107, 47, 106, -36, -63, -41, 13, 100, 71, -31, -1, -89, 82, 90, 32, -51, -47, 21, 69, 40, -57, 40, 77, 16, 74, -30, 89, -49, -35, 38, -82, -85, -39, 68, 21, 63, -41, 4, 92, 57, -106, -99, -16, 3, 35, -6, 85, -88, 30, 45, -60, -106, -105, -91, 38, -102, -110, 72, -20, -2, -83, -92, 30, 66, 1, 78, 64, -97, 53, -78, 36, -99, 16, 81, -104, 53, -63, 114, -44, 95, -94, -30, -100, 41, 18, 18, -83, -82, 106, 67, 82, 57, 0, -90, 10, 110, 8, 105, 61, 92, -91, -18, 42, 13, 105, 111, -51, 10, -45, -76, -5, -14, -76, 33, 60, 81, -71, -9, 35, -72, 12, -4, -71, -89, 12, 99, -95, -41, -81, -21, 36, -27, 50, 77, -56, -9, 32, 111, -91, 49, 41, -38, 104, 79, -46, -106, 72, 51, 12, 41, 26, 65, 86, -34, -8, 9, 40, -86, -42, -91, -9, 90, -67, 82, 93, -70, 100, -34, -63, 64, -46, -2, 4, 103, 112, -73, 45, 21, -16, -92, 102, 23, -89, 10, -9, -76, 24, 82, -15, 41, -74, -79, -59, 28, -83, -57, -56, 108, 12, -56, 65, -49, 73, 5, -16, 3, 88, 101, 54, 64, 42, -8, -3, -61, -3, 26, -83, -46, -50, -92, -50, 106, -35, 110, -74, -70, -51, 16, 84, 78, 5, -101, -24, 87, -39, 38, 19, 21, -42, 87, 21, -31, -8, 102, -52, 98, -12, 106, -46, -82, 71, 94, 105, -65, 97, -57, 87, 85, 58, 101, 45, 85, 30, 111, -96, -51, -83, 108, 111, 68, 33, 48, -44, -51, -100, -85, 69, 1, -59, -51, -95, 85, -20, -97, 34, 18, 17, -72, -96, 74, -87, -35, 33, -25, 45, -30, 45, -45, -12, -84, 59, -87, 28, -27, 59, 88, 34, -29, 8, -68, -36, -59, 55, -38, 50, 60, -6, -107, -68, 89, -84, 65, -104, 38, 20, 84, -32, -77, 25, 21, -32, -4, -95, 23, 75, -28, 
  99, -93, -60, 21, 7, -65, -49, 37, 51, 36, 105, -109, -94, 106, -108, -43, -97, 14, 61, -87, 92, 106, -56, 79, -103, -65, -16, -90, 86, -31, 110, -60, -50, 67, -17, -73, -88, 25, 87, -101, -110, 89, -105, 70, -17, 67, -41, -71, -107, -47, -22, 48, 35, -20, -83, -71, 98, -27, 94, -62, 6, 45, -66, 99, 15, 98, 94, 68, -20, 57, 11, -67, 98, -45, 94, 52, -46, 27, -3, 9, 58, 11, -75, -51, 20, -87, 82, 9, -91, 21, -50, 33, -17, 61, -94, -3, 84, 85, 88, 110, -101, 100, -72, 80, -91, -39, 67, -98, -44, -65, -49, -3, 105, 57, -100, 66, 107, -94, 82, 90, -57, -15, -12, -66, -77, -86, -8, 103, 99, -73, -38, -66, -4, -3, 74, 57, 100, 50, -92, 87, -36, 41, -35, -56, 76, 73, 39, -68, 62, 79, -34, -78, 83, 71, 58, -61, -34, 62, -31, -92, 39, 65, 3, -12, -88, -56, 42, 29, 76, -54, 66, 53, -47, -58, -92, 57, 99, 65, 36, 64, -107, -75, -83, -1, 32, 32, 16, 35, 99, 35, -90, 8, -42, 93, -30, -28, -96, 20, 72, 77, 98, -110, 87, -51, -108, 63, -101, -40, -3, 44, 36, 64, -42, -25, -21, 81, -51, -104, -107, 24, 3, 103, -54, 58, 68, 99, -20, -20, -54, -23, 73, 76, -43, -11, -59, -63, 3, 98, -91, -40, -36, 63, 96, -28, -16, -86, -98, 14, 6, -14, 7, -64, -47, 23, 16, -69, 45, -36, -90, 30, 83, -98, 89, -27, -8, 20, -47, -80, -31, 61, 76, -69, 103, 104, 110, -63, 4, -67, 97, -75, -13, -10, -78, 51, 69, 53, -92, 4, -47, -48, -79, -22, 57, -92, -36, 21, 107, -39, -105, -49, -28, 53, 70, -108, 28, -58, -20, 68, -68, 14, 24, -41, 87, -12, -110, -31, -41, 108, -49, 44, -43, 98, -102, -23, -100, 65, 25, -102, -44, 57, 5, -50, -103, -45, -1, 50, -39, -10, -38, -71, 110, 39, -94, 62, 13, -40, -36, -9, 105, -26, 47, -8, -30, -46, -97, 72, 86, 108, -57, -106, 11, 92, 54, -8, -61, -53, 29, 100, -49, 51, -85, 57, -41, -83, -26, -55, -71, -23, 98, -9, 67, 14, 40, 38, 52, -73, -62, -7, 8, -22, -86, -78, -82, 63, 65, 109, 15, 24, -24, -8, 91, 83, -3, -20, 110, 56, -87, -64, -1, -79, 110, 47, -49, 38, 46, -47, -73, 105, -75, -50, -109, -33, -33, 69, 104, 34, 81, 95, 81, 96, -58, 15, -57, -3, -47, -84, 35, -94, 83, 43, 101, -57, 54, 67, -23, 27, 46, -62, -104, -13, -26, -85, -89, 71, 23, 24, 77, -28, -29, 92, 29, -18, -6, -48, 91, 71, 53, -53, -107, 62, 92, -24, -13, -21, 83, -91, -56, 102, 108, 23, 98, 67, 23, -8, 95, -31, -58, 15, 58, 22, -42, 59, 49, 73, 44, -34, 83, 75, -6, 46, -98, 12, 29, -75, -80, -33, 0, -100, -45, 85, 105, 16, 47, 24, 39, -92, 76, 62, 42, -30, -60, -98, -14, 35, 29, -17, -91, 83, 98, 25, -108, 99, 21, -78, -18, -63, 91, -48, 10, -36, 98, -86, 3, 52, -36, -109, 108, 21, 26, 19, -24, -8, -60, -101, 60, 21, -16, -49, 36, 80, -96, -40, 43, -20, -89, 100, -15, -78, -65, -36, -101, 51, -59, -103, -25, 35, -54, 3, 50, 2, 59, -42, 101, 58, -30, -79, -93, -43, -77, -97, -3, -12, 92, 93, -75, -10, 87, -61, 31, -35, -9, -33, 10, -16, -76, -36, 42, -4, 95, 67, 3, 82, -97, 81, 50, 73, 20, -93, 25, 43, 40, 76, 47, 23, 45, 78, -109, -92, 87, -49, -76, 32, -65, -100, -12, -5, 70, 85, 49, 30, -26, 15, -26, -96, 70, 38, -5, 85, -95, -26, -60, -109, -58, 102, 75, -9, -13, -73, 51, 6, 52, 21, -10, 24, 31, 0, 29, 108, 110, -77, -13, -50, -104, -28, 101, -90, -67, 56, 88, -31, -55, 19, -75, -28, 84, -42, 100, -62, 84, -82, 62, -16, -30, 39, -12, 29, 104, -23, 53, -38, 82, -95, 110, -12, -18, 110, -74, 2, -18, -8, -79, 74, 104, 58, 15, -54, -46, -96, -45, -45, 70, 27, 3, -77, 106, -3, 34, -87, -35, 23, -54, 45, 29, 66, -57, -48, 71, -87, 59, 10, 28, -90, 39, -66, 97, -30, 37, 14, -18, -7, -89, 106, -14, 47, 53, 21, -87, -3, 73, 70, -100, 26, -24, 103, 0, -21, 74, -93, -54, -43, -49, 29, -5, -28, 85, 92, 94, 53, -99, -98, -91, -105, 109, 50, 64, -109, 50, -11, -84, -77, -20, -44, 88, 52, -43, 84, -85, -56, 103, 82, 89, -72, -96, 43, -26, 63, -91, 103, 104, 76, 33, -93, 89, 58, -18, -21, -107, -85, 18, -101, 29, 39, -29, -37, 36, -78, 24, 78, 18, -19, 22, 107, 109, -95, -17, -8, 97, -81, 58, -88, 21, 36, -62, 94, -66, -84, 76, -17, 86, 1, 15, 71, 96, 63, -47, 69, 1, 12, -96, -40, 20, 94, 94, -98, 91, 28, -98, -107, 70, 39, 109, -79, 82, 92, 23, -3, 69, 3, -91, -65, -40, 41, -12, -37, 5, 54, -75, 63, -99, 89, 13, -35, 40, -89, 13, -42, 7, 62, -23, 38, -104, 110, 90, -69, -18, -99, -87, 51, -92, -95, -92, 10, -108, 29, 83, -78, 2, -82, 64, -109, -106, -89, 48, 79, -59, -20, 0, 2, 49, 19, 57, -105, 89, 51, -66, 84, 34, 12, -71, -84, 103, -86, 0, -33, -106, -46, 83, -80, -97, 58, -27, -52, -38, 11, -90, 77, 67, 73, 38, 82, -93, 97, 3, -109, -24, 14, 1, -98, 79, -86, 20, -94, 66, 0, 109, 37, -19, 98, -102, 42, 71, 66, -26, -46, 67, -59, -8, -37, -50, -37, -81, 53, 14, -19, -10, -71, -62, 14, 32, 15, -68, -87, -6, -38, -105, 33, -78, 75, -85, 46, -45, -27, 78, -47, -62, 56, -75, 71, -78, 93, -37, 72, -101, -109, -5, -33, -89, -61, 70, -4, 54, 19, 69, 36, 58, 98, -40, 87, 80, -17, -68, 39, 30, 70, 
  -5, 97, -76, -108, -107, 25, -18, 13, 35, 31, -12, 37, -66, 46, 47, 80, 13, 43, 33, 60, -105, 86, -95, 43, 20, -4, -54, -45, -26, -66, 24, -43, -44, 52, -13, 18, -5, -106, 23, 92, 58, -57, 27, -83, 72, -73, -103, -32, -85, 70, 40, -14, 72, 88, 39, -67, 90, 43, -85, 86, -2, -73, 15, -53, 12, 39, 12, -70, 5, 65, -99, 84, 83, 89, 40, 74, -51, 20, 87, 36, -82, -70, 9, 98, 104, 79, 5, 52, 57, 104, -8, 103, 18, 64, 100, 72, -96, 49, 53, 45, 78, 90, 99, -39, 69, -74, 12, 38, 103, -68, 28, -98, -112, 14, 59, -74, -42, -101, -9, -17, -63, 17, -19, -44, 36, -31, -69, -56, -36, -87, -25, -38, 18, 87, -78, -49, -65, -38, 8, 11, -63, 27, -51, -12, 84, 13, 99, 7, -13, -90, 49, -44, -50, 80, 61, 39, -58, 69, -60, -95, -66, 99, -94, 57, 3, -38, -100, 67, 65, 5, -28, -57, -65, -77, 53, 101, -18, -110, -99, -31, 105, -52, -78, -65, -35, 17, -22, -48, -2, -113, -99, 60, 28, -98, 51, -93, -97, -94, 25, 39, 78, 88, -21, -38, 78, -11, 43, 74, -72, -103, -16, -67, -49, 88, -35, 85, 71, 50, -2, -78, -60, -97, 8, 59, -65, 8, 48, 12, -31, -11, 8, -33, 96, -97, -50, -77, -89, -64, 45, 39, -70, 76, -115, 20, -96, 18, 8, -59, 63, 17, -24, -89, 54, 61, -112, 4, 96, 48, -68, -99, -85, -33, 43, 109, 64, -104, 27, 85, -8, 5, -67, 10, -31, -29, -4, 8, 27, -56, -65, 3, -67, 39, -90, 79, -62, -27, -76, 77, 1, -64, 92, 26, 20, -77, -113, -72, -100, -99, -42, 65, 37, -7, 86, -101, 78, -7, 53, -34, 2, 103, -85, -44, -36, 27, -77, -104, 84, -77, 89, 105, 50, 73, -62, -106, 30, 42, 29, -92, -107, -6, 40, 11, -76, 42, -60, -105, 19, -77, 97, 67, -32, 30, -80, -67, 6, -57, -64, -104, 20, -59, 94, -76, -29, -60, 79, -51, -45, -43, -14, 41, -95, 39, 47, 74, 96, -18, -69, 47, -35, 30, 92, -29, -22, 26, -46, 55, -79, 23, 29, -77, -74, 91, -81, 22, -15, -60, 43, -1, -15, -31, -13, -18, -7, -3, -84, -47, -8, 80, -44, 75, 90, 96, 81, 14, 103, 96, 73, -96, -100, -98, 44, -60, 7, -37, -63, 24, 56, -110, -14, -1, -108, 52, -110, 73, -74, -82, -32, -63, 77, -69, 54, 78, -41, 25, 21, -106, 47, -71, 52, 52, 103, -31, -31, 101, -22, -85, -16, -22, -74, 34, -5, 80, 87, -107, -30, -4, -60, -46, -29, 48, -112, 96, -60, -5, 1, -44, -97, 44, 92, -90, -94, -56, 103, -86, 81, -73, -63, -83, -91, -19, -98, 80, 9, 65, -65, 68, -93, -113, 51, -110, -27, -38, 23, -107, 17, 79, 102, -109, 73, -83, 46, -19, 14, 88, 29, 105, 2, 91, 73, 95, -54, -106, 59, -25, -77, -98, -92, 96, -36, 94, 46, -73, 90, -95, 23, -12, -1, -27, 23, -43, -87, 38, 5, 74, 94, -87, 65, 103, 14, 40, -103, 49, 91, 50, -111, -79, 57, -10, -11, -45, 99, -90, -102, 11, 9, -91, 6, 34, -38, -42, -6, -2, 17, -109, -50, 41, -35, 58, -21, 83, 61, 12, -40, -45, -4, -29, -39, -60, 1, -45, -82, 15, -98, 87, 45, 18, -38, -15, -44, 34, -46, 64, -58, -103, -21, -13, -48, -97, -36, 93, 49, 13, 37, -24, 27, 65, 91, -9, -80, -68, -69, 58, 2, 73, -13, -14, 93, 52, 0, -41, -110, -42, -107, 83, -94, 90, -35, -112, -99, -69, 83, -77, -59, -78, 23, 88, -5, -7, -97, -36, 19, 55, -78, 5, 19, -94, -23, -69, 58, 104, 28, 62, -40, -107, 55, -49, 20, -22, -25, -110, -63, -75, -49, -48, -3, 100, -91, 61, -9, 27, 33, 71, 56, -45, -8, 3, -98, 38, 42, -14, 37, 46, 7, -108, -51, -82, -16, -54, -3, 102, -32, 62, -8, 21, -7, -50, 105, 7, -64, -101, 47, -14, -106, -48, 9, 78, 30, -96, 64, 95, 76, -91, 48, 48, 17, -80, -36, -46, 8, 28, 48, 27, -111, 75, 54, -55, 83, -19, -68, -87, -20, -15, 66, -58, 2, 33, 20, -54, 6, 27, 75, -23, -109, -56, 74, 53, -19, 10, 14, -36, 86, -105, -32, -8, -82, -27, -49, -49, 25, -12, 24, -70, -59, -91, 25, 6, -87, -61, -28, 62, -22, 72, -34, -30, -47, -73, 36, -35, 100, -59, -72, 75, -2, -69, 20, -28, -21, -56, 34, 84, -21, 18, 52, 89, -82, -12, 89, -52, -97, -97, -72, -2, -94, -3, 77, 6, 33, 104, -100, -72, 61, 104, -56, -86, -81, -48, 57, -3, -98, 104, -81, -92, 68, 109, -28, -8, -72, 88, -20, -3, -104, -31, 41, -21, 82, 76, 98, 33, 62, 111, 113, 72, 47, 86, -85, 90, -11, -79, 36, -78, -18, 108, -37, -51, -10, 22, -65, 111, -60, 39, -20, 91, 58, -44, 104, -44, -38, 81, 88, -11, 112, 92, 36, 23, 5, -92, 63, 108, 103, 0, 56, 112, -58, -44, -35, 101, -88, -13, -62, -13, -100, 21, -15, -2, 20, -50, -86, -68, 16, -60, 33, -55, -1, 114, 58, 81, 54, -29, 38, -42, -10, 102, -69, 93, 47, 98, 16, 62, 56, 88, 16, 82, 91, -89, -32, -64, -53, 53, -48, 70, 53, 95, -22, 32, 109, -105, -28, -22, 86, -92, -105, 87, -71, 70, 27, -20, 98, 90, -12, -29, 51, 111, -104, 27, 101, -85, 85, 73, -71, 97, 69, -28, 64, 93, -51, 29, -1, 109, -95, -29, 1, 106, -27, -85, -54, -45, 53, 46, 106, -9, 53, 21, 23, -14, -99, -12, 59, 63, -40, -58, -17, 40, 26, -29, 16, -55, -41, -86, -51, 105, 61, -91, -11, -84, -6, 75, 107, 13, 25, 2, -57, 97, -103, -102, 91, 84, 91, -55, -99, -16, -101, -66, 17, -42, 6, -3, -74, 57, 33, -14, -62, -66, 13, 34, -61, 61, -15, -15, 5, 3, -49, 14, -18, -25, 
  1, -61, -43, -6, 91, -33, -43, -83, 32, -101, -102, -43, 21, 49, -44, 36, -92, -60, 43, -40, -95, -61, 43, -45, 47, -36, -25, 81, -80, 75, 36, -4, 79, -72, -40, -65, 25, -99, -57, -2, -7, -26, 14, 73, -18, -92, 77, -106, -18, -49, 6, -19, -28, -87, -26, -114, -24, -28, 67, -78, -73, 92, -61, 5, -75, 57, 2, -45, -7, 99, -95, -25, -61, 88, 75, 50, -60, 21, -75, 13, 14, 88, -119, -42, -14, 66, 0, -76, 92, -36, 5, 101, 93, 13, 12, -61, 3, -41, 88, -58, -22, -22, -26, -17, 95, 78, 51, 102, -21, -69, 59, 25, 76, -106, -102, 31, -40, 92, -67, -102, 44, -29, -75, -24, 91, 8, -19, -104, 84, 89, -30, 80, -23, 14, -85, -7, 67, -84, 92, -109, 82, -40, 50, -48, -64, 32, 100, 65, -10, 12, -69, -26, 70, 42, -12, -56, 40, 82, -82, -38, -111, 19, -36, 68, 62, -80, 73, -115, -42, 4, 33, -36, 33, 65, 30, -43, 36, 72, -123, 82, 69, -59, -111, 33, 86, -71, -87, 56, -115, 39, 91, -120, -94, 93, 88, 60, 11, -71, -52, 15, -77, 50, -94, -51, 77, 28, -112, -30, -92, -60, -108, 92, 49, -4, -59, -85, 74, -21, 61, 13, -108, -23, 80, -113, -25, -15, 47, -54, -86, -2, -123, -119, 64, -96, 10, 4, 86, 36, 82, 84, -76, -106, -83, -125, -89, -77, -36, -45, 32, 17, -43, 42, -114, -70, -67, -17, 36, -5, -120, 95, 52, -17, -24, 6, 8, 70, 1, -45, -99, -61, -63, 41, -54, -19, -96, -100, -86, -101, -50, -29, -86, -80, -11, 98, 31, 57, 13, -74, 6, 88, -25, -103, 11, -41, -19, -22, -81, 99, -62, -41, 101, 13, 33, 68, 28, 18, 16, 20, -94, 16, 68, -48, 31, -75, 70, 5, -34, -41, -5, 103, 91, -39, 72, -72, 72, -50, -6, -13, -54, -98, 91, 81, -30, 20, 58, 2, 75, 38, 51, 58, 67, 28, -98, 12, -37, 36, 111, -32, 62, -45, -14, 10, -45, 91, -68, -8, 98, -102, -90, -61, -18, -52, -26, -93, -36, 10, 81, -76, -56, -19, 61, -18, 102, -50, 102, 86, 97, -28, -109, 18, 17, -62, 18, 49, 87, 26, 53, 80, -58, 52, -97, -74, -106, -36, -15, -98, 9, -64, 105, 18, -27, 14, -4, 92, 32, -105, 25, 17, -63, 99, 44, -1, 59, -106, -86, -107, 97, -108, -89, 104, 26, -75, 11, -66, -105, -97, -85, 12, 91, -64, -30, 70, 30, -104, 81, -62, 63, -73, 10, -107, -57, 100, -42, -16, -72, -47, 78, 48, -73, -18, 45, -103, -46, -31, -7, 20, -22, 22, -10, -109, -12, 81, 57, 31, -34, 39, -107, 104, 71, 100, 92, -86, 62, -43, 60, -84, 31, 57, -61, 2, -34, -104, 55, -102, -69, -8, -27, -104, 59, 77, 94, 42, -75, -96, 88, 96, -4, -14, -93, -10, 76, 60, 99, 89, -22, -13, -26, -90, -14, -11, -57, -18, 38, 47, -108, 96, 16, 54, 62, 6, 24, 58, 18, -34, 49, -90, 82, -26, -45, 73, 61, -8, 36, -40, 2, 19, 17, -32, -84, -95, -72, 102, 78, -59, -19, 68, 1, -92, 86, -6, 109, -34, -29, 51, -54, -59, 103, 92, -107, -55, 55, 87, 106, -51, -93, -61, -49, -86, 37, 62, -64, -94, -57, 8, -81, -4, -15, 11, 15, -80, -61, 57, -106, -35, -105, 105, 42, -88, 34, 56, -73, -108, -21, 85, 48, 41, -46, 55, -75, 89, 42, 14, 6, 19, -95, -86, 52, 59, 72, -54, 16, -92, 103, 55, -92, -87, 74, -37, -37, 82, -31, -59, -97, 16, 62, -52, 49, 37, 39, 52, 94, -25, -89, 18, -39, 46, -29, -84, 75, -83, -70, 79, 7, -27, -109, -33, 18, 23, -23, 70, 54, -86, 45, 66, 11, -4, -32, 16, 19, -31, -49, 20, 56, 15, 93, 11, -35, 1, 38, -42, 21, -89, 28, -19, -40, -100, -106, -47, 25, 5, 89, 11, -9, -64, -88, 91, 68, 48, 44, -28, 4, 110, 107, -108, 31, 92, -19, -70, 16, 38, 6, 34, -69, -64, -78, 0, 17, 8, 101, 4, 58, -62, 75, 48, -102, 82, -30, -11, 110, 85, 37, 40, -101, 45, -68, -7, -41, -34, 104, -49, -10, -7, -60, -26, -101, -2, 35, 50, 44, -57, -81, 83, 91, -56, 27, -81, 26, 25, -24, -61, 39, -79, -54, 3, 46, -69, 53, 46, 30, 77, -74, 77, -21, 94, 47, -51, 54, 65, 3, -46, 48, 79, -103, -41, -43, 30, 43, -2, 25, 1, 7, 106, 42, -38, -43, 63, 96, 43, 33, -37, 57, 3, 37, 41, 106, -21, -41, 105, -11, -33, -34, -19, -68, 4, -84, 2, 77, -30, -2, 27, -84, 63, -60, 87, -20, 96, 110, 89, 23, -52, 68, 102, 9, -43, 92, 77, -29, -31, -51, 44, -51, 63, 49, -103, -32, -47, -45, 61, 23, 100, -32, 91, 59, -14, 98, 107, -46, 107, 73, 44, -56, -107, -8, 38, -4, 0, 110, 51, 34, 87, 6, -87, -76, -86, -29, 22, 90, 72, -80, -86, 4, 63, 49, 22, 0, -21, -38, -85, 88, -22, 91, -25, -26, -18, -10, 2, -89, 75, -90, 26, -41, 66, 58, -26, 78, -69, 102, 68, 76, 76, -16, 73, 99, 76, -94, 28, -90, -32, 45, -82, 59, -27, 84, 106, 103, -34, 85, 110, -74, 55, 31, 8, -110, -31, 8, 52, -88, 53, 102, -81, -13, 20, 42, 108, -30, 106, -50, -23, -21, 80, -106, -12, 75, 67, 71, -55, -78, 63, 53, 92, 109, 71, -89, -88, 103, -94, 76, -61, -78, 71, 16, -1, 35, -106, 70, 94, 91, 1, -89, -27, 9, -4, 69, 6, 56, 13, -38, -49, -58, 4, 17, -101, 14, -80, 8, -32, -33, -27, 61, 102, -45, 92, 97, 41, -86, 23, -6, -90, 57, 40, -50, -46, 33, -11, -17, 72, -110, -100, 11, 49, 52, -46, -102, 73, 72, -4, -66, -5, 17, -94, -60, -22, 14, 83, 22, 48, -69, -84, 67, 19, 109, 85, -89, 90, 12, -105, -45, -6, 68, 21, -48, 97, -12, -42, 
  -19, 43, 96, 77, 79, -26, -35, 97, 46, -8, -31, 115, -33, 84, -71, -32, -70, 36, 107, -53, 64, -47, -81, 108, -59, -83, -49, 40, -3, -58, -9, -78, 11, 35, 18, 116, 112, -52, 86, -85, -96, -23, 116, -25, 40, -66, 19, 110, -72, 60, -46, -57, 110, 65, 43, -71, 90, -89, -19, -49, 36, -81, 52, 106, -23, 53, -10, 8, 42, -25, 90, -35, 75, 107, 59, 35, -79, -72, 91, -75, -78, -89, -87, 26, 65, 110, -36, 35, 36, 58, 8, 112, -92, -49, 85, 67, 54, -31, 107, -93, 102, 53, 17, -63, -60, -109, -86, 105, 33, -102, -95, -47, 87, 9, -70, 39, 86, 114, -49, -5, -56, 113, 38, 109, 14, 60, 59, 101, 118, 104, 68, 56, -59, 96, 17, -13, 110, 72, 34, -13, -101, -86, -88, 81, 64, 2, 35, 49, 100, -1, 62, 100, -98, -72, 41, -23, -12, 52, 52, -46, -73, -82, -92, 9, 106, 96, -79, -40, 105, 37, -92, -21, 90, 94, 96, 101, 36, 25, -22, 97, 120, 104, 112, -33, -81, 65, 112, -20, 28, -73, 85, 107, 15, 109, 109, -77, 48, 102, 63, -43, 11, -41, 30, -61, 46, -35, 55, -17, 72, -31, -72, 4, 6, 19, -6, 71, -35, -72, 37, -85, -12, -20, 1, -28, -61, 1, 8, -53, -96, 30, 104, -5, 79, 63, 64, -4, 27, 72, 64, -49, 122, -81, -22, -86, -40, 9, 99, 74, 117, -15, 52, 95, -62, -29, 55, -49, -87, 34, -53, 122, 114, 105, 0, 49, -13, -57, -87, 17, -57, -45, 89, -51, 71, -90, 101, 39, 90, 42, 47, 61, -18, -13, -70, -12, -71, 46, -72, -84, 34, -19, -61, 33, -101, -8, 40, -83, -22, -23, -92, 78, 34, 24, 60, -38, -31, 26, -107, -14, 17, -20, 29, -106, 57, 49, -95, 45, -76, -7, 35, 35, -84, -83, 55, -88, 38, -22, -111, 53, 102, 64, -110, -23, -9, 13, -70, 40, 46, -7, -89, 111, 79, 44, -54, 41, -73, 55, 16, -12, 13, -47, 24, 66, 105, -47, -83, 97, -20, -38, 81, -78, -105, 47, -25, -107, 88, -35, 84, -53, 5, 98, -17, 58, -75, 44, 44, -78, 9, -38, -6, -38, -31, -35, -49, 112, 98, 77, -86, -56, -40, 6, 75, -16, -25, -72, 36, 76, 41, 97, -9, -91, 48, -64, -93, 50, -68, -84, -31, -3, -28, -28, -15, -30, 43, 105, 10, 54, -104, 78, -100, 56, 78, 107, 73, -34, 47, -23, -95, 80, 31, 66, -60, -74, 13, 61, 59, 112, -99, -3, -77, 25, -79, -75, -5, 8, -42, 103, 9, -83, -29, 12, 0, 97, 69, 64, -99, -21, -28, 7, 79, 55, 45, 48, -93, -49, 69, 17, -5, -93, -96, -14, 64, 16, 63, -30, 32, 38, 24, 43, -45, 107, -85, -60, -19, -47, -23, 3, -20, 87, 7, 50, -50, 66, 30, 112, 51, -81, 88, 15, -68, 110, 10, 19, 83, -21, 75, -57, 112, 73, -63, 73, 58, -63, -17, 66, 33, 106, 40, 58, 31, -35, 66, 24, 19, 79, -18, 69, 30, 71, -70, -93, 16, 13, -10, 31, 43, 62, 83, -17, 95, -96, 95, 67, -89, 79, 64, 27, 24, 54, -42, 30, -65, 89, 16, 92, 39, 13, 0, -96, 91, -48, -77, -32, -71, 60, 56, 1, 38, -71, -65, 23, 54, 78, 104, 64, -69, 66, 58, -31, -66, -54, 104, -35, -76, 66, 91, -93, 73, 88, -23, 104, 88, 47, -65, 6, -69, 25, -26, 103, 71, 90, 33, -26, 37, 40, 95, -43, -78, 14, 22, -68, -106, 32, -64, 95, 23, 58, -16, -33, 66, 62, 22, 3, -1, 66, -10, -11, 80, -19, 65, -32, 2, -63, 8, -26, -33, 9, 51, -45, 24, -102, 27, -104, -49, 61, -98, 92, 55, 69, -7, 16, 22, 79, -70, -4, -21, 81, 69, -43, 44, -101, -34, 85, -67, 33, -16, -41, -50, 93, 75, 67, -51, -65, 80, 26, -5, 24, -57, -100, 70, 3, -35, -107, -8, -89, 33, 30, -23, -68, -69, -91, 58, -31, 31, 53, -87, -11, 18, -58, 106, -72, 110, 49, 94, 57, -94, -1, -47, -95, 18, -7, 79, -12, 42, 63, -33, 7, 23, 93, -23, 54, 27, -41, 95, -37, 65, 64, 93, -21, 96, -66, -82, -62, -69, -38, -48, -80, 9, 29, 62, -9, 59, -96, 74, -32, -93, 10, 4, 89, -39, -41, 5, 62, -45, -89, -70, 61, -48, -75, -4, 35, -1, -42, 31, -43, -89, 57, 3, 32, -17, -77, -103, 64, -75, -78, 63, 34, -17, -78, 14, -6, 25, 70, -57, 64, 104, 55, 116, -84, 104, -105, 19, 57, -5, -88, 58, -39, 96, -93, -75, 67, 60, 21, 53, -28, 7, 29, 103, 94, -61, 101, 52, -63, -76, 86, -4, -41, 7, 86, -13, -90, -97, 79, 90, 32, 3, 12, 30, -108, -46, 89, 29, 96, 92, -43, -90, 43, -39, -104, 83, -10, 58, 108, -100, 18, 43, -84, 98, -22, 4, -31, -97, -99, 107, 30, -9, 9, 3, 4, 40, 24, -97, 74, 89, -33, -22, 83, 33, 32, -65, 43, -20, -35, 47, 26, -101, -53, 102, -69, 96, 87, -55, -68, 63, 6, -53, 68, -63, -63, 25, -27, -23, 86, 21, -1, 43, -65, 10, -99, 27, 11, 87, 9, 38, 104, -108, 37, 104, -16, -58, -22, 25, -58, 36, -14, 29, -72, -8, 73, -48, 6, -97, -5, -50, 32, 54, -54, -75, 72, 58, 31, -84, 10, 54, -110, -73, -19, -28, -22, 90, -90, 88, -96, 44, 93, -44, 101, -76, 49, 103, -27, -103, -111, 18, -59, 74, -29, -111, 56, 100, 105, 101, -79, -62, 76, -106, 52, 104, 48, -85, 88, 84, 71, 77, -80, -47, 11, 70, 101, -30, -99, -45, -91, 73, 68, -50, -54, 0, -26, 15, -64, -98, -66, 81, 83, -44, -82, -108, 96, 87, -100, -21, -99, 108, 105, -80, -25, -49, -95, 10, 49, -37, -105, 49, -14, -93, 42, 76, 102, -98, -85, 73, 93, -78, -15, -42, 59, -76, 34, -66, 109, -17, 46, -107, 77, -9, -4, 67, 41, 57, 56, -58, 73, 61, -82, 
  -94, -36, 60, -111, 48, 14, -66, -8, 3, -36, -96, -35, -91, -75, -78, -55, 11, -61, -57, 45, -53, 88, -62, 83, -51, -97, -1, -30, -96, -74, 52, -46, -65, -93, 114, 92, 37, -70, -77, -33, -73, 28, -62, 62, 7, -14, 117, 29, -78, -96, 7, -90, 55, -57, 79, -68, -64, -66, -28, 79, -34, -56, -76, 85, 50, -65, 93, -87, 10, 99, 70, 61, 85, -45, -98, 40, 106, 27, -24, 44, 39, 55, 103, 2, 59, 25, 96, 19, 5, -80, -98, 89, 76, -30, -74, -71, 67, 32, 110, -61, -105, 115, 31, 11, -55, 0, -58, -80, 5, 65, -74, 12, -111, -56, -60, -77, 59, 49, -94, -89, 102, -48, -22, 31, 41, 118, -17, -40, 20, 16, -87, -43, 10, 2, -8, -52, 34, 111, -34, 45, 84, -20, -2, -43, 98, 83, 28, 34, -14, -22, 3, 47, 95, 53, 3, -50, 64, -35, 108, -10, 41, -32, 52, -73, -19, -80, -28, 121, 3, 83, 103, -71, 116, 91, 1, 68, -56, -48, 91, 81, 56, -35, -86, 113, 100, -68, -86, -59, -8, 21, 11, 30, -18, -40, 36, -35, -30, -36, 81, -70, 79, -74, -25, 51, -4, -38, -55, 37, -7, -58, 24, 24, 97, 115, -42, 36, 98, 104, 1, 115, -47, 91, -7, 110, -6, 92, -61, 62, 4, -23, 42, -11, 84, -78, 23, -83, -41, 24, 72, -81, 35, -21, 7, 9, -28, 33, 39, -38, 18, 1, -11, 116, 86, -76, -46, -15, 118, -93, 13, 65, -43, 66, 98, -93, -111, 71, 2, 71, -88, 65, 97, -84, -36, 23, -40, -29, -96, -82, 69, 8, 105, 0, -31, 45, -100, -96, -20, -17, 27, 70, 5, -82, -22, 11, -23, -20, -1, 19, -98, 43, -44, 93, 105, 78, 17, -75, -87, 34, 5, 0, -44, 81, 1, 72, -38, 84, -30, 86, 3, -4, 0, 54, 20, 62, 39, -63, 12, 19, 99, 29, 75, 92, 33, -22, -110, -57, 73, 69, 57, 88, -43, -109, -96, 30, -100, 54, 6, -18, -100, -18, 20, -113, -82, 58, -53, 39, 104, -68, 94, 18, -8, 56, 46, -87, -62, -77, 28, -60, 30, 106, -4, 21, -48, -6, -26, 7, -33, -15, -103, 27, 100, -47, -93, -75, 15, 2, -98, -41, 55, -1, -87, 55, -34, 74, 112, 37, 61, -32, 32, 10, -20, -71, -14, 21, 103, -83, 51, 86, 101, -91, 57, 109, -40, -71, 34, 80, -24, 45, -86, -87, 5, -107, 93, -78, -15, 31, -5, 29, 68, -56, 106, -40, -88, -58, -54, -83, -7, 29, -103, -80, -50, -81, -37, 4, 50, -35, 6, 7, -72, -85, -6, 83, 35, -25, 45, 70, 41, 52, -13, -45, -36, -49, -88, -90, 89, 0, -71, 83, -14, -54, 53, 66, -49, -24, -69, 96, -11, -104, -56, -81, 14, -20, 16, 29, -8, 28, -52, 23, -49, 76, 88, 104, -39, -30, 109, -27, -82, -58, 110, 41, 10, 14, -43, 103, 102, 17, 46, 96, 51, 22, 80, 26, -23, 35, -60, 103, -41, -64, 54, 37, 83, -39, -64, 12, 107, -34, 62, 59, -5, 60, 71, -85, 67, 69, -31, 103, -109, 74, -3, -64, 0, 7, -32, -61, 20, -106, -12, -37, -106, -23, 42, -89, -68, -60, -36, 33, -106, 37, -76, 35, 76, 11, -33, -20, 98, -111, -10, 90, -83, -53, -107, 0, -48, 64, -91, -18, -50, -59, -48, -82, 79, -74, 80, 85, 91, -70, 102, -62, 6, -24, 18, 91, -63, -105, -104, -83, -16, -67, 57, 56, -12, -69, -20, -60, 56, -35, 72, -91, -75, 91, 89, 97, -8, 72, -43, 20, -62, -53, 63, 8, -12, 39, 79, -27, 22, 34, 59, 69, 74, 37, -21, 77, -86, -31, 51, 29, 89, 14, 25, -77, 63, -59, -108, 37, 79, -107, 44, -101, -10, 20, 64, 82, 85, -44, 50, 99, -38, 7, 71, -104, -88, 52, -49, 8, 71, -83, -67, -106, -40, -87, -16, -46, -73, -111, 80, -11, 81, 102, 73, -48, 98, -3, -43, -93, 54, -23, -64, 32, -93, -27, 43, -83, 72, -46, 76, 92, 80, -52, 97, -107, 9, -101, -94, -90, 20, 17, 58, -51, -88, -41, 38, -18, -105, -94, -3, 9, 3, 107, 12, 48, 97, -35, -96, 29, 91, 85, 86, -52, 94, -31, -67, 101, 44, -102, -79, 86, -94, 25, -19, 18, 80, -15, -8, -48, 73, 4, 64, -73, 57, -48, 22, 96, 102, -85, -95, -13, -41, -84, 108, 89, -94, -108, -92, -50, -77, -19, 55, 100, -22, 95, -24, 21, 94, -66, -24, -55, -86, 106, 88, 54, -30, -23, -28, 32, -18, -23, -22, 95, -64, 90, -44, -66, -23, -72, 73, -82, -101, -33, -73, 31, -30, -100, 36, -22, 111, -10, -4, -62, -55, 49, -102, -106, 25, 70, -71, -75, 61, -70, -67, 45, -27, -44, 4, 53, 74, -107, -31, -56, 42, 9, -17, -68, 95, 27, -104, -101, 32, -11, -63, -59, -69, -27, -87, 108, 75, -75, -23, -99, 34, -33, -11, -52, -37, 1, 69, 44, -66, 24, 56, 109, 94, 52, -38, 36, 50, 12, -67, 64, 74, 55, -99, 12, -101, 36, -29, -20, 93, -108, -56, -48, 9, -106, -75, -44, 0, -6, 7, -20, 86, 78, 101, 96, -30, 106, 74, -77, -59, 31, 37, -71, -51, 81, 73, -61, 19, 76, -47, -7, -103, -99, 55, -12, -108, 58, 16, -24, -61, -101, 10, -98, 16, 7, -94, -46, -88, -10, -100, 106, 39, -15, -37, -23, 57, 73, -8, -12, -95, 89, -31, -55, -14, -103, 62, -49, -25, -9, 38, 5, 102, 103, -54, 80, -96, -2, 112, 107, 23, 41, -12, -69, 52, 74, -52, 7, 22, -62, 20, 15, -29, -105, 107, -72, 109, 65, 6, 112, -100, -24, 43, 40, -78, 84, -18, 92, -28, 91, -91, 73, 98, -28, -67, 87, 1, -9, 63, -5, 106, 109, 111, -56, -61, 110, -53, 32, 71, -20, -42, 16, -72, 53, -17, 86, -8, -18, 108, 48, -84, -103, 69, -25, -90, -83, 94, 14, 45, -61, -85, -37, 4, 94, 91, 57, 60, -19, 80, -97, -20, -95, -100, -70, 70, -45, 62, -10, 
