/*
 * Copyright (c) 2026 EdgeImpulse Inc.
 *
 * Generated by Edge Impulse and licensed under the applicable Edge Impulse
 * Terms of Service. Community and Professional Terms of Service
 * (https://edgeimpulse.com/legal/terms-of-service) or Enterprise Terms of
 * Service (https://edgeimpulse.com/legal/enterprise-terms-of-service),
 * according to your product plan subscription (the “License”).
 *
 * This software, documentation and other associated files (collectively referred
 * to as the “Software”) is a single SDK variation generated by the Edge Impulse
 * platform and requires an active paid Edge Impulse subscription to use this
 * Software for any purpose.
 *
 * You may NOT use this Software unless you have an active Edge Impulse subscription
 * that meets the eligibility requirements for the applicable License, subject to
 * your full and continued compliance with the terms and conditions of the License,
 * including without limitation any usage restrictions under the applicable License.
 *
 * If you do not have an active Edge Impulse product plan subscription, or if use
 * of this Software exceeds the usage limitations of your Edge Impulse product plan
 * subscription, you are not permitted to use this Software and must immediately
 * delete and erase all copies of this Software within your control or possession.
 * Edge Impulse reserves all rights and remedies available to enforce its rights.
 *
 * Unless required by applicable law or agreed to in writing, the Software is
 * distributed on an "AS IS" BASIS, WITHOUT WARRANTIES OR CONDITIONS OF ANY KIND,
 * either express or implied. See the License for the specific language governing
 * permissions, disclaimers and limitations under the License.
 */
// Generated on: 31.01.2026 19:13:57

#include <stdio.h>
#include <stdlib.h>
#include "edge-impulse-sdk/tensorflow/lite/c/builtin_op_data.h"
#include "edge-impulse-sdk/tensorflow/lite/c/common.h"
#include "edge-impulse-sdk/tensorflow/lite/micro/micro_mutable_op_resolver.h"
#include "edge-impulse-sdk/porting/ei_classifier_porting.h"

#if EI_CLASSIFIER_PRINT_STATE
#if defined(__cplusplus) && EI_C_LINKAGE == 1
extern "C" {
    extern void ei_printf(const char *format, ...);
}
#else
extern void ei_printf(const char *format, ...);
#endif
#endif

#define STRINGIZE(x) #x
#define STRINGIZE_VALUE_OF(x) STRINGIZE(x)

#if defined (__GNUC__)  /* GNU compiler */
#define ALIGN(X) __attribute__((aligned(X)))
#define DEFINE_SECTION(x) __attribute__((section(x)))
#elif defined (_MSC_VER)
#define ALIGN(X) __declspec(align(X))
#elif defined (__TASKING__) /* TASKING Compiler */
#define ALIGN(X) __align(X)
#define DEFINE_SECTION(x) __attribute__((section(x)))
#elif defined (__ARMCC_VERSION) /* Arm Compiler */
#define ALIGN(X) __ALIGNED(x)
#define DEFINE_SECTION(x) __attribute__((section(x)))
#elif defined (__ICCARM__) /* IAR Compiler */
#define ALIGN(x) __attribute__((aligned(x)))
#define DEFINE_SECTION(x) __attribute__((section(x)))
#elif defined (__clang__) /* LLVM/Clang Compiler */
#define ALIGN(X) __ALIGNED(x)
#define DEFINE_SECTION(x) __attribute__((section(x)))
#endif

#if defined(EI_MODEL_SECTION) && (defined(__GNUC__) || defined(__clang__))
#define MODEL_SECTION(X) __attribute__((section(STRINGIZE_VALUE_OF(X))))
#else
#define MODEL_SECTION(X)
#endif

#ifndef EI_MAX_SCRATCH_BUFFER_COUNT
#ifndef CONFIG_IDF_TARGET_ESP32S3
#define EI_MAX_SCRATCH_BUFFER_COUNT 4
#else
#define EI_MAX_SCRATCH_BUFFER_COUNT 4
#endif // CONFIG_IDF_TARGET_ESP32S3
#endif // EI_MAX_SCRATCH_BUFFER_COUNT

#ifndef EI_MAX_OVERFLOW_BUFFER_COUNT
#define EI_MAX_OVERFLOW_BUFFER_COUNT 10
#endif // EI_MAX_OVERFLOW_BUFFER_COUNT

using namespace tflite;
using namespace tflite::ops;
using namespace tflite::ops::micro;

namespace {

#if defined(EI_CLASSIFIER_ALLOCATION_STATIC_HIMAX) || defined(EI_CLASSIFIER_ALLOCATION_STATIC_HIMAX_GNU)
constexpr int kTensorArenaSize = 5600;
#else
constexpr int kTensorArenaSize = 4576;
#endif

#if defined(EI_CLASSIFIER_ALLOCATION_STATIC)
#if defined (EI_TENSOR_ARENA_LOCATION)
uint8_t tensor_arena[kTensorArenaSize] ALIGN(16) DEFINE_SECTION(STRINGIZE_VALUE_OF(EI_TENSOR_ARENA_LOCATION));
#else
uint8_t tensor_arena[kTensorArenaSize] ALIGN(16);
#endif
#elif defined(EI_CLASSIFIER_ALLOCATION_STATIC_HIMAX)
#pragma Bss(".tensor_arena")
uint8_t tensor_arena[kTensorArenaSize] ALIGN(16);
#pragma Bss()
#elif defined(EI_CLASSIFIER_ALLOCATION_STATIC_HIMAX_GNU)
uint8_t tensor_arena[kTensorArenaSize] ALIGN(16) __attribute__((section(".tensor_arena")));
#else
#define EI_CLASSIFIER_ALLOCATION_HEAP 1
uint8_t* tensor_arena = NULL;
#endif

static uint8_t* tensor_boundary;
static uint8_t* current_location;

template <int SZ, class T> struct TfArray {
  int sz; T elem[SZ];
};

enum used_operators_e {
  OP_FULLY_CONNECTED, OP_SOFTMAX,  OP_LAST
};

struct TensorInfo_t { // subset of TfLiteTensor used for initialization from constant memory
  TfLiteAllocationType allocation_type;
  void* data;
  TfLiteIntArray* dims;
  size_t bytes;
};

typedef struct {
  TfLiteTensor tensor;
  int16_t index;
} TfLiteTensorWithIndex;

typedef struct {
  TfLiteEvalTensor tensor;
  int16_t index;
} TfLiteEvalTensorWithIndex;

TfLiteContext ctx{};
static const int MAX_TFL_TENSOR_COUNT = 4;
static TfLiteTensorWithIndex tflTensors[MAX_TFL_TENSOR_COUNT];
static const int MAX_TFL_EVAL_COUNT = 4;
static TfLiteEvalTensorWithIndex tflEvalTensors[MAX_TFL_EVAL_COUNT];
TfLiteRegistration registrations[OP_LAST];

namespace g0 {
const TfArray<2, int> tensor_dimension0 = { 2, { 1,1044 } };
const MODEL_SECTION(EI_MODEL_SECTION) ALIGN(16) float tensor_data1[10] = { 0.0035377813037484884, 0, 0, -0.002552700461819768, 8.0701363913249224e-05, -0.0024315398186445236, -0.0046636573970317841, -4.0199673094321042e-05, 0.0015898192068561912, 0, };
const TfArray<1, int> tensor_dimension1 = { 1, { 10 } };
const MODEL_SECTION(EI_MODEL_SECTION) ALIGN(16) float tensor_data2[20] = { 0.0016697070095688105, -0.0011602452723309398, 0.001198328216560185, -0.00047515478217974305, 0, 0, -0.00088166812201961875, -0.00014471217582467943, -0.00086887512588873506, 0.0013055179733783007, -0.00026995385996997356, -0.0032555640209466219, 0.0010325704934075475, -0.0022559866774827242, 0, -0.0034353388473391533, -0.00011720867769327015, 0.0013196925865486264, -0.0011394147295504808, 0, };
const TfArray<1, int> tensor_dimension2 = { 1, { 20 } };
const MODEL_SECTION(EI_MODEL_SECTION) ALIGN(8) float tensor_data3[2] = { 3.7254972994560376e-05, -3.725475471583195e-05, };
const TfArray<1, int> tensor_dimension3 = { 1, { 2 } };
const MODEL_SECTION(EI_MODEL_SECTION) ALIGN(16) float tensor_data4[20*1044] = { 
  0.0013593247858807445, -0.0078554227948188782, -0.018066257238388062, 0.063231527805328369, 0.0232388935983181, 0.036319050937891006, 0.020554715767502785, -0.047134056687355042, 0.024980202317237854, -0.057204272598028183, -0.0026911923196166754, 0.025851940736174583, -0.063919372856616974, -0.047325730323791504, -0.015942690894007683, 0.065011166036128998, 0.018925132229924202, 0.054485008120536804, -0.035504210740327835, -0.035505447536706924, 0.064188867807388306, -0.018074426800012589, 0.062870822846889496, 0.014923881739377975, -0.065597087144851685, 0.048842210322618484, -0.036557283252477646, -0.035481929779052734, -0.050453361123800278, -0.065269134938716888, 0.019169384613633156, 0.024005159735679626, 0.044966951012611389, -0.062291204929351807, -0.069316737353801727, 0.031532373279333115, -0.046675723046064377, 0.054652716964483261, -0.007876301184296608, -0.046527177095413208, 0.03078877180814743, -0.0070820096880197525, -0.056867975741624832, -0.022305488586425781, -0.063812747597694397, 0.061778239905834198, -0.027546443045139313, 0.06427205353975296, -0.051851022988557816, -0.054400615394115448, -0.011288169771432877, -0.068676255643367767, 0.029951229691505432, -0.017303254455327988, -0.064708925783634186, 0.042999055236577988, 0.065364807844161987, 0.055939961224794388, 0.072337523102760315, 0.044199660420417786, 0.028153622522950172, -0.030390525236725807, 0.0085373260080814362, -0.049356665462255478, -0.0078738108277320862, -0.048038795590400696, 0.0031186977867037058, 0.023710090667009354, 0.060907498002052307, -0.0088810557499527931, 0.018545582890510559, -0.062166605144739151, -0.043926309794187546, -0.018721358850598335, -0.016015412285923958, -0.040767110884189606, 0.050474543124437332, 0.033544000238180161, -0.011327609419822693, 0.060631126165390015, 0.019165517762303352, -0.0039613032713532448, -0.01271324884146452, 0.021404663100838661, -0.016465267166495323, 0.0089614661410450935, -0.073505356907844543, -0.01017423439770937, -0.059584625065326691, -0.069632016122341156, 0.025150425732135773, -0.015538749285042286, -0.038661498576402664, 0.060890130698680878, -0.0095234112814068794, -0.074449270963668823, 0.067991949617862701, 0.037183467298746109, -0.057199914008378983, -0.030659919604659081, -0.0054990490898489952, -0.077142976224422455, 0.016162332147359848, 0.038330022245645523, -0.016850057989358902, -0.028010036796331406, -0.0274640042334795, 0.0053272843360900879, -0.038487598299980164, -0.035423561930656433, 0.059823259711265564, 0.024072982370853424, 0.0060824984684586525, 0.048461548984050751, -0.035026386380195618, 0.065587438642978668, -0.03688763827085495, 0.02597188763320446, -0.071988537907600403, 0.024019362404942513, 0.031936947256326675, -0.0051173190586268902, 0.016858207061886787, 0.063352257013320923, -0.078230321407318115, -0.01684529148042202, 0.04430924728512764, 0.0044987015426158905, 0.051964808255434036, -0.014346042647957802, -0.066594690084457397, -0.044735204428434372, 0.065764576196670532, 0.014037235639989376, 0.0561995729804039, -0.040802445262670517, 0.00016034104919526726, 0.075320087373256683, -0.023279348388314247, -0.0014590006321668625, 0.037497196346521378, -0.007473283912986517, -0.055344913154840469, -0.043765038251876831, -0.026936642825603485, -0.013603460974991322, -0.015428616665303707, 0.037800822407007217, -0.045046761631965637, -0.042226716876029968, -0.034068532288074493, 0.043048873543739319, -0.019905988126993179, 0.040997281670570374, 0.02428671158850193, -0.026553669944405556, 0.051810167729854584, 0.016226006671786308, -0.072099395096302032, -0.0015915792901068926, 0.020522339269518852, 0.048646315932273865, -0.045377213507890701, -0.037691041827201843, -0.029802430421113968, -0.033316932618618011, -0.060986239463090897, -0.057241559028625488, 0.044531077146530151, 0.055882971733808517, -0.045367568731307983, -0.013495166786015034, -0.022097423672676086, -0.025855230167508125, -0.015362849459052086, 0.047276090830564499, 0.039018627256155014, 0.037581056356430054, -0.053442288190126419, -0.057024557143449783, 0.0075686993077397346, 0.032588806003332138, -0.071922428905963898, -0.051129803061485291, 0.00198532291688025, 0.027226217091083527, -0.040460970252752304, -0.071132473647594452, 0.041380807757377625, -0.001193702220916748, 0.058991074562072754, -0.051829375326633453, 0.0034498695749789476, 0.073149032890796661, 0.033243495970964432, 0.033561166375875473, -0.049961362034082413, 0.05694831907749176, -0.071784853935241699, -0.0089640859514474869, -0.021991144865751266, 0.037298034876585007, 0.064439460635185242, 0.02831905335187912, 0.022212380543351173, -0.05125095322728157, 0.05217931792140007, -0.044087782502174377, 0.018382733687758446, 0.055451817810535431, 0.064984984695911407, 0.035818971693515778, -0.014912251383066177, -0.028794035315513611, -0.031166952103376389, -0.018251067027449608, -0.027804501354694366, -0.041258152574300766, -0.020145554095506668, -0.04251866415143013, 0.019873626530170441, 0.050207260996103287, 0.024393731728196144, -0.065116353332996368, 0.062272179871797562, -0.054744195193052292, -0.027225174009799957, -0.038006328046321869, -0.073887020349502563, 0.069389462471008301, -0.020082162693142891, -0.07089262455701828, -0.030387965962290764, -0.02678309753537178, -0.064586624503135681, -0.051299404352903366, 0.059370364993810654, 0.010175715200603008, 0.054730530828237534, 0.054286200553178787, -0.031492173671722412, -0.047866519540548325, 0.030616207048296928, -0.048747476190328598, 0.047140341252088547, 0.056758545339107513, -0.04502241313457489, 0.003479057690128684, -0.03379053995013237, 0.06888849288225174, 0.021918999031186104, 0.047184556722640991, -0.019564492627978325, 0.028521206229925156, -0.069796644151210785, -0.04297187551856041, -0.0072757881134748459, 0.027993293479084969, -0.038735367357730865, 0.023442234843969345, -0.0005448067095130682, 0.063771948218345642, -0.043761532753705978, 0.011979213915765285, -0.0043406756594777107, 0.061924867331981659, -0.0052534979768097401, 0.057835530489683151, 0.055897604674100876, 0.068336561322212219, 0.040921054780483246, -0.027915207669138908, -0.010356048122048378, -0.0059982230886816978, -0.010143806226551533, -0.07068740576505661, -0.062191713601350784, 0.031230054795742035, -0.013696259818971157, -0.038553543388843536, 0.066899076104164124, -0.041035041213035583, 0.012053667567670345, -0.024846544489264488, -0.043011210858821869, -0.00081815349403768778, -0.048456624150276184, -0.026536416262388229, -0.02500930055975914, -0.019200960174202919, -0.012763313017785549, 0.076566554605960846, 0.014498342759907246, -0.033123917877674103, 0.060924094170331955, 0.026709938421845436, -0.0078983092680573463, -0.012284040451049805, 0.010156331583857536, 0.057391602545976639, 0.0032065643463283777, 0.039806928485631943, 0.018235236406326294, -0.070975653827190399, 0.037081226706504822, -0.027182834222912788, 0.069465182721614838, -0.071138434112071991, 0.027553075924515724, 0.028989089652895927, -0.022769555449485779, -0.072241514921188354, -0.0079320799559354782, -0.021234884858131409, 0.00037816894473508, 1.4238521544029936e-05, -0.0048374775797128677, -0.04095170646905899, 0.0011479189852252603, -0.065860390663146973, 0.028875712305307388, -0.030096443369984627, 0.0016240283148363233, 0.015066873282194138, 0.01600228063762188, -0.06330687552690506, -0.010782742872834206, 0.019232554361224174, -0.0013237233506515622, -0.021122254431247711, -0.026487007737159729, 0.021139131858944893, -0.063754431903362274, -0.027883155271410942, -0.00512342294678092, 0.059126105159521103, -0.009570365771651268, 0.06572578102350235, -0.063331760466098785, -0.056535094976425171, -0.062282811850309372, -0.053922399878501892, 0.026998039335012436, 0.023012731224298477, -0.026915427297353745, 0.026311252266168594, -0.045628491789102554, -0.012205242179334164, 0.01874607615172863, -0.030147027224302292, 0.057117175310850143, 0.070833310484886169, -0.052680734544992447, -0.07148260623216629, 0.022536130622029305, 0.0045281862840056419, -0.0062788850627839565, -0.035032413899898529, 0.041768450289964676, 0.0021583326160907745, -0.013460591435432434, -0.019316548481583595, 0.041327096521854401, 0.069531455636024475, 0.032144021242856979, -0.0048533836379647255, -0.047633249312639236, 0.023975778371095657, -0.032317567616701126, 0.063540622591972351, 0.014420188963413239, -0.034178100526332855, 0.038036204874515533, 0.047131806612014771, 0.0026067493017762899, 0.017892519012093544, -0.071426063776016235, -0.041214648634195328, 0.023730775341391563, -0.015398891642689705, 0.035630520433187485, 0.052485130727291107, -0.02976241335272789, 0.025230299681425095, 0.060837611556053162, -0.06264052540063858, -0.015762297436594963, -0.045142412185668945, 0.043538864701986313, -0.035571672022342682, 0.031801726669073105, -0.029582971706986427, -0.055565696209669113, -0.0058718482032418251, 0.012807311490178108, -0.06571805477142334, -0.016905935481190681, -0.073013313114643097, 0.019064592197537422, 0.034985829144716263, -0.017101448029279709, 0.028012651950120926, 0.018329570069909096, 0.038995012640953064, 0.0096835838630795479, -0.064897485077381134, 0.046951819211244583, 0.0092743011191487312, 0.00022048420214559883, -0.023343773558735847, 0.014343097805976868, 0.062548309564590454, 0.013624787330627441, 0.0090421941131353378, -0.023549435660243034, -0.072429001331329346, 0.074051894247531891, -0.041646923869848251, 0.075405716896057129, -0.072040386497974396, 0.049644514918327332, 0.053848493844270706, -0.045669987797737122, 0.058602482080459595, 0.058997213840484619, -0.029276039451360703, 0.065366297960281372, -0.0036209241952747107, -0.049847371876239777, 0.039664730429649353, 0.069118328392505646, 0.053458817303180695, 0.067156977951526642, 0.0098877996206283569, -0.060541249811649323, 0.013714691624045372, 0.065995357930660248, 0.061781745404005051, -0.035343620926141739, 0.010070035234093666, -0.03933948278427124, -0.019912580028176308, -0.010917315259575844, -0.046689197421073914, -0.056688215583562851, -0.011695363558828831, 0.049350559711456299, 0.02275872603058815, -0.049403786659240723, -0.033947888761758804, 0.067992538213729858, -0.018600763753056526, 0.030076375231146812, -0.070610679686069489, 0.059030219912528992, 0.0090705594047904015, -0.053045731037855148, -0.034507416188716888, -0.038182862102985382, -0.0022903848439455032, -0.056073319166898727, 0.074286617338657379, -0.0058074393309652805, -0.051275782287120819, 0.052655566483736038, -0.056854326277971268, -0.052107304334640503, 0.012464860454201698, -0.061668161302804947, -0.0082608442753553391, 0.035137612372636795, -0.029909815639257431, 0.039638899266719818, 0.032063830643892288, -0.051529198884963989, 0.054849248379468918, -0.042999077588319778, -0.020128430798649788, 0.023981703445315361, 0.014277318492531776, 0.068389125168323517, -0.0025910541880875826, -0.05545501783490181, -0.01666034571826458, 0.048733048141002655, 0.012873799540102482, -0.070774935185909271, -0.0034791163634508848, -0.024824993684887886, -0.014652392826974392, -0.010226932354271412, -0.026092244312167168, 0.062295921146869659, -0.023663973435759544, -0.0068924766965210438, -0.030740508809685707, -0.04532729834318161, 0.071592748165130615, -0.045876648277044296, 0.040506988763809204, -0.053849224001169205, -0.016320483759045601, -0.061348039656877518, 0.0075027192942798138, 0.057692922651767731, -0.014959724619984627, -0.025519797578454018, 0.058546353131532669, -0.047238059341907501, 0.017910139635205269, 0.071551576256752014, 0.037886075675487518, -0.0074296658858656883, -0.025078147649765015, 0.0094094499945640564, 0.0093543361872434616, 0.0066364947706460953, -0.060649417340755463, -0.039859768003225327, 0.0012548754457384348, -0.044465627521276474, 0.023889482021331787, -0.05036596953868866, -0.0063694426789879799, 0.0066276048310101032, 0.042357966303825378, 0.011032615788280964, 0.0096373520791530609, 0.016594547778367996, 0.073082961142063141, -0.039867665618658066, -0.028269080445170403, 0.0047584841959178448, -0.065367154777050018, 0.015878748148679733, 0.06560235470533371, 0.012026410549879074, -0.058293700218200684, -0.019473610445857048, -0.065591566264629364, 0.0095092765986919403, -0.00697323027998209, 0.051923777908086777, -0.028021318838000298, 0.034471578896045685, 0.064419060945510864, -0.049753919243812561, -0.035446334630250931, 0.022841567173600197, -0.030060164630413055, 0.040552746504545212, 0.034261204302310944, -0.070440329611301422, 0.049886513501405716, -0.023196879774332047, -0.020838627591729164, -0.03492731973528862, -0.071138910949230194, 0.058702662587165833, 0.06378280371427536, 0.045180346816778183, 0.0049034352414309978, 0.029812157154083252, -0.037395428866147995, -0.0033794117625802755, 0.07466483861207962, -0.056934550404548645, 0.038274303078651428, -0.069998800754547119, -0.068818353116512299, -0.045837458223104477, -0.010082568973302841, 0.0083233611658215523, -0.018329087644815445, 0.02859988808631897, 0.0072795064188539982, 0.069550119340419769, 0.03145202249288559, 0.043017450720071793, 0.053041610866785049, 0.029514715075492859, 0.042449869215488434, -0.062999613583087921, 0.044222015887498856, -0.033182866871356964, -0.037004653364419937, -0.060080491006374359, 0.068579196929931641, 0.029298525303602219, 0.031150819733738899, -0.027282081544399261, 0.041089072823524475, 0.0094656776636838913, -0.032384447753429413, 0.0032963932026177645, 0.02031540684401989, -0.0049194223247468472, -0.015551982447504997, 0.040622435510158539, 0.048969846218824387, 0.026873838156461716, 0.063935205340385437, -0.0023283262271434069, 0.031364500522613525, -0.06949201226234436, -0.025607099756598473, -0.068575337529182434, -0.0025610851589590311, 0.062205571681261063, 0.030387565493583679, 0.039929870516061783, 0.070662379264831543, -0.055639706552028656, 0.056798163801431656, 0.010520004667341709, 0.0094053624197840691, 0.021705662831664085, -9.1835216153413057e-05, 0.0049343672581017017, -0.026313804090023041, -0.035212010145187378, -0.067623943090438843, -0.025043651461601257, -0.033007744699716568, 0.022834181785583496, 0.030929751694202423, 0.062132261693477631, -0.043591771274805069, -0.030840704217553139, 0.010773045942187309, 0.058111052960157394, 0.022868458181619644, -0.032218165695667267, 0.072869263589382172, -0.053390718996524811, 0.021959464997053146, 0.060536134988069534, 0.023895446211099625, -0.051600489765405655, -0.012284091673791409, -0.0063155139796435833, 0.070025958120822906, 0.0095855016261339188, 0.010850970633327961, 0.048428498208522797, -0.068531177937984467, -0.0080310739576816559, -0.072990037500858307, 0.02001446858048439, 0.050892423838376999, 0.01725136861205101, 0.074706763029098511, -0.060073789209127426, 0.013614132069051266, -0.0046096970327198505, 0.041448898613452911, -0.058305874466896057, -0.03033161349594593, 0.048774339258670807, -0.028397463262081146, -0.027494652196764946, -0.025268994271755219, -0.033321604132652283, 0.020640769973397255, -0.012979799881577492, 0.01847543939948082, 0.071406975388526917, -0.032146081328392029, 0.060471571981906891, 0.066975384950637817, 0.025887234136462212, -0.0034423700999468565, -0.026052452623844147, 0.06703602522611618, 0.042177941650152206, -0.0043519595637917519, 0.053313199430704117, 0.016115717589855194, -0.043415773659944534, -0.070019282400608063, -0.019526850432157516, 0.076518118381500244, -0.02792823500931263, 0.066138811409473419, 0.0018897121772170067, 0.066457629203796387, 0.010581734590232372, -0.064207121729850769, 0.0036023680586367846, -0.058097705245018005, 0.00055327860172837973, 0.032776247709989548, -0.019999492913484573, 0.034625642001628876, -0.042546253651380539, -0.0022495121229439974, 0.016096672043204308, -0.042396575212478638, -0.039186220616102219, 0.027344774454832077, 0.045403569936752319, 0.031545341014862061, 0.065770506858825684, -0.045105330646038055, -0.062155716121196747, -0.059649068862199783, 0.022893950343132019, 0.071737177670001984, 0.055970262736082077, 0.041614487767219543, 0.061874616891145706, -0.015947837382555008, 0.0015618285397067666, 2.3209557184600271e-05, 0.057227242738008499, -0.049967728555202484, -0.02374233677983284, 0.031632892787456512, -0.026233023032546043, 0.0011302760103717446, -0.067573823034763336, 0.039634019136428833, 0.011653931811451912, 0.017061552032828331, -0.062904544174671173, -0.031178863719105721, 0.0052950941026210785, -0.013309728354215622, -0.0088874911889433861, 0.053319651633501053, -0.041505929082632065, 0.072403967380523682, 0.024543458595871925, 0.046829696744680405, 0.022588882595300674, 0.0011851040180772543, 0.072514161467552185, -0.0082433391362428665, 0.035036243498325348, 0.02385612390935421, 0.054536107927560806, -0.05113142728805542, -0.029878892004489899, -0.022723235189914703, 0.0060344710946083069, 0.0198651272803545, 0.046264786273241043, -0.040214728564023972, -0.056933999061584473, 0.026656368747353554, -0.060305181890726089, -0.0010828166268765926, 0.0044345096684992313, -0.033184569329023361, -0.045964010059833527, -0.071137674152851105, -0.034868024289608002, -0.022781550884246826, 0.032992374151945114, -0.059457965195178986, -0.058182593435049057, -0.042744666337966919, 0.053460605442523956, -0.022166630253195763, -0.016719652339816093, 0.0041909418068826199, -0.050145108252763748, 0.047361500561237335, -0.047352414578199387, -0.048558279871940613, 0.070554398000240326, -0.037140939384698868, 0.016411544755101204, -0.010335681959986687, 0.052815303206443787, 0.010907723568379879, -0.047154087573289871, -0.016541503369808197, 0.064929232001304626, -0.039466381072998047, -0.037104558199644089, 0.065728709101676941, 0.018938764929771423, 0.042268052697181702, -0.075126536190509796, 0.0024841446429491043, -0.0011647545034065843, -0.022852605208754539, -0.038625497370958328, 0.030282352119684219, -0.059503179043531418, -0.0027344312984496355, 0.012087295763194561, -0.064112856984138489, 0.00030289520509541035, -0.0067734438925981522, 0.036270994693040848, -0.019459251314401627, 0.0087576219812035561, 0.0070323767140507698, -0.063854224979877472, -0.00023043352121021599, -0.028291808441281319, 0.028357448056340218, -0.010313327424228191, 0.06380143016576767, 0.071368873119354248, -0.026559924706816673, -0.02410573698580265, -0.06178881973028183, -0.058980312198400497, -0.027923773974180222, -0.058100007474422455, 0.046929389238357544, 0.062164485454559326, 0.050404917448759079, -0.068774990737438202, 0.022352524101734161, 0.046328358352184296, -0.006232887040823698, 0.043892279267311096, -0.040862254798412323, 0.070744641125202179, 0.00043234459008090198, 0.02106669545173645, 0.073482312262058258, 0.013738580048084259, -0.0090451892465353012, 0.044652730226516724, 0.039662778377532959, 0.044364698231220245, -0.063861683011054993, 0.037872530519962311, 0.041685417294502258, -0.028700157999992371, -0.0051959729753434658, 0.06241433322429657, -0.041384313255548477, -0.069104820489883423, -0.068433240056037903, -0.065103396773338318, -0.057081371545791626, 0.045192692428827286, 0.0067513808608055115, 0.011505014263093472, -0.015424691140651703, -0.059626404196023941, -0.0069175385870039463, -0.013967452570796013, -0.015924660488963127, 0.0026024547405540943, 0.043368879705667496, 0.0074166608974337578, 0.050216779112815857, -0.032615642994642258, -0.045677840709686279, 0.025657568126916885, -0.00048513844376429915, 0.0068160607479512691, -0.015452970750629902, 0.026235349476337433, -0.052500169724225998, 0.0082758534699678421, 0.025859493762254715, -0.045626077800989151, -0.0075659360736608505, -0.036031745374202728, -0.029229655861854553, 0.044359106570482254, 0.045683491975069046, 0.003760151332244277, -0.05688060075044632, 5.8416662795934826e-05, 0.016638169065117836, -0.057352624833583832, -0.070210516452789307, -0.0049227406270802021, -0.071908347308635712, 0.0032719799783080816, 0.041771285235881805, 0.017493287101387978, 0.039871882647275925, -0.0031928587704896927, 0.053544111549854279, -0.022609120234847069, 0.031707700341939926, 0.0046565085649490356, -0.046885330229997635, 0.02198277972638607, -0.016842290759086609, -0.013793869875371456, -0.044135570526123047, 0.010590557940304279, 0.033620491623878479, 0.042386125773191452, -0.043445516377687454, -0.018733980134129524, 0.03200984001159668, 0.020767092704772949, 0.014554516412317753, -0.075169704854488373, 0.062847070395946503, 0.00051268667448312044, -0.041131269186735153, 0.0076659554615616798, -0.071470208466053009, -0.033299718052148819, -0.035796638578176498, 0.049881394952535629, 0.031716819852590561, 0.03572198748588562, -0.062540806829929352, 0.047801192849874496, -0.036776680499315262, -0.020493892952799797, 0.064131498336791992, -0.050231121480464935, 0.024818874895572662, -0.030877750366926193, -0.019194034859538078, 0.034772906452417374, -0.015850754454731941, 0.042114652693271637, -0.0054508666507899761, 0.020666632801294327, 0.036971781402826309, -0.07393316924571991, -0.05431678518652916, 0.07220931351184845, 0.038899283856153488, -0.0073682689107954502, -0.020074255764484406, 0.048445001244544983, 0.020813958719372749, 0.021728428080677986, -0.071744643151760101, -0.053354669362306595, 0.062651552259922028, 0.049820192158222198, 0.0023509289603680372, 0.037158112972974777, -0.036583054810762405, 0.023671379312872887, -0.050521876662969589, 0.064997479319572449, -0.049701031297445297, -0.013039563782513142, 0.032692153006792068, 0.040193881839513779, -0.046620473265647888, 0.044967245310544968, -0.048396416008472443, 0.061635762453079224, -0.05736967921257019, -0.0072631649672985077, -0.062910988926887512, -0.072806127369403839, -0.066141635179519653, -0.071256868541240692, -0.035842873156070709, 0.015456651337444782, -0.0070378552190959454, -0.025651859119534492, 0.0066070682369172573, -0.0077198348008096218, -0.019317802041769028, -0.056732762604951859, 0.058533854782581329, -0.006525824312120676, -0.067250408232212067, -0.066572539508342743, 0.045596696436405182, -0.0013121559750288725, -0.027010407298803329, -0.074392765760421753, -0.042046450078487396, 0.032275300472974777, 0.0011437777429819107, 0.066839829087257385, -0.057303328067064285, -0.038414623588323593, -0.052714329212903976, -0.072177037596702576, 0.027990298345685005, 0.011077448725700378, 0.052063129842281342, -0.057598810642957687, -0.017371753230690956, -0.016758624464273453, -0.067401394248008728, 0.007073765154927969, -0.069703973829746246, -0.038246035575866699, 0.066583260893821716, -0.071759514510631561, -0.064091138541698456, -0.02821686677634716, -0.043221645057201385, 0.020255099982023239, 0.020407063886523247, -0.040270615369081497, 0.051063328981399536, 0.065730638802051544, -0.044875290244817734, -0.052788246423006058, -0.063880361616611481, 0.04142848402261734, 0.018465762957930565, 0.015578386373817921, -0.02798539400100708, -0.0075503499247133732, -0.050741385668516159, -0.014548354782164097, 0.064687810838222504, -0.034548182040452957, 0.060886204242706299, 0.066985607147216797, 0.025388224050402641, -0.015204932540655136, 0.0034997297916561365, 0.064419873058795929, -0.031044987961649895, 0.036000669002532959, 0.031796436756849289, -0.073299713432788849, 0.02939208410680294, 0.023055654019117355, 0.051487717777490616, 0.022622793912887573, 0.0014781208010390401, 0.052329238504171371, -0.074814490973949432, -0.048416785895824432, 0.015835631638765335, -0.019652573391795158, -0.073755174875259399, -0.025676533579826355, -0.012918156571686268, 0.033616788685321808, -0.00029241130687296391, -0.048354681581258774, 0.01874774694442749, -0.046751488000154495, -0.0026367027312517166, 
  -0.073841534554958344, -0.005499628372490406, 0.061559379100799561, 0.0083239693194627762, -0.022239208221435547, 0.012027503922581673, 0.022445620968937874, 0.021263431757688522, 0.031845990568399429, 0.068004108965396881, -0.048224158585071564, 0.030855445191264153, 0.0092950956895947456, 0.012973723001778126, 0.044903814792633057, -0.040820963680744171, 0.057320307940244675, 0.036286737769842148, 0.074091389775276184, -0.04491746798157692, -0.013417525216937065, -0.010477097705006599, 0.057992499321699142, -0.015938453376293182, 0.036405652761459351, 0.034669589251279831, -0.013945087790489197, 0.052455957978963852, -0.019114285707473755, -0.055280841886997223, -0.012377224862575531, 0.067864269018173218, 0.063919149339199066, 0.071300193667411804, 0.050677251070737839, -0.023206686601042747, -0.05899873748421669, -0.0070577887818217278, 0.019298326224088669, -0.033455148339271545, -0.032205082476139069, -0.040967665612697601, 0.070599973201751709, 0.051233705133199692, 0.04163602739572525, -0.020273678004741669, 0.054265037178993225, -0.052652541548013687, 0.0057383524253964424, -0.00101186812389642, -0.068786010146141052, -0.010039146989583969, 0.0033611452672630548, -0.028212722390890121, -0.0093048829585313797, -0.074829086661338806, -0.071196936070919037, 0.058692730963230133, 0.060699537396430969, -0.060612428933382034, -0.014683055691421032, 0.048970848321914673, -0.03324691578745842, -0.012854959815740585, -0.018078098073601723, -0.0011665980564430356, 0.053637705743312836, -0.074566610157489777, 0.039590194821357727, -0.020691512152552605, 0.066008687019348145, -0.043294772505760193, 0.043929457664489746, -0.0047163646668195724, 0.010357296094298363, 0.060648884624242783, -0.022442052140831947, -0.041127506643533707, -0.0047541786916553974, 0.066464871168136597, -0.0097756227478384972, -0.074000515043735504, -0.037402831017971039, -0.0014327068347483873, 0.033372510224580765, 0.0053835944272577763, -0.01582755520939827, -0.053800135850906372, 0.013891848735511303, -0.017644533887505531, 0.02311721071600914, 0.022031234577298164, 0.066416673362255096, 0.015612187795341015, 0.0021439942065626383, 0.040770456194877625, -0.035907257348299026, -0.061255700886249542, 0.012372513301670551, -0.065964557230472565, 0.015754304826259613, 0.069683365523815155, -0.00055745162535458803, -0.011082807555794716, -0.051040895283222198, 0.034333549439907074, 0.052621297538280487, -0.04837823286652565, -0.014700239524245262, -0.014401303604245186, -0.023141425102949142, -0.065717108547687531, 0.072905972599983215, 0.021326478570699692, -0.022341959178447723, 0.06384093314409256, 0.018614286556839943, 0.015063988976180553, -0.056213252246379852, -0.050504259765148163, 0.01818523183465004, -0.069126643240451813, -0.023001609370112419, -0.037759795784950256, 0.034493438899517059, -0.0053541394881904125, -0.0030000731348991394, 0.027834180742502213, -0.060473576188087463, 0.068087577819824219, -0.026701284572482109, -0.022147584706544876, 0.044854629784822464, -0.0225934237241745, 0.068538784980773926, 0.044567294418811798, -0.048156369477510452, -0.022468065842986107, -0.012471490539610386, 0.046654954552650452, -0.069294311106204987, 0.011641260236501694, -0.009546259418129921, -0.032445516437292099, 0.0040144594386219978, 0.046207398176193237, 0.044793374836444855, 0.034506022930145264, -0.030075458809733391, -0.047256242483854294, -0.034911692142486572, -0.026570279151201248, -0.034166589379310608, -0.028817253187298775, -0.028319668024778366, 0.05243365466594696, 0.045822605490684509, 0.068969152867794037, -0.051504239439964294, -0.034431960433721542, -0.043685287237167358, -0.058959212154150009, 0.041191168129444122, -0.032010879367589951, -0.059175591915845871, -0.021672006696462631, -0.054372824728488922, 0.012221329845488071, -0.063312232494354248, -0.018813375383615494, -0.014616950415074825, -0.045330189168453217, 0.032488320022821426, -0.024733874946832657, -0.012420398183166981, 0.046351347118616104, 0.039978563785552979, -0.023432577028870583, -0.03942553699016571, -0.043322905898094177, -0.056926865130662918, 0.020262708887457848, 0.024913938716053963, 0.025374455377459526, -0.015035630203783512, 0.062353421002626419, -0.0041474099270999432, -0.015059499070048332, 0.04564603790640831, 0.071052417159080505, 0.058213595300912857, 0.034346513450145721, 0.055494584143161774, 0.064395904541015625, -0.0084564676508307457, 0.014591789804399014, -0.041052605956792831, -0.063162609934806824, -0.061936154961585999, 0.064746610820293427, 0.052300423383712769, -0.027641639113426208, -0.060206208378076553, 0.0072070634923875332, -0.040814857929944992, 0.010285950265824795, 0.041488964110612869, 0.065279550850391388, 0.038263797760009766, 0.054037168622016907, -0.038863591849803925, -0.012875496409833431, 0.0017472180770710111, -0.0063430997543036938, -0.05689394474029541, 0.0027520242147147655, 0.022426379844546318, 0.026593497022986412, -0.0029994032811373472, -0.051778018474578857, -0.062303118407726288, -0.060952648520469666, 0.030224781483411789, -0.031210988759994507, 0.026773661375045776, 0.061703335493803024, -0.018721083179116249, -0.015308801084756851, -0.031017472967505455, -0.061577729880809784, 0.074290990829467773, 0.05416552722454071, 0.060406953096389771, 0.04170563817024231, -0.045867174863815308, -0.040888532996177673, 0.0048907073214650154, -0.003890917869284749, -0.0081813205033540726, 0.0010486131068319082, -0.065242201089859009, 0.042165149003267288, 0.016417084261775017, 0.075857542455196381, -0.0070655201561748981, -0.010499195195734501, -0.0016873741988092661, -0.057966537773609161, 0.024348529055714607, 0.063732974231243134, 0.031571343541145325, -0.043287534266710281, 0.0061922105960547924, 0.019652752205729485, 0.076695464551448822, 0.026629505679011345, -0.024943236261606216, -0.003033114830031991, -0.055450849235057831, 0.043150324374437332, -0.07516748458147049, -0.026850221678614616, 0.064958222210407257, -0.047212466597557068, 0.041637085378170013, -0.02767222560942173, -0.073411956429481506, -0.015159252099692822, 0.062906228005886078, -0.064796522259712219, -0.044096753001213074, -0.022341288626194, 0.042292062193155289, 0.03531453013420105, 0.070333682000637054, -0.066484756767749786, 0.046134129166603088, -0.0020568245090544224, 0.022579619660973549, -0.0094402311369776726, -0.050979346036911011, -0.045572992414236069, 0.0086796069517731667, 0.019387146458029747, 0.019024811685085297, -0.026992851868271828, 0.027789577841758728, -0.074507683515548706, 0.069501593708992004, -0.06191181018948555, 0.011809888295829296, -0.029284240677952766, -0.021852545440196991, 0.017638478428125381, -0.019328916445374489, -0.0012707809219136834, -0.019601784646511078, 0.0038776693399995565, 0.037530865520238876, 0.0034090997651219368, 0.062646381556987762, 0.00031696108635514975, -0.027564255520701408, -0.0069388169795274734, 0.0074329446069896221, -0.016904754564166069, -0.044312771409749985, -0.024872403591871262, -0.068714916706085205, 0.024083077907562256, 0.014297107234597206, 0.048640921711921692, 0.06139446422457695, -0.066296406090259552, 0.065874099731445312, -0.025427879765629768, 0.054155714809894562, 0.070329472422599792, 0.010871282778680325, 0.0067206239327788353, -0.021283363923430443, 0.063296020030975342, 0.018208852037787437, -0.067737296223640442, 0.056958179920911789, -0.0077156848274171352, 0.013442341238260269, -0.029541017487645149, 0.047850284725427628, -0.012194329872727394, -0.036394290626049042, -0.027856970205903053, -0.011374128051102161, 0.069154322147369385, 0.043696187436580658, 0.064092233777046204, -0.028988262638449669, 0.0079270405694842339, 0.053917322307825089, -0.051876019686460495, 0.058817341923713684, 0.050060868263244629, -0.0098581071943044662, 0.030716393142938614, 0.015309697017073631, 0.024940827861428261, 0.011879962868988514, -0.056832417845726013, -0.057678118348121643, -0.068712696433067322, 0.07151959091424942, 0.034064959734678268, 0.053617890924215317, 0.02573089674115181, 0.055781584233045578, -0.029712360352277756, -0.024579249322414398, -0.073255442082881927, -0.059388633817434311, -0.018761849030852318, -0.066787101328372955, 0.020812802016735077, 0.067283853888511658, 0.038830641657114029, -0.032331816852092743, 0.073274239897727966, 0.021910229697823524, 0.064525827765464783, -0.070111393928527832, -0.02970014326274395, -0.043168429285287857, -0.0030591615941375494, 0.037567712366580963, 0.027183646336197853, -0.01552096102386713, 0.044123422354459763, -0.074759095907211304, -0.069849014282226562, 0.045653555542230606, 0.0084727751091122627, -0.063384421169757843, 0.051948737353086472, -0.035010244697332382, 0.06883472204208374, 0.040576152503490448, -0.015781525522470474, -0.0074772899970412254, -0.029282879084348679, -0.047470781952142715, 0.050140693783760071, -0.036531638354063034, -0.025869959965348244, -0.027963263913989067, -0.050290640443563461, 0.049204889684915543, -0.013812188059091568, 0.072486720979213715, 0.055626757442951202, -0.024475464597344398, -0.061834476888179779, 0.017719699069857597, 0.01531492080539465, -0.046628434211015701, -0.014845006167888641, 0.0035006946418434381, 0.048883918672800064, -0.0015382202109321952, -0.028779737651348114, -0.030069876462221146, -0.047318641096353531, 0.067534774541854858, -0.039852578192949295, -0.056283298879861832, 0.071151599287986755, -0.07417653501033783, -0.03415437787771225, -0.0078392643481492996, -0.043963652104139328, -0.058624878525733948, -0.039522130042314529, -0.017523707821965218, 0.049474198371171951, 0.062890738248825073, -0.065597318112850189, 0.0031373761594295502, -0.048016708344221115, -0.031936682760715485, 0.047981273382902145, -0.001709357718937099, -0.035773470997810364, 0.047729767858982086, -0.026460856199264526, -0.042370133101940155, -0.029082408174872398, 0.06312793493270874, -0.070004716515541077, 0.019783642143011093, -0.015137167647480965, 0.047141384333372116, 0.053043816238641739, 0.041872330009937286, -0.019793810322880745, -0.010428600944578648, 0.062117684632539749, 0.03520873561501503, 0.033686548471450806, 0.043038897216320038, 0.044222038239240646, 0.0055115488357841969, 0.052618574351072311, 0.016659349203109741, -0.0055901864543557167, 0.036741800606250763, -0.064540334045886993, 0.038642745465040207, 0.048612084239721298, -0.018464837223291397, 0.038043748587369919, 0.047067239880561829, 0.047800954431295395, 0.020846091210842133, 0.018346918746829033, 0.0079348478466272354, 0.073062606155872345, -0.00052675924962386489, -0.061449870467185974, -0.026952695101499557, 0.044126763939857483, 0.028348967432975769, -0.060730632394552231, -0.059785809367895126, 0.061097960919141769, -0.014646353200078011, 0.073355451226234436, -0.033358089625835419, 0.037128467112779617, 0.05250297486782074, -0.045378252863883972, 0.0028153620660305023, 0.06911090761423111, 0.029809856787323952, -0.021728204563260078, 0.016418738290667534, -0.068382643163204193, 0.030970064923167229, 0.0010176146170124412, -0.05733528733253479, 0.045383412390947342, 0.0097819780930876732, 0.07248213142156601, -0.023029090836644173, -0.015243303030729294, 0.034173749387264252, -0.035707123577594757, -0.046143505722284317, 0.0032788841053843498, 0.043372135609388351, -0.014692967757582664, -0.05895654484629631, -0.027651324868202209, -0.055605940520763397, 0.015047862194478512, -0.0048351115547120571, -0.020419497042894363, 0.00090783432824537158, 0.07358415424823761, 0.055831369012594223, 0.073936596512794495, -0.046870071440935135, 0.02653842605650425, -0.055049609392881393, 0.011652536690235138, -0.067047059535980225, 0.068192243576049805, 0.070041060447692871, -0.0053417379967868328, -0.0036749949213117361, 0.022381935268640518, -0.046988584101200104, 0.073081649839878082, 0.024742769077420235, -0.03595651313662529, 0.0021317193750292063, 0.0087958462536334991, -0.026505861431360245, -0.065124250948429108, 0.02588285505771637, 0.042092062532901764, -0.060508754104375839, 0.056612346321344376, -0.004979137796908617, -0.048742908984422684, 0.021130846813321114, -0.039443362504243851, -0.062180399894714355, -0.038119148463010788, -0.062615379691123962, -0.055931929498910904, -0.038573000580072403, 0.032838687300682068, 0.031272176653146744, 0.036568682640790939, -0.03597673773765564, 0.061498355120420456, -0.066085077822208405, 0.056405927985906601, -0.013602624647319317, 0.0063779242336750031, 0.028587449342012405, 0.0033288949634879827, 0.043196998536586761, -0.041080106049776077, -0.063865154981613159, 0.025657573714852333, 0.029521329328417778, 0.042832881212234497, -0.0097306342795491219, 0.069139301776885986, -0.017886033281683922, -0.024470780044794083, -0.02550036832690239, 0.021052757278084755, -0.041617158800363541, -0.023998865857720375, -0.010092794895172119, 0.018056116998195648, 0.027593757957220078, 0.014105560258030891, -0.056261707097291946, -0.0049287662841379642, 0.057365790009498596, -0.0020817210897803307, 0.067614234983921051, 0.024548230692744255, 0.062466014176607132, -0.018645716831088066, -0.028679825365543365, 0.031534191220998764, 0.049058627337217331, 0.06573842465877533, 0.064835846424102783, -0.04763055220246315, -0.021195866167545319, -0.016473263502120972, 0.068498797714710236, 0.050760325044393539, -0.041505247354507446, -0.0092047601938247681, -0.02488214522600174, -0.073430821299552917, -0.02677384577691555, -0.054009534418582916, -0.065252549946308136, 0.0020497459918260574, 0.042404461652040482, 0.035061832517385483, 0.021127544343471527, -0.058169510215520859, -0.069637514650821686, -0.051110181957483292, 0.018161976709961891, -0.01256196852773428, -0.052078139036893845, 0.053680349141359329, -0.068012811243534088, 0.015946689993143082, 0.061114281415939331, -0.0034265527501702309, -0.049928773194551468, -0.0079055959358811378, 0.036198277026414871, 0.018137291073799133, 0.049681305885314941, -0.013964840210974216, 0.059458319097757339, -0.0022596516646444798, 0.026331311091780663, -0.016798451542854309, 0.062009692192077637, -0.048928294330835342, -0.035021722316741943, -0.0027948704082518816, 0.062001984566450119, -0.026178810745477676, -0.016256069764494896, 0.010793060064315796, 0.0084466058760881424, 0.046943921595811844, -0.070322461426258087, 0.067158892750740051, -0.033141795545816422, -0.025673111900687218, 0.041401874274015427, -0.076024949550628662, 0.066544666886329651, 0.0013703423319384456, 0.011773400008678436, 0.064702950417995453, -0.074446782469749451, 0.029603777453303337, -0.0017358401091769338, -0.054324079304933548, 0.060212884098291397, -0.055216919630765915, -0.034230396151542664, -0.0014890591846778989, 0.039942372590303421, -0.029076024889945984, 0.055771682411432266, -0.070592686533927917, 0.059025201946496964, -0.025124136358499527, -0.0034679051022976637, -0.040852900594472885, -0.011944972909986973, 0.0093848239630460739, 0.059421692043542862, -0.071406275033950806, 0.058430362492799759, -0.067353673279285431, -0.020115457475185394, -0.068477444350719452, 0.025525685399770737, -0.015141117386519909, 0.044861175119876862, 0.020538775250315666, -0.017003420740365982, -0.03427322581410408, -0.039346490055322647, 0.0067747281864285469, 0.04862549901008606, -0.0059357048012316227, 0.067753605544567108, 0.02927553653717041, -0.062578611075878143, 0.071026228368282318, -0.058669578284025192, -0.027275137603282928, 0.023062601685523987, -0.052071116864681244, -0.020579012110829353, 0.027279779314994812, -0.012929195538163185, -0.041343122720718384, -0.014207495376467705, 0.050146777182817459, -0.065241314470767975, 0.064812749624252319, -0.0041292835958302021, 0.026521673426032066, 0.06000029668211937, 0.061821278184652328, 0.027393290773034096, -0.034495946019887924, -0.011501221917569637, -0.06135568767786026, -0.042572002857923508, 0.0063236262649297714, -0.0094382120296359062, 0.032841980457305908, 0.00039335968904197216, 0.017051083967089653, -0.0070686079561710358, -0.051734495908021927, 0.012386246584355831, -0.05177672952413559, 0.056448139250278473, 0.062607541680335999, 0.055365409702062607, 0.070804893970489502, 0.033148638904094696, -0.04102686420083046, 0.024660572409629822, -0.040703091770410538, 0.0021703343372792006, -0.010452768765389919, -0.056583572179079056, 0.0040476135909557343, 0.030922641977667809, -0.062924094498157501, -0.034149888902902603, -0.022240042686462402, -0.045383863151073456, -0.054023824632167816, -0.026641694828867912, 0.0052536730654537678, -0.0034198930952697992, -0.016303978860378265, -0.020591406151652336, 0.05962158739566803, -0.014699871651828289, 0.040096703916788101, -0.0047034570015966892, 0.021802924573421478, 0.032819245010614395, -0.036343879997730255, -0.0057965097948908806, -0.043702080845832825, -0.023382453247904778, -0.061860911548137665, -0.036847084760665894, 0.073163442313671112, -0.06585625559091568, -0.04161391407251358, 0.070897936820983887, -0.00036797471693716943, 0.070046879351139069, -0.012131675146520138, 0.072878457605838776, -0.025872845202684402, -0.046679895371198654, 0.022440286353230476, -0.010377636179327965, -0.059608820825815201, -0.020659860223531723, 0.020064570009708405, -0.05363747850060463, 0.046648573130369186, -0.048620034009218216, -0.076486282050609589, -0.07162870466709137, 0.040463633835315704, -0.030942082405090332, 0.052795641124248505, -0.070082716643810272, 0.068679921329021454, -0.0081576583907008171, -0.039073485881090164, -0.052279792726039886, 0.073545150458812714, -0.048878617584705353, -0.025936497375369072, -0.018324295058846474, 0.069682635366916656, 0.0066809658892452717, -0.032755360007286072, 0.042426824569702148, 0.044095363467931747, 0.070220001041889191, 0.061623312532901764, -0.071911633014678955, 0.047076761722564697, 0.028779204934835434, -0.068801060318946838, -0.027380382642149925, -0.057764120399951935, 0.069320730865001678, -0.029515739530324936, 0.032241664826869965, 0.031496021896600723, -0.037578985095024109, -0.044300146400928497, 0.033358760178089142, -0.071519985795021057, 0.0082656554877758026, -0.05109700933098793, 0.04542165994644165, -0.057203676551580429, -0.00026786833768710494, 0.033323012292385101, -0.011495151557028294, -0.056797832250595093, 0.012180792167782784, -0.050495833158493042, -0.015924206003546715, 0.025618162006139755, 0.067788735032081604, 0.028848515823483467, 0.012828321196138859, 0.049681954085826874, 0.030632628127932549, -0.045941006392240524, -0.07247481495141983, 0.015342891216278076, 0.037976428866386414, 0.033859413117170334, 0.071429170668125153, 0.01306547038257122, -0.05338737741112709, 0.071132197976112366, -0.054399345070123672, 0.060662973672151566, 0.039041131734848022, 0.050968129187822342, 0.0060942010022699833, -0.057713765650987625, -0.054184477776288986, 0.039406538009643555, 0.044966559857130051, -0.028317840769886971, -0.020346648991107941, 0.034942060708999634, 0.023092662915587425, -0.014925800263881683, 0.024806054309010506, -0.050010628998279572, -0.016978150233626366, -0.026146892458200455, -0.053658217191696167, 0.034986119717359543, 0.043993651866912842, 0.020263276994228363, 0.03489048033952713, -0.027521481737494469, 0.057874228805303574, 0.013921003788709641, 0.068126454949378967, 0.02485976554453373, -0.027837477624416351, -0.045708801597356796, -0.014704950153827667, -0.029341207817196846, 0.067446969449520111, 0.069827146828174591, -0.018905941396951675, -0.049522053450345993, -0.052733279764652252, -0.03113592229783535, 0.025243887677788734, 0.024877509102225304, -0.01465814933180809, -0.041026785969734192, -0.014481492340564728, 0.0077039282768964767, -0.064152538776397705, -0.038076844066381454, 0.064041011035442352, 0.035955339670181274, -0.044054429978132248, -0.05925590917468071, 0.068454861640930176, 0.013750222511589527, 0.034003134816884995, 0.044311292469501495, -0.051782984286546707, -0.056810017675161362, -0.046587567776441574, 0.049106255173683167, 0.0014245262136682868, 0.010252874344587326, -0.060054894536733627, 0.03254510834813118, 0.040026560425758362, 0.029438355937600136, -0.018967047333717346, -0.025786036625504494, 0.024216210469603539, -0.012825630605220795, -0.07353644073009491, 0.02026468887925148, -0.06725534051656723, -0.061515428125858307, 0.03762604296207428, -0.043803617358207703, 0.073075629770755768, 0.041589628905057907, 0.014430767856538296, -0.023524772375822067, -0.013117639347910881, 0.0067633818835020065, -0.056492537260055542, -0.036668684333562851, -0.0064394623041152954, 0.0090854121372103691, -0.05958876758813858, 0.003208262613043189, -0.035607252269983292, 0.064389139413833618, 0.021931217983365059, -0.051122795790433884, -0.044715382158756256, -0.063395299017429352, 0.049573056399822235, 0.053254790604114532, -0.033284030854701996, -0.0022661287803202868, -0.012963035143911839, -0.021128276363015175, 0.0075297369621694088, 0.048551458865404129, -0.025735452771186829, 0.021926548331975937, -0.014911245554685593, -0.064007207751274109, -0.046516433358192444, -0.023355072364211082, -0.060765910893678665, -0.00055808480829000473, -0.034842498600482941, -0.037107896059751511, 0.0010877017630264163, -0.041797667741775513, -0.046218063682317734, 0.0025539337657392025, 0.028481598943471909, -0.024958586320281029, 0.030837494879961014, -0.039361219853162766, -0.0038348846137523651, -0.047766197472810745, -0.0074997376650571823, -0.073283180594444275, 0.01195056177675724, 0.038540944457054138, 0.056796498596668243, 0.0004596902581397444, 0.05273117870092392, -0.049365732818841934, 0.011251242831349373, 0.074834570288658142, 0.030142152681946754, -0.066588088870048523, -0.014230917207896709, -0.016012223437428474, 0.030377417802810669, 0.06859879195690155, 0.006875898689031601, 0.0672297403216362, -0.025977859273552895, 0.067785441875457764, 0.0040980014018714428, -0.053587131202220917, -0.019671548157930374, -0.053300991654396057, 0.019554324448108673, 0.017962448298931122, 0.072349563241004944, 0.017472896724939346, 0.054057430475950241, -0.0713634192943573, 0.04566405713558197, -0.044184569269418716, 0.058889564126729965, 0.062284473329782486, -0.020607749000191689, 0.070709742605686188, -0.046110067516565323, 0.026285404339432716, 0.049841638654470444, -0.039849001914262772, 0.065947674214839935, 0.062901459634304047, 0.0083251930773258209, -0.071212694048881531, -0.025324799120426178, -0.054194819182157516, 0.027495721355080605, -0.019035356119275093, -0.024518523365259171, -0.021081080660223961, 0.072223909199237823, 0.035396810621023178, -0.03952552005648613, -0.055153936147689819, 0.04856104776263237, -0.029574085026979446, -0.042863365262746811, -0.03486773744225502, -0.005890310276299715, -0.024680742993950844, 0.015399478375911713, -0.03329174593091011, 0.012841828167438507, -0.047822222113609314, -0.00640477379783988, 0.037505548447370529, 0.012400006875395775, -0.040169920772314072, 0.063652098178863525, -0.037647116929292679, 0.03954726830124855, -0.016481194645166397, -0.059127777814865112, -0.055894933640956879, -0.030442291870713234, -0.069129578769207001, 0.07446897029876709, 0.055989030748605728, 0.018906310200691223, 0.038469821214675903, -0.015080351382493973, 0.047647789120674133, -0.0093948096036911011, -0.070418514311313629, 0.019899766892194748, -0.041595935821533203, -0.031838230788707733, 0.032725270837545395, 0.052373889833688736, 0.024331139400601387, 0.036033239215612411, -0.03404591977596283, -0.048252705484628677, -0.015686826780438423, 0.01827348954975605, -0.017096923664212227, -0.040390308946371078, -0.0029955757781863213, -0.016446975991129875, 0.049265254288911819, 0.062064763158559799, -0.0075466134585440159, -0.041729304939508438, 0.029318680986762047, 
  0.049138356000185013, -0.0030982962343841791, -0.064679481089115143, -0.050487581640481949, 0.034530274569988251, -0.042453285306692123, 0.04250098392367363, 0.060404229909181595, 0.065990649163722992, -0.0076487236656248569, -0.059449225664138794, 0.0076445108279585838, -0.055009935051202774, 0.034599699079990387, -0.046107564121484756, 0.05092402920126915, 0.021816335618495941, 0.040527034550905228, -0.00047729004290886223, 0.028853751718997955, 0.072003036737442017, -0.066837131977081299, 0.042970456182956696, -0.05582120269536972, 0.01163946371525526, -0.017787203192710876, 0.067980341613292694, 0.036102555692195892, -0.038711443543434143, -0.059333346784114838, -0.038056544959545135, 0.048406250774860382, 0.035166651010513306, -0.056571681052446365, -0.017858207225799561, -0.028299212455749512, -0.066243834793567657, -0.006088456604629755, 0.0377839095890522, -0.059621676802635193, 0.034002169966697693, 0.033985711634159088, -0.071207322180271149, -0.015617149882018566, 0.023994935676455498, -0.015642827376723289, -0.043339107185602188, -0.060784224420785904, 0.019777201116085052, -0.021205298602581024, 0.038194160908460617, -0.018887605518102646, -0.016820602118968964, -0.0041268477216362953, 0.031827826052904129, -0.066855505108833313, 0.0038156039081513882, 0.0064944317564368248, 0.0066255899146199226, -0.020459504798054695, 0.067175358533859253, -0.027721045538783073, -0.0091522149741649628, 0.013147765770554543, -0.017277071252465248, 0.047872055321931839, 0.016174176707863808, -0.04272763803601265, -0.024543745443224907, -0.027868321165442467, -0.0059970999136567116, -0.072830505669116974, 0.0052746869623661041, 0.060130376368761063, -0.015884213149547577, -0.067365050315856934, -0.068640865385532379, 0.034967988729476929, -0.042552776634693146, -0.049755629152059555, 0.023782320320606232, -0.046840175986289978, 0.020984362810850143, -0.0061811953783035278, 0.0012181268539279699, 0.0083757815882563591, -0.021851465106010437, -0.0072742407210171223, -0.064947031438350677, -0.0058884327299892902, -0.057014517486095428, 0.058058492839336395, 0.011802997440099716, -0.027226600795984268, 0.072039641439914703, 0.044915571808815002, 0.018889972940087318, 0.033579852432012558, 0.020156931132078171, 0.017941750586032867, -0.073623396456241608, -0.068354859948158264, -0.041834909468889236, -0.05045023187994957, 0.036050856113433838, -0.026147421449422836, 0.067876338958740234, 0.052888661623001099, 0.0061903828755021095, -0.014888330362737179, -0.035724613815546036, 0.037187244743108749, 0.0073404605500400066, -0.059938300400972366, -0.047840405255556107, -0.062923535704612732, 0.031268209218978882, 0.073009751737117767, -0.018545748665928841, 0.02578459121286869, -0.044887024909257889, 0.050859041512012482, 0.068050377070903778, -0.080013282597064972, 0.057380121201276779, 0.05200282484292984, 0.015275170095264912, 0.04411131888628006, -0.07239580899477005, -0.0095102423802018166, 0.033445686101913452, -0.050987709313631058, 0.0095236068591475487, 0.028645738959312439, 0.030011029914021492, 0.029956076294183731, -0.040460538119077682, 0.050614748150110245, 0.037651620805263519, 0.021840818226337433, -0.012673729099333286, 0.055594995617866516, 0.060000810772180557, 0.067124523222446442, -0.059393402189016342, 0.005000624805688858, -0.061624027788639069, 0.0066625168547034264, -0.029759913682937622, 0.0092666605487465858, 0.027861917391419411, -0.041483279317617416, -0.029134519398212433, 0.0051159355789422989, 0.02580726146697998, 0.070432305335998535, 0.034759607166051865, -0.029299397021532059, 0.054036114364862442, -0.058524508029222488, -0.0022291855420917273, 0.041261199861764908, 0.006962592713534832, 0.055740974843502045, -0.015030952170491219, -0.055877044796943665, -0.043885793536901474, -0.020448412746191025, -0.036535337567329407, -0.020824635401368141, -0.069047696888446808, -0.032130371779203415, -0.0074591226875782013, -0.080117084085941315, -0.03311050683259964, 0.0052384966984391212, 0.033581845462322235, -0.037818979471921921, -0.048194602131843567, -0.07608707994222641, 0.03855065256357193, -0.060548916459083557, -0.011592576280236244, 0.059211991727352142, -0.049069233238697052, 0.0044341669417917728, 0.027786200866103172, -0.012433790601789951, 0.028767196461558342, -0.058399535715579987, -0.0039573842659592628, 0.006562807597219944, -0.035600721836090088, 0.055974427610635757, -0.011355304159224033, -0.056856598705053329, 0.0046791592612862587, -0.071339301764965057, -0.064520835876464844, -0.011299677193164825, 0.05783405527472496, -0.013200285844504833, 0.0020405852701514959, -0.029881525784730911, -0.074525691568851471, -0.068033158779144287, 0.0093559790402650833, -0.0027248924598097801, -0.083532840013504028, 0.050297122448682785, 0.042278770357370377, -0.084929220378398895, -0.039362870156764984, -0.038089800626039505, 0.036904316395521164, 0.019276674836874008, -0.076509915292263031, 0.04064110666513443, 0.05180848017334938, -0.082591526210308075, -0.015926435589790344, 0.0046950983814895153, 0.025804217904806137, -0.041903577744960785, -0.056711636483669281, -0.003316979855298996, -0.0037717507220804691, -0.083486363291740417, -0.06108248233795166, -0.025582838803529739, -0.0092395422980189323, 0.015829106792807579, -0.040986873209476471, 0.00076795660424977541, 0.061962403357028961, -0.012737870216369629, 0.035415664315223694, -0.0018819674151018262, 0.040949806571006775, -0.055371645838022232, -0.064046598970890045, 0.056543242186307907, -0.078986436128616333, -0.033525943756103516, 0.0060837958008050919, -0.078086048364639282, -0.005262917373329401, -0.011540450155735016, 0.052138924598693848, -0.039242271333932877, 0.0048904586583375931, 0.032362323254346848, 0.051021326333284378, -0.043147951364517212, 0.03180357813835144, -0.046748358756303787, -0.070333153009414673, 0.049059875309467316, -0.086396992206573486, -0.068475067615509033, 0.02006819099187851, -0.049960006028413773, -0.0033300721552222967, -0.063425697386264801, -0.030730746686458588, 0.05757204070687294, 0.049975339323282242, -0.030843423679471016, 0.029746571555733681, 0.026504643261432648, 0.028624618425965309, 0.028329577296972275, 0.050321158021688461, -0.0078814197331666946, 0.0052500260062515736, 0.0049205357208848, -0.019372591748833656, -0.02550969086587429, -0.049249358475208282, -0.034582674503326416, 0.046723414212465286, -0.035054966807365417, -0.029538674280047417, 0.025490742176771164, -0.041387014091014862, 0.0049286098219454288, 0.018320435658097267, -0.051030062139034271, 0.045370783656835556, -0.069945961236953735, -0.02582874521613121, -0.059417173266410828, 0.072751812636852264, 0.074066139757633209, 0.062535837292671204, -0.019901130348443985, 0.058445274829864502, -0.033676136285066605, 0.046258457005023956, -0.051341533660888672, 0.056996051222085953, 0.049334011971950531, 0.022118072956800461, -0.051900234073400497, -0.0033449307084083557, -0.03333934023976326, 0.0060237627476453781, -0.023743202909827232, 0.068377703428268433, 0.011281209066510201, -0.03796086460351944, 0.059384457767009735, -0.044213209301233292, 0.01225068885833025, 0.064086362719535828, -0.0039555975235998631, 0.069005504250526428, 0.075103208422660828, -0.0102048609405756, 0.061827607452869415, 0.0041663171723484993, -0.058544982224702835, 0.0039783567190170288, 0.072349302470684052, 0.053332433104515076, 0.069554202258586884, -0.071261480450630188, 0.014752172864973545, -0.042630035430192947, 0.032787371426820755, 0.027829684317111969, 0.017255842685699463, 0.020112823694944382, -0.026869591325521469, -0.029657270759344101, 0.036109898239374161, -0.04546806588768959, -0.021878922358155251, -0.0077394968830049038, -0.033090919256210327, 0.064475946128368378, 0.066271021962165833, -0.012333353981375694, -0.045637469738721848, 0.062076970934867859, 0.065303392708301544, 0.03158525750041008, -0.061063405126333237, 0.042847286909818649, 0.067011013627052307, 0.030847083777189255, 0.01006469689309597, 0.059288680553436279, -0.063060902059078217, -0.042513187974691391, -0.032732505351305008, -0.038391117006540298, 0.033511489629745483, 0.0635480135679245, -0.049920704215764999, -0.052519060671329498, -0.023349398747086525, 0.0065871700644493103, 0.075448229908943176, -0.036912530660629272, 0.068839386105537415, -0.01821243017911911, -0.06168505921959877, -0.025829631835222244, -0.044807154685258865, 0.0073708919808268547, -0.013375597074627876, -0.065600745379924774, -0.042650874704122543, -0.01670617051422596, -0.017448185011744499, -0.065937533974647522, -0.042515646666288376, -0.069453403353691101, -0.024643490090966225, 0.012868522666394711, -0.029302245005965233, -0.038600675761699677, 0.013247363269329071, -0.037205338478088379, -0.05450836569070816, -0.042824313044548035, -0.038573656231164932, -0.026257758960127831, 0.05200498178601265, -0.064160697162151337, 0.016798418015241623, -0.049373101443052292, 0.018496079370379448, -0.028592493385076523, 0.063213832676410675, 0.062902830541133881, 0.027824537828564644, -0.01364500354975462, -0.049545824527740479, 0.043581090867519379, -0.071221470832824707, 0.050549853593111038, 0.04926622286438942, 0.068912878632545471, -0.014708530157804489, 0.062928847968578339, 0.0029543112032115459, -0.018663819879293442, 0.035017054527997971, -0.01954522542655468, 0.042074616998434067, -0.077264308929443359, 0.044811435043811798, 0.040322653949260712, -0.017146870493888855, -0.038632798939943314, 0.0058101946488022804, -0.013246494345366955, -0.065332382917404175, 0.063199810683727264, -0.043734587728977203, -0.033177703619003296, -0.051985491067171097, 0.0073663285002112389, -0.023469703271985054, 0.013286084868013859, -0.069610506296157837, 0.029328919947147369, 0.053102266043424606, -0.017148617655038834, -0.072615288197994232, -0.0036605766508728266, -0.067515552043914795, 0.071165837347507477, -0.007864195853471756, -0.0063585513271391392, -0.074021145701408386, -0.014138306491076946, -0.02977912500500679, -0.058677643537521362, 0.0012873007217422128, 0.072660878300666809, -0.038055460900068283, -0.022432362660765648, 0.048379939049482346, -0.014354499988257885, -0.023926883935928345, -0.026029292494058609, 0.059212539345026016, -0.0040581426583230495, -0.030243093147873878, -0.017684651538729668, 0.060225337743759155, -0.0040557486936450005, -0.05334743857383728, -0.001318330061621964, 0.012018085457384586, 0.0020054350607097149, 0.034032762050628662, 0.038300003856420517, 0.02288517914712429, 0.009843338280916214, -0.033409275114536285, -0.025737244635820389, 0.033951699733734131, 0.041197340935468674, 0.03766019269824028, 0.057825010269880295, 0.00448578130453825, -0.026379641145467758, -0.0042471024207770824, -0.069296911358833313, -0.0088858632370829582, -0.040278729051351547, -0.045328754931688309, -0.027125446125864983, 0.04008932039141655, -0.0073566618375480175, -0.073677927255630493, -0.042055469006299973, -0.062499869614839554, 0.027776656672358513, 0.039238490164279938, -0.010630687698721886, 0.036276396363973618, -0.020838648080825806, 0.035049788653850555, 0.021484987810254097, -0.071673519909381866, 0.045133937150239944, -0.032545845955610275, 0.044229790568351746, 0.060539897531270981, 0.043159656226634979, 0.049375269562005997, 0.049931064248085022, -0.06280411034822464, 0.067786052823066711, 0.015961276367306709, 0.0083810659125447273, -0.065934635698795319, -0.030187938362360001, 0.032754350453615189, 0.026877732947468758, -0.055721886456012726, 0.032433595508337021, 0.055921580642461777, 0.035221531987190247, 0.0099089918658137321, 0.023179711773991585, -0.079398579895496368, 0.04137757420539856, 0.032538749277591705, 0.066059745848178864, 0.013368778862059116, -0.019030449911952019, -0.03747902438044548, 0.03375471755862236, -0.038919858634471893, -0.0041100499220192432, -0.04085010290145874, -0.058212820440530777, -0.065560884773731232, 0.067485630512237549, -0.064271368086338043, 0.012466173619031906, 0.027693385258316994, 0.04867611825466156, 0.014906655997037888, -0.050522435456514359, 0.0057803550735116005, 0.031551539897918701, -0.070697344839572906, 0.064402669668197632, -0.0018104943446815014, 0.0065076029859483242, -0.069596566259860992, -0.034584742039442062, -0.065621748566627502, -0.020120235159993172, 0.060064081102609634, 0.047163039445877075, 0.063881881535053253, 0.00014029158046469092, -0.01227018516510725, -0.048930816352367401, -0.036152388900518417, -0.0032714796252548695, -0.038616839796304703, -0.067785091698169708, 0.056856226176023483, -0.048702552914619446, -0.05554087832570076, 0.024265553802251816, -0.026293570175766945, 0.075277112424373627, 0.027778876945376396, -0.0027341905515640974, 0.019294692203402519, -0.023319598287343979, -0.058211207389831543, -0.052263647317886353, -0.032319270074367523, -0.012736434116959572, -0.067878983914852142, -0.038558922708034515, 0.062938123941421509, 0.030170831829309464, 0.071915127336978912, 0.018718555569648743, -0.070476770401000977, 0.0062022055499255657, 0.040330465883016586, -0.034658756107091904, 0.0072968075983226299, -0.057990189641714096, 0.0034418448340147734, -0.057839464396238327, 0.068373262882232666, 0.027323631569743156, -0.038364097476005554, 0.011365578509867191, 0.014659110456705093, -0.0011318090837448835, 0.07373085618019104, 0.017336484044790268, 0.035255439579486847, -0.057721540331840515, -0.032444629818201065, -0.037449967116117477, -0.051531951874494553, 0.010909692384302616, -0.03936329111456871, -0.055818643420934677, 0.065133921802043915, -0.055067874491214752, -0.0072858836501836777, 0.01266840286552906, 0.040729127824306488, -0.050055734813213348, -0.029416918754577637, -0.051216132938861847, -0.013565481640398502, 0.053689628839492798, -0.016412800177931786, 0.063376814126968384, -0.046229898929595947, 0.068162843585014343, -0.052938699722290039, 0.044955484569072723, -0.056277856230735779, 0.02669205330312252, -0.06062079593539238, 0.07003108412027359, 0.0065260883420705795, -0.023474473506212234, 0.022492688149213791, 0.06406896561384201, -0.055646851658821106, 0.067434012889862061, 0.011230846866965294, -0.026323506608605385, 0.026347687467932701, -0.0037038198206573725, 0.036777164787054062, -0.010331900790333748, -0.045346125960350037, -0.054384864866733551, 0.036120530217885971, -0.06857018917798996, 0.027869544923305511, 0.040351938456296921, 0.0021302325185388327, 0.0090094553306698799, 0.0097523145377635956, 0.03497844934463501, 0.070459306240081787, -0.0091393580660223961, -0.034424833953380585, -0.010167662054300308, 0.025200901553034782, -0.037845764309167862, 0.035666879266500473, 0.027669070288538933, -0.06640932708978653, -0.058113135397434235, -0.045730005949735641, 0.072298981249332428, -0.025246595963835716, -0.069441616535186768, 0.035609401762485504, 0.022476522251963615, -0.02231825515627861, 0.024472303688526154, 0.051681991666555405, -0.047092273831367493, -0.009288545697927475, -0.040264863520860672, -0.020600873976945877, -0.014413737691938877, -0.046228550374507904, 0.022661011666059494, 0.024430962279438972, -0.039057347923517227, 0.018343642354011536, -0.0020963642746210098, -0.029968990013003349, 0.036386750638484955, 0.036598797887563705, -0.033535867929458618, 0.048929978162050247, 0.065329767763614655, -0.0068275877274572849, 0.049879509955644608, -0.002949864137917757, -0.071241877973079681, -0.025160234421491623, 0.063209518790245056, 0.042943600565195084, -0.0093794204294681549, -0.016620991751551628, 0.067653939127922058, -0.023860132321715355, 0.033742316067218781, 0.030119050294160843, 0.055734306573867798, 0.0040588430128991604, 0.015036109834909439, -0.050492718815803528, 0.046506103128194809, 0.050988402217626572, -0.034141130745410919, 0.04563642293214798, 0.061487063765525818, -0.06765379011631012, -0.064359903335571289, -0.00088206800865009427, 0.051732305437326431, -0.065789833664894104, -0.015528268180787563, 0.00011835454643005505, 0.0070510986261069775, 0.054638147354125977, 0.045586857944726944, 0.030698968097567558, -0.013785277493298054, 0.011516476050019264, 0.024439655244350433, -0.012473413720726967, -0.026859667152166367, -0.005151793360710144, 0.075066313147544861, 0.019414978101849556, -0.0128041822463274, 0.042240500450134277, -0.013972883112728596, 0.013177117332816124, -0.051718950271606445, 0.027517778798937798, 0.049783244729042053, 0.042437121272087097, 0.023173846304416656, -0.052479337900876999, 0.055839389562606812, 0.055645056068897247, 0.010022832080721855, -0.046925906091928482, 0.014393782243132591, -0.053961358964443207, -0.059389706701040268, -0.055260427296161652, -0.0011001202510669827, 0.0028215497732162476, 0.015240831300616264, 0.043208159506320953, -0.012046694755554199, 0.030711648985743523, 0.051664575934410095, -0.057198569178581238, -0.073519125580787659, 0.025899555534124374, 0.02956429123878479, -0.019313830882310867, 0.029475461691617966, 0.061887767165899277, -0.0056234640069305897, 0.073902547359466553, -0.021962011232972145, -0.014901534654200077, 0.0017247096402570605, 0.01808345690369606, 0.027174327522516251, -0.032768629491329193, 0.044299546629190445, 0.020518800243735313, -0.045675072818994522, -0.049620669335126877, -0.025916656479239464, -0.064414411783218384, -0.031428158283233643, -0.014889831654727459, 0.026084147393703461, 0.030246356502175331, 0.067579455673694611, 0.026949338614940643, 0.036830659955739975, 0.00095953018171712756, 0.044215772300958633, -0.032008551061153412, 0.046288195997476578, -0.0074460869655013084, -0.064970962703227997, -0.056793477386236191, 0.011588967405259609, -0.0093386881053447723, -0.041379395872354507, 0.075552016496658325, 0.06052812933921814, -0.03982766717672348, -0.0052566486410796642, -0.013353925198316574, -0.070210658013820648, -0.045712880790233612, -0.027086727321147919, -0.031580600887537003, -0.012652605772018433, -0.0548846535384655, -0.047152701765298843, -0.038245890289545059, -0.005968146026134491, -0.034614663571119308, 0.0052718669176101685, 0.068103931844234467, 0.065471284091472626, 0.018391117453575134, -0.039322156459093094, -0.015832561999559402, 0.045033197849988937, 0.011819283477962017, -0.053888570517301559, -0.06969655305147171, -0.06554083526134491, 0.053472716361284256, 0.065652035176753998, 0.0097940070554614067, -0.055832061916589737, 0.033610370010137558, 0.070607028901576996, -0.017892125993967056, 0.016426980495452881, 0.028464339673519135, -0.046304062008857727, -0.0065949037671089172, -0.073463097214698792, -0.073304399847984314, -0.021593786776065826, -0.039328351616859436, 0.042282279580831528, 0.058425415307283401, 0.015895098447799683, 0.0049545019865036011, 0.053167644888162613, -0.035737801343202591, -0.038697782903909683, -0.061050374060869217, -0.014698085375130177, -0.043399225920438766, -0.035198234021663666, -0.061668302863836288, 0.017407611012458801, 0.060464400798082352, 0.06440233439207077, 0.0060486197471618652, -0.022468835115432739, -0.064025990664958954, -0.056964639574289322, -0.0023874640464782715, -0.034664291888475418, -0.022780090570449829, -0.014389441348612309, 0.014598093926906586, -0.0061946660280227661, 0.072853885591030121, -0.033627875149250031, 0.039768178015947342, 0.067631490528583527, -0.061110261827707291, -0.039509199559688568, -0.04850277304649353, 0.049929264932870865, 0.035556923598051071, 0.013410712592303753, 0.05243881419301033, -0.049819093197584152, -0.056219983845949173, -0.011021886952221394, -0.025069322437047958, 0.0052972882986068726, 0.021760612726211548, -0.0088793020695447922, 0.02756122499704361, 0.06147480383515358, 0.029797866940498352, 0.06838294118642807, -0.076257340610027313, -0.067380093038082123, 0.024897642433643341, -0.070033229887485504, -0.070170879364013672, -0.063612289726734161, -0.025372184813022614, 0.046134833246469498, -0.024891715496778488, 0.051011521369218826, 0.030478935688734055, -0.017460804432630539, 0.062200017273426056, 0.036962922662496567, -0.051789995282888412, 0.036632206290960312, -0.023593101650476456, 0.066848941147327423, -0.024447612464427948, 0.041415933519601822, -0.041436810046434402, -0.052868809551000595, 0.049263704568147659, 0.023162759840488434, -0.063417963683605194, -0.021846801042556763, 0.00017159526760224253, -0.013229009695351124, -0.049698080867528915, 0.009657922200858593, -0.053186777979135513, -0.064962126314640045, -0.047582410275936127, -0.0086720120161771774, 0.073715217411518097, -0.073174521327018738, 0.041976932436227798, -0.068646050989627838, -0.038359634578227997, -0.067708194255828857, 0.01725161075592041, -0.024921026080846786, -0.016658816486597061, 0.016139551997184753, 0.01135233324021101, 0.036206509917974472, -0.075768783688545227, 0.0063571562059223652, -0.06075223907828331, 0.0089223785325884819, -0.074592217803001404, -0.051942374557256699, -0.0047606304287910461, -0.049923993647098541, -0.0074410364031791687, -0.074524648487567902, -0.016467999666929245, -0.024862658232450485, 0.018068008124828339, 0.051924441009759903, 0.027637757360935211, -0.05790918692946434, -0.016402347013354301, -0.034811440855264664, -0.053869396448135376, 0.062309261411428452, 0.03014703281223774, -0.02515699714422226, 0.051670018583536148, 0.031414669007062912, 0.071977131068706512, 0.069277040660381317, -0.053850259631872177, 0.027039378881454468, 0.032392051070928574, 0.032920103520154953, 0.04862615093588829, -0.027338232845067978, -0.018998470157384872, -0.033190988004207611, -0.036893561482429504, 0.073166839778423309, 0.047195706516504288, 0.021525375545024872, 0.049199003726243973, -0.034449893981218338, -0.022832531481981277, -0.065118983387947083, 0.063554249703884125, 0.062061667442321777, 0.041246924549341202, 0.0587017722427845, 0.017638355493545532, -0.032333239912986755, 0.016518309712409973, 0.056348208338022232, -0.013213326223194599, -0.021559160202741623, -0.021688014268875122, 0.046048734337091446, 0.041208397597074509, -0.014986247755587101, 0.0065154139883816242, 0.050533909350633621, 0.043658707290887833, 0.0015042657032608986, -0.062568418681621552, 0.011120463721454144, -0.065229810774326324, -0.018393538892269135, 0.0054669082164764404, 0.042146932333707809, -0.073061980307102203, -0.0031420513987541199, -0.025092668831348419, -0.025464709848165512, -0.018813453614711761, 0.037093784660100937, 0.0086533231660723686, 0.064027301967144012, -0.01413970161229372, -0.03115394338965416, 0.067106403410434723, -0.063921146094799042, -0.073467321693897247, -0.026857659220695496, 0.058350030332803726, 0.012162084691226482, -0.062246810644865036, -0.01417697686702013, 0.06163107231259346, -0.069996386766433716, -0.0046603307127952576, -0.031990829855203629, 0.015735805034637451, -0.070698842406272888, 0.046180475503206253, -0.0079948874190449715, 0.014527268707752228, -0.036339960992336273, -0.019606858491897583, 0.072805054485797882, 0.0015152256237342954, -0.07019323855638504, 0.011790658347308636, 0.040303055197000504, 0.0044201835989952087, -0.027752116322517395, 0.045433495193719864, -0.0093192737549543381, 0.039803128689527512, 0.0079180104658007622, -0.0075077638030052185, 0.047124449163675308, 0.0092612830922007561, -0.028414215892553329, -0.052937969565391541, 0.020277105271816254, -0.059138748794794083, -0.038586992770433426, -0.037418413907289505, 0.048070486634969711, -0.030744805932044983, -0.02038067951798439, 0.073244117200374603, 0.0071662673726677895, 0.019313231110572815, -0.069126836955547333, -0.062393281608819962, -0.043932437896728516, 0.056120071560144424, 0.051657307893037796, -0.054182890802621841, 0.037827011197805405, 0.012547644786536694, -0.058580152690410614, -0.00032620035926811397, 0.068113543093204498, -0.049774926155805588, 
  -0.061938676983118057, 0.04576626792550087, -0.038808934390544891, 0.044982101768255234, -0.004422488622367382, 0.038212273269891739, -0.012264980934560299, 0.068146795034408569, 0.031132552772760391, -0.065979018807411194, 0.055306162685155869, 0.053536470979452133, 0.032862111926078796, 0.04205501452088356, 0.027505001053214073, -0.019926071166992188, -0.06067359447479248, -0.040223006159067154, 0.021093526855111122, 0.042946048080921173, -0.051479093730449677, 0.030751101672649384, -0.047537561506032944, -0.027040284126996994, 0.045770745724439621, 0.037089165300130844, -0.057346954941749573, 0.041175387799739838, 0.059208333492279053, 0.045002676546573639, -0.035575196146965027, 0.027974309399724007, 0.057558685541152954, -0.038154736161231995, 0.039285287261009216, 0.0040597277693450451, 0.06703648716211319, -0.075110591948032379, 0.007959720678627491, 0.046605676412582397, -0.067091785371303558, 0.03957434743642807, -0.0034340003039687872, 0.052119303494691849, 0.066544570028781891, -0.060986313968896866, -0.0094655593857169151, -0.051499150693416595, 0.036674994975328445, 0.029228813946247101, -0.050692010670900345, -0.0065395338460803032, -0.020118573680520058, -0.079865597188472748, 0.010572096332907677, -0.064166814088821411, -0.069257207214832306, -0.076660811901092529, -0.033265583217144012, -0.010499435476958752, 0.064884655177593231, 0.022382315248250961, 0.070754662156105042, 0.052152939140796661, -0.047390870749950409, -0.061892114579677582, 0.041819598525762558, -0.067172706127166748, -0.051301091909408569, -0.071379795670509338, 0.039174158126115799, -0.041871704161167145, -0.043280806392431259, -0.057799074798822403, 0.010727633722126484, 0.019653817638754845, -0.024522319436073303, 0.068290509283542633, 0.020070262253284454, 0.066495984792709351, 0.0079948529601097107, 0.040657766163349152, 0.045121107250452042, -0.027463117614388466, -0.019366251304745674, -0.064885444939136505, -0.010202004574239254, -0.035391349345445633, 0.036992482841014862, -0.036533575505018234, 0.023767294362187386, 0.021264221519231796, -0.067174725234508514, 0.0045018475502729416, 0.056457292288541794, -0.035252418369054794, -0.049876198172569275, -0.020790208131074905, 0.052397891879081726, -0.022911664098501205, -0.028776524588465691, -0.01255335658788681, 0.05430973693728447, -0.045060999691486359, -0.036355964839458466, -0.0040349666960537434, 0.0080411238595843315, -0.020835114642977715, 0.011731588281691074, 0.016363561153411865, -0.064018912613391876, 0.010162348859012127, -0.0025762757286429405, 0.051005721092224121, 0.002281303983181715, 0.061707694083452225, -0.074189066886901855, -0.00083859678125008941, 0.048492420464754105, -0.010838756337761879, -0.075308889150619507, 0.050044730305671692, -0.0033918172121047974, 0.015290085226297379, -0.070000752806663513, -0.0058207027614116669, -0.0066754608415067196, -0.049913540482521057, 0.0084933452308177948, 0.017678553238511086, -0.035742927342653275, -0.07260315865278244, -0.024947918951511383, 0.057840462774038315, -0.021118801087141037, -0.042904965579509735, -0.05409657210111618, 0.011726888827979565, -0.0020196731202304363, 0.042031336575746536, 0.039627302438020706, 0.039263360202312469, 0.0091356802731752396, -0.031117813661694527, 0.0080100167542695999, 0.014220478944480419, -0.032684024423360825, -0.051638904958963394, -0.029655555263161659, -0.060714680701494217, -0.026015302166342735, -0.05215035006403923, 0.054034639149904251, 0.06181677058339119, -0.052665550261735916, 0.021081434562802315, 0.018349247053265572, 0.066026218235492706, -0.045254167169332504, -0.06691528856754303, -0.033721853047609329, 0.021455820649862289, 0.052166115492582321, 0.034749738872051239, -0.049281593412160873, 0.010432826355099678, -0.037277273833751678, -0.05985594168305397, 0.01830173097550869, -0.0001902217190945521, -0.080055274069309235, -0.040292602032423019, -0.0089470287784934044, -0.073374524712562561, 0.035246290266513824, 0.023312419652938843, 0.01692509837448597, 0.028029555454850197, 0.043359376490116119, -0.082508012652397156, -0.025014519691467285, 0.047144539654254913, 0.053998969495296478, 0.047572650015354156, -0.010684092529118061, -0.082123145461082458, -0.020058367401361465, 0.041214451193809509, -0.00075312890112400055, -0.049058105796575546, -0.021278824657201767, -0.070652857422828674, -0.0074670813046395779, -0.049959581345319748, -0.0080985818058252335, 0.064893230795860291, -0.04098987951874733, -0.058224190026521683, -0.056339949369430542, -0.041149955242872238, -0.04230818897485733, -0.024920493364334106, -0.055331822484731674, -0.035471145063638687, -0.0059672482311725616, -0.014597783796489239, -0.0038511317688971758, 0.039929714053869247, 0.054695971310138702, -0.010230301879346371, -0.016018854454159737, 0.054892964661121368, -0.014604611322283745, -0.025822941213846207, -0.028033876791596413, -0.036361299455165863, -0.077163606882095337, -0.014725763350725174, -0.070110209286212921, -0.059382352977991104, 0.06237967312335968, 0.017476238310337067, 0.043337985873222351, -0.029313551262021065, 0.062736563384532928, -0.079794757068157196, 0.043650656938552856, -0.080063730478286743, -0.048765413463115692, 0.0060762660577893257, -0.0093644643202424049, 0.060229286551475525, -0.079898685216903687, 0.0534832663834095, -0.057194199413061142, 0.011707976460456848, -0.038211431354284286, -0.01833651214838028, 0.052827585488557816, 0.057649768888950348, -0.014289927668869495, 0.016034258529543877, 0.04563455656170845, -0.077288083732128143, -0.075319983065128326, -0.032135717570781708, -0.0047279940918087959, 0.0057720746845006943, -0.083678871393203735, -0.037317071110010147, -0.079695656895637512, 0.016694281250238419, -0.03066016361117363, -0.079340845346450806, -0.0088028516620397568, -0.038487076759338379, -0.059206940233707428, 0.05432518944144249, 0.053991220891475677, 0.02286832220852375, -0.025246946141123772, -0.047274738550186157, 0.025643002241849899, -0.034212220460176468, -0.051093507558107376, -0.0054585258476436138, 0.037240747362375259, -0.042333118617534637, -0.0077854772098362446, -0.044556450098752975, 0.025584788993000984, 0.069857075810432434, 0.014944210648536682, -0.040817569941282272, -0.056481830775737762, -0.016164125874638557, 0.048953097313642502, -0.02580762654542923, -0.028563402593135834, 0.0067945737391710281, 0.069242678582668304, 0.076852306723594666, 0.037934053689241409, 0.018133038654923439, 0.07128472626209259, -0.041884683072566986, 0.059094753116369247, -0.046695038676261902, -0.04514959454536438, -0.0048554763197898865, -0.036965999752283096, -0.05267484113574028, -0.070254497230052948, 0.049402490258216858, -0.019654612988233566, -0.046947512775659561, 0.020077310502529144, -0.035830225795507431, -0.027943519875407219, 0.02162475511431694, -0.026312515139579773, -0.019809026271104813, -0.0041749808005988598, -0.071976609528064728, 0.0052416934631764889, 0.0004154354683123529, 0.020385084673762321, -0.01174183189868927, 0.06229107454419136, -0.031397189944982529, 0.028669854626059532, 0.026112450286746025, 0.022497303783893585, 0.045178018510341644, 0.065724804997444153, 0.021298583596944809, 0.047190144658088684, -0.041243307292461395, -0.054809547960758209, -0.061011914163827896, -0.038169436156749725, -0.047730941325426102, -0.050780173391103745, -0.063376538455486298, -0.0079941572621464729, -0.037710539996623993, 0.022402698174118996, -0.056255295872688293, -0.040876083076000214, 0.045564185827970505, 0.068414188921451569, 0.049697268754243851, 0.017169108614325523, -0.0022191582247614861, 0.0073042986914515495, 0.06821826845407486, 0.031797561794519424, 0.07117617130279541, 0.017398141324520111, -0.038754142820835114, 0.020428856834769249, -0.044423747807741165, -0.044580563902854919, 0.029102563858032227, 0.017288608476519585, -0.00043865153566002846, -0.011774312704801559, -0.06370197981595993, -0.05546385794878006, -0.023686135187745094, 0.03030630387365818, -0.070086874067783356, -0.016384681686758995, 0.032514691352844238, 0.0057097175158560276, 0.0385282002389431, 0.0020392537117004395, -0.021127458661794662, 0.032385960221290588, -0.058666311204433441, 0.024751311168074608, 0.012775610201060772, -0.055257175117731094, -0.0013463223585858941, 0.020327512174844742, 0.012401754967868328, 0.045267809182405472, -0.035294685512781143, -0.0497727170586586, 0.05287807434797287, 0.015420774929225445, 0.0092928837984800339, -0.0041509536094963551, 0.055437665432691574, 0.069709941744804382, 0.014873453415930271, 0.066892340779304504, 0.011695044115185738, 0.022165074944496155, -0.020817147567868233, -0.064662657678127289, -0.032798588275909424, -0.066294126212596893, -0.054329033941030502, 0.011746328324079514, 0.012343866750597954, -0.043001841753721237, 0.0012066327035427094, -0.011069172061979771, 0.067505531013011932, 0.024466637521982193, -0.0078359469771385193, -0.019696654751896858, 0.062430523335933685, -0.027539454400539398, 0.039162438362836838, 0.037420943379402161, -0.05918126180768013, 0.067112341523170471, -0.04312356561422348, -0.0079219816252589226, -0.020116223022341728, 0.04507257416844368, -0.035756923258304596, -0.033249959349632263, -0.076194815337657928, -0.039191164076328278, 0.019682828336954117, 0.066358879208564758, 0.061415098607540131, 0.010055943392217159, -0.043486889451742172, 0.039589103311300278, -0.041666172444820404, 0.0049451645463705063, 0.02202676422894001, 0.011466853320598602, -0.014110809192061424, 0.072000160813331604, -0.060191642493009567, -0.0093048708513379097, 0.058674953877925873, -0.012068723328411579, 0.034150328487157822, 0.061354890465736389, -0.066671103239059448, -0.01913178339600563, 0.0014728038804605603, -0.033232469111680984, -0.018023347482085228, -0.0040803099982440472, -0.067410238087177277, 0.00010824847413459793, -0.028938507661223412, 0.033721413463354111, 0.056328069418668747, -0.04446093738079071, -0.027677649632096291, -0.049279734492301941, -0.023479953408241272, 0.01923561654984951, -0.012166778557002544, 0.043854329735040665, -0.016033388674259186, 0.064738228917121887, -0.023659387603402138, 0.046487625688314438, 0.00080733001232147217, -0.0076613021083176136, 0.01923210546374321, 0.049044378101825714, 0.030107561498880386, 0.066160649061203003, 0.019194154068827629, 0.047968808561563492, -0.001815055962651968, -0.077436111867427826, -0.0070647029206156731, -0.033235203474760056, -0.0011868505971506238, -0.013738736510276794, 0.054381351917982101, -0.069179408252239227, 0.044089484959840775, -0.00086532655404880643, -0.064469337463378906, -0.035769518464803696, -0.04003547877073288, 0.016106260940432549, 0.046291232109069824, 0.020842624828219414, 0.05187566950917244, -0.057438395917415619, -0.052858743816614151, 0.061914511024951935, -0.055527441203594208, 0.047382697463035583, 0.0038958087097853422, 0.021800635382533073, 0.055462274700403214, -0.0355832539498806, -0.007072053849697113, -0.063380621373653412, -0.025469360873103142, 0.026648148894309998, 0.0042513357475399971, -0.062555804848670959, 0.045286528766155243, -0.0094484239816665649, -0.03998107835650444, -0.059076271951198578, -0.0032581693958491087, 0.058469239622354507, -0.05820075049996376, 0.063345052301883698, -0.0087085152044892311, -0.077919282019138336, -0.026909485459327698, 0.063690394163131714, 0.016031432896852493, 0.033579640090465546, 0.045666668564081192, 0.054889116436243057, -0.056236058473587036, -0.068056508898735046, 0.045031264424324036, -0.048204027116298676, 0.021780623123049736, -0.053002007305622101, 0.016002621501684189, 0.0595274418592453, 0.067923747003078461, -0.075248666107654572, -0.04201129823923111, 0.042754743248224258, 0.053489483892917633, -0.039142627269029617, -0.032482132315635681, 0.059408359229564667, -0.03045991063117981, -0.045774966478347778, -0.010140924714505672, 0.024995751678943634, 0.049977492541074753, 0.0090108755975961685, 0.027691163122653961, -0.024646652862429619, -0.035413026809692383, -0.055269099771976471, 0.01782812736928463, -0.0070396037772297859, -0.072129569947719574, 0.019417965784668922, 0.064943827688694, -0.014461011625826359, 0.0074172788299620152, 0.065736986696720123, -0.06954646110534668, 0.027803665027022362, 0.03488709032535553, -0.072736606001853943, -0.03938782587647438, -0.058034706860780716, 0.045711882412433624, 0.056886672973632812, 0.020407022908329964, -0.00075642875162884593, -0.0021909887436777353, 0.059832897037267685, 0.0095748631283640862, -0.01887844130396843, -0.016434842720627785, -0.035157494246959686, -0.039836063981056213, -0.057528235018253326, 0.070013418793678284, 0.029992874711751938, -0.056769602000713348, -0.039615243673324585, 0.063086934387683868, -0.07403719425201416, -0.0021320520900189877, 0.01512499526143074, 0.007830875925719738, -0.046360678970813751, 0.036962874233722687, 0.0069859116338193417, -0.026543421670794487, 0.059929400682449341, 0.070561714470386505, -0.073102548718452454, 0.030689850449562073, -0.074709281325340271, -0.040199052542448044, 0.00036456822999753058, 0.06862863153219223, -0.0080552650615572929, 0.041077304631471634, 0.056968037039041519, -0.042814053595066071, -0.037230778485536575, -0.0031522342469543219, 0.02582390233874321, 0.06654125452041626, 0.062017250806093216, 0.015750495716929436, 0.034773975610733032, 0.026040377095341682, 0.035774342715740204, -0.028009824454784393, -0.04236331582069397, 0.019895229488611221, 0.010412273928523064, -0.064291916787624359, -0.012312378734350204, -0.038572065532207489, 0.05876053124666214, 0.054533064365386963, -0.05084596574306488, 0.030038779601454735, 0.030232114717364311, -0.0092683611437678337, -0.019492853432893753, -0.0336114801466465, -0.072820931673049927, 0.022215940058231354, -0.025801230221986771, 0.062432814389467239, 4.8586010962026194e-05, -0.067515924572944641, 0.044630531221628189, -0.061525139957666397, -0.018935797736048698, 0.013768924400210381, 0.049180112779140472, -0.022088369354605675, 0.037422951310873032, -0.034807614982128143, 0.053796365857124329, 0.015290484763681889, 0.016875332221388817, 0.047290094196796417, -0.0019293955992907286, 0.074146151542663574, -0.011779082007706165, -0.060376729816198349, 0.049528010189533234, 0.061303112655878067, 0.054511792957782745, -0.056821469217538834, -0.027117956429719925, -0.0602717325091362, -0.044293917715549469, -0.052802395075559616, -0.022915259003639221, 0.048479340970516205, -0.016944620758295059, 0.068167060613632202, -0.034134764224290848, -0.04087071493268013, -0.011012598872184753, -0.004279781598597765, 0.023033557459712029, 0.020701650530099869, -0.0082851303741335869, 0.0027409549802541733, -0.0091547425836324692, -0.065810598433017731, -0.02583346888422966, -0.072779253125190735, 0.0076266606338322163, -0.068752653896808624, 0.039395984262228012, -0.018080307170748711, 0.068855628371238708, -0.00040160398930311203, -0.023226311430335045, 0.024905350059270859, 0.010302579030394554, -0.025713620707392693, 0.012797456234693527, 0.034110885113477707, 0.062138035893440247, -0.026237020269036293, 0.023855587467551231, -0.019752345979213715, 0.067723564803600311, -0.0093085421249270439, 0.041218187659978867, -0.014570645056664944, 0.0054927109740674496, -0.011337443254888058, 0.03998120129108429, -0.0063906642608344555, 0.06612890213727951, 0.03529907763004303, -0.021358657628297806, -0.058695301413536072, -0.062140889465808868, 0.030045265331864357, -0.027007609605789185, -0.063712090253829956, -0.0075712632387876511, 0.067299365997314453, -0.046623677015304565, 0.012605564668774605, 0.023149456828832626, -0.057954516261816025, 0.073957338929176331, -0.071140393614768982, 0.028947712853550911, -0.069603905081748962, -0.068741887807846069, 0.03786381334066391, -0.0075142830610275269, 0.06901916116476059, -0.0087279109284281731, 0.05136040598154068, -0.013885711319744587, 0.052300140261650085, -0.034204635769128799, -0.015983143821358681, 0.00085452565690502524, 0.061215493828058243, -0.073516309261322021, 0.017788434401154518, -0.0030443780124187469, 0.030665745958685875, -0.056772723793983459, 0.064613021910190582, 0.058511137962341309, 0.031201265752315521, 0.021266113966703415, -0.045185104012489319, -0.053296543657779694, 0.012511615641415119, 0.063900791108608246, -0.050829183310270309, -0.0067815352231264114, 0.034458696842193604, -0.024229548871517181, 0.0080957598984241486, 0.033346667885780334, -0.07351268082857132, 0.045157212764024734, 0.050329148769378662, 0.020781079307198524, 0.059130262583494186, 0.022734647616744041, 0.065349571406841278, 0.069907099008560181, -0.0052253389731049538, -0.026915542781352997, 0.029101274907588959, 0.03368789330124855, -0.070703849196434021, -0.051006495952606201, 0.0081761805340647697, -0.023438168689608574, 0.070695608854293823, -0.050180036574602127, -0.04946507140994072, 0.066237255930900574, -0.068819940090179443, 0.017282651737332344, -0.066953010857105255, -0.038532186299562454, -0.00055713992333039641, 0.055118713527917862, -0.008887002244591713, -0.062631525099277496, 0.070897817611694336, -0.074118867516517639, 0.015124904923141003, 0.038244243711233139, 0.0098531255498528481, 0.048242926597595215, -0.05696357786655426, -0.018612582236528397, 0.028709519654512405, 0.06422317773103714, 0.055919278413057327, 0.010662651620805264, -0.066775873303413391, 0.042579084634780884, -0.030270431190729141, -0.01038894709199667, 0.016489433124661446, 0.031901493668556213, 0.038525741547346115, 0.067209251224994659, 0.0095967371016740799, 0.045511581003665924, 0.046259231865406036, -0.046600788831710815, 0.043903212994337082, -0.048782382160425186, -0.013609441928565502, 0.047947913408279419, -0.068294636905193329, -0.06259986013174057, -0.053294513374567032, 0.050010040402412415, 0.038957878947257996, -0.080051332712173462, 0.023157032206654549, 0.020279176533222198, -0.0065519320778548717, -0.010724800638854504, -0.0095661254599690437, -0.0057087778113782406, -0.055751040577888489, -0.060831479728221893, -0.069553837180137634, 0.068670250475406647, 0.052245393395423889, 0.018843991681933403, -0.048823107033967972, 0.04277888685464859, -0.074626341462135315, -0.0064986599609255791, -0.03746289387345314, -0.046544697135686874, -0.058391433209180832, -0.014836465008556843, -0.021157225593924522, -0.021191144362092018, -0.047560658305883408, -0.072185516357421875, 0.046157408505678177, 0.021761683747172356, -0.073909394443035126, -0.067694924771785736, -0.019646970555186272, 0.057566136121749878, 0.027336373925209045, -0.027649151161313057, 0.047412090003490448, 0.072635583579540253, -0.052112970501184464, 0.028868475928902626, -0.0077610486187040806, -0.07422841340303421, -0.028012556955218315, -0.07206425815820694, -0.045193836092948914, 0.018063673749566078, -0.031819529831409454, -0.0054473476484417915, 0.028023367747664452, -0.041439186781644821, -0.0061093773692846298, -0.017018372192978859, -0.0029028074350208044, 0.031953364610671997, -0.05687616765499115, -0.05033859983086586, 0.016498394310474396, 0.0023255401756614447, 0.062022939324378967, 0.038665164262056351, 0.0018846598686650395, -0.022875308990478516, -0.014565282501280308, -0.017065158113837242, -0.053572006523609161, -0.022979149594902992, -0.054031677544116974, 0.00069358327891677618, 0.044616539031267166, -0.071141168475151062, -0.060745526105165482, 0.035433836281299591, -0.04641401395201683, 0.013526830822229385, 0.023935701698064804, -0.015871100127696991, -0.045000214129686356, -0.067191854119300842, -0.043846137821674347, -0.035729881376028061, 0.048059362918138504, 0.051394950598478317, 0.045725718140602112, 0.074988536536693573, -0.069577746093273163, 0.067177258431911469, -0.0050253295339643955, 0.063601493835449219, 0.055616840720176697, 0.069124735891819, -0.05291399359703064, -0.035530336201190948, 0.063875280320644379, -0.062510542571544647, -0.055411741137504578, -0.027767019346356392, -0.039077267050743103, -0.069800049066543579, 0.05722147598862648, 0.040474310517311096, -0.019852673634886742, 0.028635686263442039, 0.063208490610122681, -0.020679594948887825, -0.056351177394390106, -0.015681907534599304, 0.027248026803135872, -0.02475326880812645, -0.020740794017910957, -0.059251256287097931, -0.01036987267434597, -0.016992351040244102, 0.024848790839314461, -0.0010400012833997607, -0.056456852704286575, -0.00076481170253828168, -0.0022241228725761175, -0.019008424133062363, -0.058947224169969559, 0.039448503404855728, 0.024322414770722389, -0.068094640970230103, -0.053557999432086945, -0.01419510506093502, 0.043268423527479172, -0.010909002274274826, 0.033125359565019608, -0.052504312247037888, -0.033786814659833908, -0.015457144007086754, -0.065783612430095673, -0.03748997300863266, 0.023942440748214722, -0.0014908253215253353, -0.0074821547605097294, 0.060363363474607468, -0.046168055385351181, -0.069298796355724335, -0.042175754904747009, 0.064718469977378845, -0.048499040305614471, -0.038325730711221695, -0.031531650573015213, 0.036782708019018173, 0.013681129552423954, -0.062660761177539825, -0.064933240413665771, -0.063083387911319733, 0.0015113641275092959, 0.0051857428625226021, -0.062196459621191025, 0.046434137970209122, -0.046153653413057327, -0.029529595747590065, 0.047013867646455765, 0.037636410444974899, -0.023182781413197517, -0.063570328056812286, 0.040387134999036789, -0.03282599151134491, 0.018079387024044991, 0.055392690002918243, -0.018574463203549385, 0.072332687675952911, 0.072203926742076874, -0.043759867548942566, 0.010566648095846176, 0.02772880345582962, -0.026070160791277885, -0.036845818161964417, -0.072843216359615326, 0.061933014541864395, -0.03228292241692543, -0.046106103807687759, -0.074367538094520569, -0.030850021168589592, 0.042229592800140381, 0.029615696519613266, -0.050279520452022552, 0.033739354461431503, 0.035533640533685684, -0.039652861654758453, 0.063889972865581512, 0.040862362831830978, -0.07033240795135498, -0.014994168654084206, -0.038095057010650635, 0.046724148094654083, -0.054671250283718109, -0.048028934746980667, 0.013234071433544159, 0.044484119862318039, -0.0041782786138355732, -0.015374886803328991, -0.037357490509748459, 0.047137096524238586, 0.0017700038151815534, 0.056658845394849777, -0.056565374135971069, -0.072954237461090088, -0.01366994995623827, 0.019108930602669716, -0.02987239696085453, -0.0092729134485125542, 0.061594776809215546, -0.045180175453424454, 0.037120342254638672, 0.05995013564825058, 0.015003629960119724, 0.01108001172542572, 0.073571354150772095, -0.0010666579473763704, -0.054073862731456757, -0.0078598279505968094, 0.073599010705947876, 0.028864262625575066, -0.02058364637196064, 0.046731855720281601, 0.073355264961719513, -0.033042151480913162, 0.038065597414970398, 0.018915077671408653, -0.037350509315729141, -0.004106003325432539, -0.014362363144755363, 